<?xml version="1.0"?>
<opencv_storage>
<cascade>
  <stageType>BOOST</stageType>
  <featureType>LBP</featureType>
  <height>20</height>
  <width>20</width>
  <stageParams>
    <boostType>GAB</boostType>
    <minHitRate>9.9900001287460327e-01</minHitRate>
    <maxFalseAlarm>3.0000001192092896e-01</maxFalseAlarm>
    <weightTrimRate>9.4999999999999996e-01</weightTrimRate>
    <maxDepth>1</maxDepth>
    <maxWeakCount>100</maxWeakCount></stageParams>
  <featureParams>
    <maxCatCount>256</maxCatCount>
    <featSize>1</featSize></featureParams>
  <stageNum>20</stageNum>
  <stages>
    <!-- stage 0 -->
    <_>
      <maxWeakCount>7</maxWeakCount>
      <stageThreshold>-2.8859424591064453e-01</stageThreshold>
      <weakClassifiers>
        <_>
          <internalNodes>
            0 -1 114 -673928542 1040165626 831791656 -402674966
            -1074287958 851255976 -218124630 939467426</internalNodes>
          <leafValues>
            -5.3008598089218140e-01 7.8737008571624756e-01</leafValues></_>
        <_>
          <internalNodes>
            0 -1 119 1565654989 2144649087 273970024 118832594 -8963282
            1065320444 2147352039 341170175</internalNodes>
          <leafValues>
            -4.9144187569618225e-01 6.5216845273971558e-01</leafValues></_>
        <_>
          <internalNodes>
            0 -1 200 -747913957 1312362027 1073700847 -268456157
            1328780475 -1086570625 980621242 645612655</internalNodes>
          <leafValues>
            -4.9102813005447388e-01 6.1413824558258057e-01</leafValues></_>
        <_>
          <internalNodes>
            0 -1 20 -652558154 -986382201 1099173890 1439236224
            -2080331336 176324737 8435886 9175080</internalNodes>
          <leafValues>
            -5.4910206794738770e-01 5.3482919931411743e-01</leafValues></_>
        <_>
          <internalNodes>
            0 -1 50 -698287212 1377840864 -75595794 935062763 -280984531
            743636753 -294252569 -654311705</internalNodes>
          <leafValues>
            -4.6441775560379028e-01 6.1225551366806030e-01</leafValues></_>
        <_>
          <internalNodes>
            0 -1 133 -130559145 -26250697 226160222 -1708183640
            -1722446178 649969500 -1639814708 21696871</internalNodes>
          <leafValues>
            -4.9909779429435730e-01 6.0958892107009888e-01</leafValues></_>
        <_>
          <internalNodes>
            0 -1 77 -586882737 340373504 16785487 186875907 -2130680958
            150994952 537495578 218826767</internalNodes>
          <leafValues>
            -5.2336758375167847e-01 5.5473959445953369e-01</leafValues></_></weakClassifiers></_>
    <!-- stage 1 -->
    <_>
      <maxWeakCount>8</maxWeakCount>
      <stageThreshold>-9.5791935920715332e-01</stageThreshold>
      <weakClassifiers>
        <_>
          <internalNodes>
            0 -1 112 -789599606 -83206 1643455136 -16930054 2012723874
            865841912 936886010 1887281402</internalNodes>
          <leafValues>
            -3.8118812441825867e-01 7.9765886068344116e-01</leafValues></_>
        <_>
          <internalNodes>
            0 -1 75 -707499452 -1074724881 -1342526552 -35328152
            1725398927 491536300 2013032392 -578498740</internalNodes>
          <leafValues>
            -4.2212808132171631e-01 6.2213677167892456e-01</leafValues></_>
        <_>
          <internalNodes>
            0 -1 78 -413527424 -905969534 20491 -1827949531 -792000444
            -1828716415 -1048509925 -7895602</internalNodes>
          <leafValues>
            -5.5685561895370483e-01 5.0149577856063843e-01</leafValues></_>
        <_>
          <internalNodes>
            0 -1 185 1291357422 2146287359 1874800383 -1610805310
            -2008791040 261902295 -555947009 -440410561</internalNodes>
          <leafValues>
            -4.6244633197784424e-01 5.7389491796493530e-01</leafValues></_>
        <_>
          <internalNodes>
            0 -1 135 -1874398520 -1805795262 33571330 -695893842
            428077068 -1610479488 1889649696 751670284</internalNodes>
          <leafValues>
            -6.1168074607849121e-01 4.3105307221412659e-01</leafValues></_>
        <_>
          <internalNodes>
            0 -1 26 1161827788 -1794109432 268522640 -782827483
            -2134865455 865599497 16803913 604115977</internalNodes>
          <leafValues>
            -6.7095482349395752e-01 3.8999167084693909e-01</leafValues></_>
        <_>
          <internalNodes>
            0 -1 201 -1659774038 1967724545 -1052770174 1074367516
            -1299997694 2621449 41988138 446576779</internalNodes>
          <leafValues>
            -5.6116235256195068e-01 4.6666154265403748e-01</leafValues></_>
        <_>
          <internalNodes>
            0 -1 101 1478154830 -1824012279 335840512 1078657168
            -1207893350 345112577 -402095219 1389178754</internalNodes>
          <leafValues>
            -5.7403051853179932e-01 4.6860274672508240e-01</leafValues></_></weakClassifiers></_>
    <!-- stage 2 -->
    <_>
      <maxWeakCount>9</maxWeakCount>
      <stageThreshold>-3.5313490033149719e-01</stageThreshold>
      <weakClassifiers>
        <_>
          <internalNodes>
            0 -1 122 1618256624 1967063039 817901616 1895168240
            -675299329 911556599 -193626369 1962278895</internalNodes>
          <leafValues>
            -4.5454546809196472e-01 7.2755420207977295e-01</leafValues></_>
        <_>
          <internalNodes>
            0 -1 93 2057951879 -12633869 788479103 1606388862 1580895859
            805306367 111119887 436167931</internalNodes>
          <leafValues>
            -3.8107457756996155e-01 6.2323528528213501e-01</leafValues></_>
        <_>
          <internalNodes>
            0 -1 117 1477544064 293650692 1360003424 1393393730 69867
            373293194 -2088662197 -754251610</internalNodes>
          <leafValues>
            -5.7682442665100098e-01 4.6449548006057739e-01</leafValues></_>
        <_>
          <internalNodes>
            0 -1 80 -7942444 -12026160 519994209 -138547211 -269066493
            -19587159 -179329 -1073905865</internalNodes>
          <leafValues>
            -4.4158691167831421e-01 5.7504320144653320e-01</leafValues></_>
        <_>
          <internalNodes>
            0 -1 205 -1758662499 -756645956 1803513150 180160418
            -1942724984 435965901 1282690186 -1267563877</internalNodes>
          <leafValues>
            -4.1759207844734192e-01 5.9316557645797729e-01</leafValues></_>
        <_>
          <internalNodes>
            0 -1 142 74444892 1385373368 1342159979 860847992 -389441024
            -1939050754 241468587 -681582953</internalNodes>
          <leafValues>
            -4.0422639250755310e-01 5.9791356325149536e-01</leafValues></_>
        <_>
          <internalNodes>
            0 -1 108 -803698640 940703925 67141700 -921693180 39098
            134234632 678112 -1204510709</internalNodes>
          <leafValues>
            -5.4378432035446167e-01 4.4815459847450256e-01</leafValues></_>
        <_>
          <internalNodes>
            0 -1 24 1744932992 -350355456 352426254 25757707 -1877440267
            989855888 -1878908643 1905051684</internalNodes>
          <leafValues>
            -6.1619472503662109e-01 3.8898643851280212e-01</leafValues></_>
        <_>
          <internalNodes>
            0 -1 128 1572951889 269115527 8389724 1393558018 1661667747
            41975954 -469556625 1053271723</internalNodes>
          <leafValues>
            -5.4702353477478027e-01 4.6981507539749146e-01</leafValues></_></weakClassifiers></_>
    <!-- stage 3 -->
    <_>
      <maxWeakCount>11</maxWeakCount>
      <stageThreshold>-9.6866679191589355e-01</stageThreshold>
      <weakClassifiers>
        <_>
          <internalNodes>
            0 -1 163 -562656052 -1634877780 -1342329987 1072644095
            205786176 -1929609636 1861910474 -570425345</internalNodes>
          <leafValues>
            -1.9274376332759857e-01 7.6358932256698608e-01</leafValues></_>
        <_>
          <internalNodes>
            0 -1 106 1095028966 1364205585 1342246952 -712178618
            -794691398 402688130 -2080337522 59548168</internalNodes>
          <leafValues>
            -4.9492749571800232e-01 4.8547175526618958e-01</leafValues></_>
        <_>
          <internalNodes>
            0 -1 74 -10230270 1989413152 -1086554369 -135403662
            -1346418794 -25856080 2147377143 -7620143</internalNodes>
          <leafValues>
            -3.9925587177276611e-01 5.2907246351242065e-01</leafValues></_>
        <_>
          <internalNodes>
            0 -1 156 -779078896 1484989444 1074020487 1196540313
            553699504 -1786740736 -2147286997 90587986</internalNodes>
          <leafValues>
            -5.5953562259674072e-01 4.0429151058197021e-01</leafValues></_>
        <_>
          <internalNodes>
            0 -1 189 943763976 613585165 8274 541229200 -1738444404
            -785907704 -1300162423 -1936863310</internalNodes>
          <leafValues>
            -5.4052567481994629e-01 3.7764835357666016e-01</leafValues></_>
        <_>
          <internalNodes>
            0 -1 14 -1471965196 -749465472 1090519056 -41827962 2720153
            17350656 1107822691 1984668034</internalNodes>
          <leafValues>
            -4.8808306455612183e-01 4.4480511546134949e-01</leafValues></_>
        <_>
          <internalNodes>
            0 -1 198 463281037 -915817134 1878863460 1751240006
            1333762885 1969092436 -730593937 1464304751</internalNodes>
          <leafValues>
            -4.3474495410919189e-01 4.9919942021369934e-01</leafValues></_>
        <_>
          <internalNodes>
            0 -1 92 -1049039699 1566717740 1069428285 -1812988101
            2004352443 -1208549569 281945000 -1934837889</internalNodes>
          <leafValues>
            -3.5233768820762634e-01 6.2781482934951782e-01</leafValues></_>
        <_>
          <internalNodes>
            0 -1 11 1747967506 -1387485310 -268456322 -677603827
            511118229 612322653 -1912638211 -982690781</internalNodes>
          <leafValues>
            -4.0956178307533264e-01 5.2306431531906128e-01</leafValues></_>
        <_>
          <internalNodes>
            0 -1 61 142668272 -2147479471 -2130665311 575996932
            813762193 -622624637 -2004845656 263913493</internalNodes>
          <leafValues>
            -5.7813948392868042e-01 3.9855226874351501e-01</leafValues></_>
        <_>
          <internalNodes>
            0 -1 5 1026460613 1992436704 2139057983 -1960007881
            -1351762029 539490292 -1546899476 -50235937</internalNodes>
          <leafValues>
            -3.7261769175529480e-01 6.2253576517105103e-01</leafValues></_></weakClassifiers></_>
    <!-- stage 4 -->
    <_>
      <maxWeakCount>12</maxWeakCount>
      <stageThreshold>-4.3169933557510376e-01</stageThreshold>
      <weakClassifiers>
        <_>
          <internalNodes>
            0 -1 72 -529782 245562597 804917119 227524389 1133813555
            696254327 1869553647 51369847</internalNodes>
          <leafValues>
            -2.0000000298023224e-01 7.2181069850921631e-01</leafValues></_>
        <_>
          <internalNodes>
            0 -1 128 1975868251 -60432457 -2050558380 -671239433
            -34078866 905744239 -184549457 1431740007</internalNodes>
          <leafValues>
            -3.5328614711761475e-01 5.8271461725234985e-01</leafValues></_>
        <_>
          <internalNodes>
            0 -1 111 1346470018 1400459532 9638 -451426161 553652494
            1140916360 -1996469910 2003774370</internalNodes>
          <leafValues>
            -6.0847735404968262e-01 3.6348259449005127e-01</leafValues></_>
        <_>
          <internalNodes>
            0 -1 146 -662148040 1096941696 1065079 1443987795
            -1064823775 696451328 -393733361 -1106544629</internalNodes>
          <leafValues>
            -4.7530153393745422e-01 4.2842113971710205e-01</leafValues></_>
        <_>
          <internalNodes>
            0 -1 151 -41706877 -1448386631 247119569 -779461204
            -1786398186 -1873256555 160302728 -1505312155</internalNodes>
          <leafValues>
            -3.9179974794387817e-01 5.4760915040969849e-01</leafValues></_>
        <_>
          <internalNodes>
            0 -1 205 -998274221 -429031436 1786768459 2000164779
            -1113273702 -1124237494 -998940534 -989618152</internalNodes>
          <leafValues>
            -3.2085418701171875e-01 6.3596302270889282e-01</leafValues></_>
        <_>
          <internalNodes>
            0 -1 132 2121162490 -1278070 1005956626 -74720 -545318974
            -268533790 -1658956196 -556818589</internalNodes>
          <leafValues>
            -4.0851789712905884e-01 5.1779919862747192e-01</leafValues></_>
        <_>
          <internalNodes>
            0 -1 149 -234911899 -277348563 904900011 796867237
            -1210477832 -1661050886 1862004798 -1280184567</internalNodes>
          <leafValues>
            -3.1693759560585022e-01 6.9409126043319702e-01</leafValues></_>
        <_>
          <internalNodes>
            0 -1 6 -1472084475 -1213628694 2137271420 925826596
            1700845346 1165950847 -565313984 389545845</internalNodes>
          <leafValues>
            -4.1741305589675903e-01 5.3326749801635742e-01</leafValues></_>
        <_>
          <internalNodes>
            0 -1 49 1732306262 1111539969 1074872464 1912091025
            1946169935 676331531 1753227915 2070127139</internalNodes>
          <leafValues>
            -4.7482371330261230e-01 4.9068543314933777e-01</leafValues></_>
        <_>
          <internalNodes>
            0 -1 217 558312864 1346470053 1174520064 -2071855096
            33567264 539001352 1358974990 -710811134</internalNodes>
          <leafValues>
            -5.3363138437271118e-01 4.2349305748939514e-01</leafValues></_>
        <_>
          <internalNodes>
            0 -1 81 1744976310 -251264895 134287238 1310150859
            1376905643 1510490242 1745431765 95229968</internalNodes>
          <leafValues>
            -6.1997622251510620e-01 4.1086283326148987e-01</leafValues></_></weakClassifiers></_>
    <!-- stage 5 -->
    <_>
      <maxWeakCount>12</maxWeakCount>
      <stageThreshold>-3.4040543437004089e-01</stageThreshold>
      <weakClassifiers>
        <_>
          <internalNodes>
            0 -1 181 -860189496 2049744444 -19071234 1073688575
            754715832 788463544 754510958 -1225789473</internalNodes>
          <leafValues>
            -2.0100502669811249e-01 7.3211312294006348e-01</leafValues></_>
        <_>
          <internalNodes>
            0 -1 51 -795425110 221512864 -268628281 1542976544
            2113148370 1294274848 -168464401 -671414000</internalNodes>
          <leafValues>
            -3.9297363162040710e-01 5.2304577827453613e-01</leafValues></_>
        <_>
          <internalNodes>
            0 -1 192 1511054929 -780740239 1660806900 124766148
            -1225341008 -1015063182 2020670059 -790637301</internalNodes>
          <leafValues>
            -3.0272150039672852e-01 6.2843585014343262e-01</leafValues></_>
        <_>
          <internalNodes>
            0 -1 121 1829361044 723108245 286294147 -1786443367
            1342488720 1745913856 1623744522 166439119</internalNodes>
          <leafValues>
            -4.6657806634902954e-01 4.4631022214889526e-01</leafValues></_>
        <_>
          <internalNodes>
            0 -1 114 335905410 1363443716 1073826158 -1002078135
            1099531945 1376616837 33636691 1175165130</internalNodes>
          <leafValues>
            -7.0698761940002441e-01 2.7499535679817200e-01</leafValues></_>
        <_>
          <internalNodes>
            0 -1 32 1409792367 -618114870 99346 -1811415038 -1597337504
            -1558017920 575177327 285638699</internalNodes>
          <leafValues>
            -4.7943940758705139e-01 4.5134532451629639e-01</leafValues></_>
        <_>
          <internalNodes>
            0 -1 180 -1945440609 -663699468 788291294 -1279479028
            -1342234812 -1005207980 1014847262 -554312481</internalNodes>
          <leafValues>
            -4.2615011334419250e-01 5.4549413919448853e-01</leafValues></_>
        <_>
          <internalNodes>
            0 -1 17 -35338001 1059746401 1828712288 -1225404932
            -33771903 -998504553 1072725342 2146938540</internalNodes>
          <leafValues>
            -3.1145751476287842e-01 6.8155705928802490e-01</leafValues></_>
        <_>
          <internalNodes>
            0 -1 79 26325876 859918540 172001299 -803471191 1619134738
            1276117123 -184444793 1887480971</internalNodes>
          <leafValues>
            -5.3374338150024414e-01 4.1530707478523254e-01</leafValues></_>
        <_>
          <internalNodes>
            0 -1 210 -2100432448 -1861975930 -1073659897 538329426
            1619062794 1614974337 -955940821 1053913800</internalNodes>
          <leafValues>
            -4.9483090639114380e-01 4.7059002518653870e-01</leafValues></_>
        <_>
          <internalNodes>
            0 -1 164 -341058385 -533502097 1073741565 -12666945
            317552780 -1631797703 -1367687495 -83927638</internalNodes>
          <leafValues>
            -2.7592736482620239e-01 7.7936732769012451e-01</leafValues></_>
        <_>
          <internalNodes>
            0 -1 213 -512534547 753155581 2029928303 -1858478085
            1084743304 -2030084996 1331124812 1625632217</internalNodes>
          <leafValues>
            -4.5641553401947021e-01 5.0986564159393311e-01</leafValues></_></weakClassifiers></_>
    <!-- stage 6 -->
    <_>
      <maxWeakCount>13</maxWeakCount>
      <stageThreshold>-1.0421987622976303e-01</stageThreshold>
      <weakClassifiers>
        <_>
          <internalNodes>
            0 -1 123 1970339646 -310903825 73693160 1422224596
            2147270635 536182780 888502021 274018015</internalNodes>
          <leafValues>
            -2.2222222387790680e-01 6.8338555097579956e-01</leafValues></_>
        <_>
          <internalNodes>
            0 -1 160 -1278231284 1026976513 -272746325 -1073889745
            -27398295 2145201572 -251741184 -1645749201</internalNodes>
          <leafValues>
            -3.2524392008781433e-01 5.4898911714553833e-01</leafValues></_>
        <_>
          <internalNodes>
            0 -1 89 -750536812 -1841065976 -1073741414 -1765572464
            1929447043 -1071452032 3478088 679946628</internalNodes>
          <leafValues>
            -4.5038852095603943e-01 4.4065770506858826e-01</leafValues></_>
        <_>
          <internalNodes>
            0 -1 157 -982610198 -1449914619 486509935 -1619137319
            536760004 -1394640965 -1642250466 -712521378</internalNodes>
          <leafValues>
            -3.8900384306907654e-01 5.0168335437774658e-01</leafValues></_>
        <_>
          <internalNodes>
            0 -1 188 -247938202 -2126425853 134416521 328582297
            277954818 304611338 675388334 637640707</internalNodes>
          <leafValues>
            -4.6173429489135742e-01 4.1570004820823669e-01</leafValues></_>
        <_>
          <internalNodes>
            0 -1 1 310378784 -1722757053 1275135246 -1052180320
            -1834448189 -2096625664 -1601652197 55796746</internalNodes>
          <leafValues>
            -5.6772279739379883e-01 3.5720303654670715e-01</leafValues></_>
        <_>
          <internalNodes>
            0 -1 30 515177843 2013065205 -134283342 -1578882207
            -857442591 1996029919 -1073747970 -926919263</internalNodes>
          <leafValues>
            -4.2315831780433655e-01 5.0673711299896240e-01</leafValues></_>
        <_>
          <internalNodes>
            0 -1 15 311211476 -2129623669 -1073741796 -721026812
            1610959113 25264134 1619300750 323191043</internalNodes>
          <leafValues>
            -4.7625273466110229e-01 4.7033488750457764e-01</leafValues></_>
        <_>
          <internalNodes>
            0 -1 196 843444693 -1064959934 268436744 1744896257
            -1275050792 -2144861536 -1585017952 976716430</internalNodes>
          <leafValues>
            -4.5067676901817322e-01 4.7332230210304260e-01</leafValues></_>
        <_>
          <internalNodes>
            0 -1 209 -520651081 -32050178 -1136015 -289018136 775169422
            637463924 795174339 439958959</internalNodes>
          <leafValues>
            -4.2244929075241089e-01 5.2711623907089233e-01</leafValues></_>
        <_>
          <internalNodes>
            0 -1 204 -297837166 2145550267 -285590936 2100117479
            -385972573 201211703 1253355176 -520036046</internalNodes>
          <leafValues>
            -3.5264521837234497e-01 6.1391770839691162e-01</leafValues></_>
        <_>
          <internalNodes>
            0 -1 100 177455425 46407686 273 -654245864 -1040041398
            1046577182 578846767 145470090</internalNodes>
          <leafValues>
            -5.0573378801345825e-01 4.3432903289794922e-01</leafValues></_>
        <_>
          <internalNodes>
            0 -1 144 -1975349554 564765265 268763401 -1019674350
            167960746 -1610612703 19960748 -1901133645</internalNodes>
          <leafValues>
            -4.8582568764686584e-01 4.6320658922195435e-01</leafValues></_></weakClassifiers></_>
    <!-- stage 7 -->
    <_>
      <maxWeakCount>13</maxWeakCount>
      <stageThreshold>-3.3910468220710754e-02</stageThreshold>
      <weakClassifiers>
        <_>
          <internalNodes>
            0 -1 158 792624221 367861034 268251079 461245983 1289296908
            1837045111 461315934 152770891</internalNodes>
          <leafValues>
            -2.4260355532169342e-01 6.9889062643051147e-01</leafValues></_>
        <_>
          <internalNodes>
            0 -1 130 -68288578 1060761272 -268551133 2045447232
            -33560365 1879048061 -553773504 -538486256</internalNodes>
          <leafValues>
            -2.9880538582801819e-01 5.8529675006866455e-01</leafValues></_>
        <_>
          <internalNodes>
            0 -1 13 1613240147 901808512 285284615 402674432 155218140
            -2134376408 -2012688241 552026115</internalNodes>
          <leafValues>
            -4.6081581711769104e-01 4.3906766176223755e-01</leafValues></_>
        <_>
          <internalNodes>
            0 -1 126 1090695712 696926500 -939523891 -1650785791
            -801101048 -1706195960 -1995945782 -1584176766</internalNodes>
          <leafValues>
            -5.0778055191040039e-01 3.8341760635375977e-01</leafValues></_>
        <_>
          <internalNodes>
            0 -1 103 1497420265 1100140555 6241 -754941950 2081265562
            403177472 1755352490 1531818626</internalNodes>
          <leafValues>
            -4.4042178988456726e-01 4.6233484148979187e-01</leafValues></_>
        <_>
          <internalNodes>
            0 -1 138 -981257980 360775684 285212756 143986837
            -1845428046 411631746 -2012969828 -1196938808</internalNodes>
          <leafValues>
            -5.0813615322113037e-01 4.2190426588058472e-01</leafValues></_>
        <_>
          <internalNodes>
            0 -1 147 268502801 -728874747 402986289 2199624 -519862116
            1526728848 -1610544504 -1601484274</internalNodes>
          <leafValues>
            -4.9964389204978943e-01 4.3010827898979187e-01</leafValues></_>
        <_>
          <internalNodes>
            0 -1 210 -1862159287 4428032 -2129281024 273156104 290054144
            1628209154 -995540594 545738310</internalNodes>
          <leafValues>
            -5.2779710292816162e-01 3.8119059801101685e-01</leafValues></_>
        <_>
          <internalNodes>
            0 -1 127 -1065139658 -1820000248 -2147479409 -594575338
            -803124854 -1056604157 -2122247639 -2101223354</internalNodes>
          <leafValues>
            -4.6396929025650024e-01 4.6382516622543335e-01</leafValues></_>
        <_>
          <internalNodes>
            0 -1 28 1090908890 -1052311424 -2122317627 1494220867
            1632112686 -922054603 11569675 589613121</internalNodes>
          <leafValues>
            -4.9407008290290833e-01 4.4595158100128174e-01</leafValues></_>
        <_>
          <internalNodes>
            0 -1 64 -247537879 373698430 804208498 -1729131122
            -1755074604 -1234960489 -178441061 -933232689</internalNodes>
          <leafValues>
            -3.4297585487365723e-01 6.5200972557067871e-01</leafValues></_>
        <_>
          <internalNodes>
            0 -1 8 -922819941 142323373 2063503202 -1419018576
            1845264624 1551392566 -1065525732 836155127</internalNodes>
          <leafValues>
            -4.1080877184867859e-01 5.2638328075408936e-01</leafValues></_>
        <_>
          <internalNodes>
            0 -1 171 -776560305 -1624932353 -1076461571 556281843
            1220341382 -1152606337 1327949010 -273709125</internalNodes>
          <leafValues>
            -2.9035937786102295e-01 7.1987301111221313e-01</leafValues></_></weakClassifiers></_>
    <!-- stage 8 -->
    <_>
      <maxWeakCount>13</maxWeakCount>
      <stageThreshold>-4.1181403398513794e-01</stageThreshold>
      <weakClassifiers>
        <_>
          <internalNodes>
            0 -1 184 686721028 369012220 2130693887 -1141362830
            779356160 -268566785 -419901602 -1372373001</internalNodes>
          <leafValues>
            -2.5503355264663696e-01 6.7281103134155273e-01</leafValues></_>
        <_>
          <internalNodes>
            0 -1 116 -72376877 1496446771 1006626810 -1996843461
            1744821446 1283457023 -998527270 82290030</internalNodes>
          <leafValues>
            -3.6002790927886963e-01 5.2118688821792603e-01</leafValues></_>
        <_>
          <internalNodes>
            0 -1 113 1014949739 1507819519 1943911396 -135397435
            1498410980 256163822 -11173905 -1311905842</internalNodes>
          <leafValues>
            -3.9328700304031372e-01 4.9668493866920471e-01</leafValues></_>
        <_>
          <internalNodes>
            0 -1 212 -21767579 -101372331 -22167782 104660979 -968963070
            -1846198404 -1363049992 -1902380615</internalNodes>
          <leafValues>
            -3.1589928269386292e-01 6.1777347326278687e-01</leafValues></_>
        <_>
          <internalNodes>
            0 -1 169 -709649067 1110046589 1701739056 789049888
            -293670969 -38273025 -453059412 -1674725953</internalNodes>
          <leafValues>
            -3.5203427076339722e-01 5.5390542745590210e-01</leafValues></_>
        <_>
          <internalNodes>
            0 -1 2 1162510075 -1363808684 -1141945481 -185605400
            -146297093 222164345 935634031 -1702018316</internalNodes>
          <leafValues>
            -2.9804298281669617e-01 6.0241943597793579e-01</leafValues></_>
        <_>
          <internalNodes>
            0 -1 91 -890200207 -134221905 -1342279705 -906293341
            -924872947 1602203516 -402718729 765433302</internalNodes>
          <leafValues>
            -3.3104011416435242e-01 5.8671855926513672e-01</leafValues></_>
        <_>
          <internalNodes>
            0 -1 203 1358813057 1748631262 1576992683 -1779074464
            -17483828 -1703280826 -25401608 -799560290</internalNodes>
          <leafValues>
            -3.5522812604904175e-01 5.4674291610717773e-01</leafValues></_>
        <_>
          <internalNodes>
            0 -1 129 1494955194 -1526054112 75841544 -178567098
            -2134890453 -805306359 17074305 -639022928</internalNodes>
          <leafValues>
            -4.4874116778373718e-01 4.5763072371482849e-01</leafValues></_>
        <_>
          <internalNodes>
            0 -1 71 -399520223 -8196310 -268550236 2141355761 668313055
            1303175165 1551635709 -605948591</internalNodes>
          <leafValues>
            -3.6804282665252686e-01 5.8050060272216797e-01</leafValues></_>
        <_>
          <internalNodes>
            0 -1 16 -1092598760 367951845 -1074006166 -306779411
            -1387141036 1133273054 -34312751 -1185457459</internalNodes>
          <leafValues>
            -4.2561283707618713e-01 5.0239813327789307e-01</leafValues></_>
        <_>
          <internalNodes>
            0 -1 165 1682300416 269586560 -2109177792 101007632
            1485641755 83886337 84148976 814625187</internalNodes>
          <leafValues>
            -6.1810308694839478e-01 3.3699595928192139e-01</leafValues></_>
        <_>
          <internalNodes>
            0 -1 175 1272604592 1082425567 -1065250798 -782434227
            1501897860 -771751805 -2013247477 -1423758813</internalNodes>
          <leafValues>
            -4.6515789628028870e-01 5.1360452175140381e-01</leafValues></_></weakClassifiers></_>
    <!-- stage 9 -->
    <_>
      <maxWeakCount>14</maxWeakCount>
      <stageThreshold>-4.2329457402229309e-01</stageThreshold>
      <weakClassifiers>
        <_>
          <internalNodes>
            0 -1 185 -1402467252 2145943547 -289607698 -805367870
            575932416 2140950487 -27497138 -289506241</internalNodes>
          <leafValues>
            -1.2737126648426056e-01 6.8805849552154541e-01</leafValues></_>
        <_>
          <internalNodes>
            0 -1 120 212823581 473902971 2147401135 -20561 -268585033
            -33554707 -1721945944 680016815</internalNodes>
          <leafValues>
            -2.9664799571037292e-01 5.5432790517807007e-01</leafValues></_>
        <_>
          <internalNodes>
            0 -1 76 380108031 -987264500 1928097507 -970953212
            1197974526 -160499724 -1623753601 -690917626</internalNodes>
          <leafValues>
            -3.0887472629547119e-01 5.8054512739181519e-01</leafValues></_>
        <_>
          <internalNodes>
            0 -1 45 -823744613 -119210190 -571552009 -802258960
            1341991839 -193085969 -578900340 611029203</internalNodes>
          <leafValues>
            -4.0462532639503479e-01 5.0753641128540039e-01</leafValues></_>
        <_>
          <internalNodes>
            0 -1 174 497540178 -1402980939 1325055743 1072463827
            -1138490218 -2013372452 1339438935 -649673205</internalNodes>
          <leafValues>
            -3.8119262456893921e-01 4.9278476834297180e-01</leafValues></_>
        <_>
          <internalNodes>
            0 -1 216 273859159 1079001096 -1786687343 1342570512
            17027586 140132482 1384878851 -1809101942</internalNodes>
          <leafValues>
            -4.2175701260566711e-01 4.4698417186737061e-01</leafValues></_>
        <_>
          <internalNodes>
            0 -1 39 -805272932 -1860396557 68224272 -740490590
            -1300069701 1241518252 14330231 1746452544</internalNodes>
          <leafValues>
            -4.7456699609756470e-01 4.3257963657379150e-01</leafValues></_>
        <_>
          <internalNodes>
            0 -1 3 1907740733 1894724245 201272946 -1443926906
            -1510601237 804189951 -381945957 -597303757</internalNodes>
          <leafValues>
            -2.9634347558021545e-01 6.6748481988906860e-01</leafValues></_>
        <_>
          <internalNodes>
            0 -1 137 725669252 337068245 -1925054056 -2005639134
            763380225 1082167432 453565064 1158700747</internalNodes>
          <leafValues>
            -5.5290681123733521e-01 3.7229418754577637e-01</leafValues></_>
        <_>
          <internalNodes>
            0 -1 125 1410765016 792871044 -2013193892 956665867
            1526939827 -251527166 -1976975230 699370115</internalNodes>
          <leafValues>
            -4.8940551280975342e-01 4.0307810902595520e-01</leafValues></_>
        <_>
          <internalNodes>
            0 -1 84 1721669379 -574817417 901072163 1592754099
            2147483079 -160956491 1567898749 1350032471</internalNodes>
          <leafValues>
            -3.9444166421890259e-01 5.0487285852432251e-01</leafValues></_>
        <_>
          <internalNodes>
            0 -1 21 -435682944 2756807 1761626240 -2049113855
            -1862107102 302553252 16777738 71756032</internalNodes>
          <leafValues>
            -7.8067064285278320e-01 2.8364843130111694e-01</leafValues></_>
        <_>
          <internalNodes>
            0 -1 4 -478974633 1395584688 754863992 -272692512
            -2019377209 4644661 -1151562147 1985726215</internalNodes>
          <leafValues>
            -4.1966992616653442e-01 5.4075521230697632e-01</leafValues></_>
        <_>
          <internalNodes>
            0 -1 105 17307922 366252177 269489052 1597248770 268501161
            -376950616 -260007374 1087678090</internalNodes>
          <leafValues>
            -5.6882053613662720e-01 3.9107668399810791e-01</leafValues></_></weakClassifiers></_>
    <!-- stage 10 -->
    <_>
      <maxWeakCount>12</maxWeakCount>
      <stageThreshold>-1.0922990739345551e-01</stageThreshold>
      <weakClassifiers>
        <_>
          <internalNodes>
            0 -1 121 263102208 111869714 -1086439429 -1879048271 -668081
            796393335 1046183216 142559743</internalNodes>
          <leafValues>
            -2.4822695553302765e-01 6.6009104251861572e-01</leafValues></_>
        <_>
          <internalNodes>
            0 -1 38 2063646701 1697116138 -60395745 654409605 359638958
            -1212375050 -545309001 -1990744129</internalNodes>
          <leafValues>
            -2.3731483519077301e-01 6.3185703754425049e-01</leafValues></_>
        <_>
          <internalNodes>
            0 -1 134 -595119504 -1828125295 -2130640889 -1655897955
            -2004844380 1495533697 579152544 101716482</internalNodes>
          <leafValues>
            -5.2387797832489014e-01 3.4437876939773560e-01</leafValues></_>
        <_>
          <internalNodes>
            0 -1 200 1393677355 -1333575511 1073840896 25330048
            -905936881 -134217599 33652954 1054565267</internalNodes>
          <leafValues>
            -4.5912161469459534e-01 3.8721147179603577e-01</leafValues></_>
        <_>
          <internalNodes>
            0 -1 186 -47211381 610430571 -1124913998 -1880310023
            174928833 -255987968 890408334 1005077674</internalNodes>
          <leafValues>
            -3.5308048129081726e-01 5.1953214406967163e-01</leafValues></_>
        <_>
          <internalNodes>
            0 -1 191 -1862623741 -1733564500 716432230 -1078022282
            -806097012 1876426747 -159740390 -830821127</internalNodes>
          <leafValues>
            -3.8985538482666016e-01 4.7979876399040222e-01</leafValues></_>
        <_>
          <internalNodes>
            0 -1 161 -305271089 -848622050 268394269 198164462
            -1102250488 1046314829 519630111 -1117827137</internalNodes>
          <leafValues>
            -3.5897597670555115e-01 5.6384420394897461e-01</leafValues></_>
        <_>
          <internalNodes>
            0 -1 40 -1223382515 -1275994185 670740345 -200442256 -36982
            -1584021513 -973928666 -720009673</internalNodes>
          <leafValues>
            -3.1312528252601624e-01 6.0514456033706665e-01</leafValues></_>
        <_>
          <internalNodes>
            0 -1 86 -541862361 539651560 -1090585031 1219296800
            -998287401 -2051637379 931036781 -195985433</internalNodes>
          <leafValues>
            -4.0082690119743347e-01 5.0994110107421875e-01</leafValues></_>
        <_>
          <internalNodes>
            0 -1 139 -1745021689 1291258686 -1349525777 -1930297817
            -1363384442 -688396841 -847999795 -61372093</internalNodes>
          <leafValues>
            -3.4490939974784851e-01 5.8258599042892456e-01</leafValues></_>
        <_>
          <internalNodes>
            0 -1 87 -1325245564 1385374021 1644216580 -506396669
            -507457365 8487433 -1206844024 1346865202</internalNodes>
          <leafValues>
            -4.4406113028526306e-01 4.4973555207252502e-01</leafValues></_>
        <_>
          <internalNodes>
            0 -1 185 -1640084385 804847611 -4329729 1878986447
            1422789640 1067409365 -161687089 -809542473</internalNodes>
          <leafValues>
            -4.2608615756034851e-01 4.9492394924163818e-01</leafValues></_></weakClassifiers></_>
    <!-- stage 11 -->
    <_>
      <maxWeakCount>12</maxWeakCount>
      <stageThreshold>-1.8497376143932343e-01</stageThreshold>
      <weakClassifiers>
        <_>
          <internalNodes>
            0 -1 104 586907656 104852470 1786751658 653763258 2080225834
            1476345598 -1124157078 106275458</internalNodes>
          <leafValues>
            -3.8775509595870972e-01 6.2393164634704590e-01</leafValues></_>
        <_>
          <internalNodes>
            0 -1 160 -804406235 2105420545 -289444877 -152025 1046327226
            -547508859 -226642897 -306972149</internalNodes>
          <leafValues>
            -2.3927323520183563e-01 5.9870201349258423e-01</leafValues></_>
        <_>
          <internalNodes>
            0 -1 34 944225783 -694042635 535568494 -1991475651
            1576874988 -602015979 1197371094 863408399</internalNodes>
          <leafValues>
            -3.1974458694458008e-01 5.0866079330444336e-01</leafValues></_>
        <_>
          <internalNodes>
            0 -1 197 -1579681511 -737652713 268566656 -1816979385
            -1408740597 -2113929212 1082771554 162746946</internalNodes>
          <leafValues>
            -3.9649081230163574e-01 4.3139174580574036e-01</leafValues></_>
        <_>
          <internalNodes>
            0 -1 42 21535386 -2054160254 266240 1527842819 -2092335047
            704678161 134318593 -49702743</internalNodes>
          <leafValues>
            -3.9073848724365234e-01 4.6445408463478088e-01</leafValues></_>
        <_>
          <internalNodes>
            0 -1 206 -636751827 464473006 -1078198741 2038627770
            -320581747 -33628299 -2014466386 -318773925</internalNodes>
          <leafValues>
            -3.0777814984321594e-01 6.4450025558471680e-01</leafValues></_>
        <_>
          <internalNodes>
            0 -1 96 68461262 422133838 -804257582 1024299073 1107386629
            1359052800 1644174340 126364427</internalNodes>
          <leafValues>
            -6.0311585664749146e-01 3.1417939066886902e-01</leafValues></_>
        <_>
          <internalNodes>
            0 -1 150 -2139055514 13326104 16809993 1963405593
            -1908226397 -1065352952 51201027 1124450919</internalNodes>
          <leafValues>
            -4.6234607696533203e-01 4.2621040344238281e-01</leafValues></_>
        <_>
          <internalNodes>
            0 -1 37 -4325709 -1792806932 259947623 1454534115 -671148563
            -2139136913 -436436656 1920384243</internalNodes>
          <leafValues>
            -3.4106379747390747e-01 5.8055305480957031e-01</leafValues></_>
        <_>
          <internalNodes>
            0 -1 172 -633681969 2012692095 -1082757186 1846493075
            796798600 1721778158 1173117700 -506107065</internalNodes>
          <leafValues>
            -3.5479149222373962e-01 5.4550564289093018e-01</leafValues></_>
        <_>
          <internalNodes>
            0 -1 41 -137526680 2109058686 -1342902345 -11030546
            -1376276497 1341548421 402421115 -670009523</internalNodes>
          <leafValues>
            -3.9079385995864868e-01 5.2308082580566406e-01</leafValues></_>
        <_>
          <internalNodes>
            0 -1 211 1488903237 -1619112678 -336158943 -2121023682
            267970178 -1805885513 -251860306 1455731287</internalNodes>
          <leafValues>
            -3.8558867573738098e-01 5.2473855018615723e-01</leafValues></_></weakClassifiers></_>
    <!-- stage 12 -->
    <_>
      <maxWeakCount>15</maxWeakCount>
      <stageThreshold>-4.9594792723655701e-01</stageThreshold>
      <weakClassifiers>
        <_>
          <internalNodes>
            0 -1 62 719474506 -1966542850 1862172592 49447152 117187908
            2094395380 -1342668812 810831140</internalNodes>
          <leafValues>
            -5.0920248031616211e-01 6.1447459459304810e-01</leafValues></_>
        <_>
          <internalNodes>
            0 -1 82 -37094803 -71712923 910754944 669970367 1719500221
            -1191313428 1467303231 1272125431</internalNodes>
          <leafValues>
            -2.9185807704925537e-01 5.3867495059967041e-01</leafValues></_>
        <_>
          <internalNodes>
            0 -1 52 -286350379 2050990695 1845379829 2143076046
            1201096154 -1401180161 -831036726 -94374403</internalNodes>
          <leafValues>
            -2.4546879529953003e-01 6.6549915075302124e-01</leafValues></_>
        <_>
          <internalNodes>
            0 -1 194 1882288814 -382533371 65998 1310003472 1646887553
            285872651 -1290990968 -2002220541</internalNodes>
          <leafValues>
            -3.8759189844131470e-01 4.3000087141990662e-01</leafValues></_>
        <_>
          <internalNodes>
            0 -1 218 -54801957 -433885858 -1493813618 -477890650
            133011275 -2078443810 -554223841 1976272606</internalNodes>
          <leafValues>
            -2.8552421927452087e-01 6.7187637090682983e-01</leafValues></_>
        <_>
          <internalNodes>
            0 -1 99 780452298 -2134650744 272634256 1083129922 806897766
            -2129526784 -804253535 -1870460160</internalNodes>
          <leafValues>
            -5.3958940505981445e-01 3.6099073290824890e-01</leafValues></_>
        <_>
          <internalNodes>
            0 -1 60 -2144974699 1895829841 269484377 1845755928
            1375734802 -1182760824 167775133 -1719062203</internalNodes>
          <leafValues>
            -4.2815199494361877e-01 4.3331804871559143e-01</leafValues></_>
        <_>
          <internalNodes>
            0 -1 54 -2056205903 1960414378 -1912668177 2141318964
            2096025391 765427581 1677006798 -900727512</internalNodes>
          <leafValues>
            -3.4791916608810425e-01 5.9202629327774048e-01</leafValues></_>
        <_>
          <internalNodes>
            0 -1 73 1528606313 -326308178 -1074446540 -74813503
            975265723 -277455516 2138532220 1592262523</internalNodes>
          <leafValues>
            -3.8372015953063965e-01 5.1065474748611450e-01</leafValues></_>
        <_>
          <internalNodes>
            0 -1 148 1493265641 880889863 285231491 -1304231664
            -1878974322 294191880 -1593163210 168952833</internalNodes>
          <leafValues>
            -4.4240641593933105e-01 4.4894272089004517e-01</leafValues></_>
        <_>
          <internalNodes>
            0 -1 8 -1857711231 100974595 1208191106 806617096 83961883
            436207624 -1069388912 1645820033</internalNodes>
          <leafValues>
            -4.7059428691864014e-01 4.0492334961891174e-01</leafValues></_>
        <_>
          <internalNodes>
            0 -1 176 -1902439592 1055489658 1324269294 1174961854
            1340599818 -2047217835 -402737446 -464812189</internalNodes>
          <leafValues>
            -3.8658931851387024e-01 4.8278203606605530e-01</leafValues></_>
        <_>
          <internalNodes>
            0 -1 0 1296120004 1212776577 32921 1738735648 -2111668216
            179830913 -938786629 -1609856953</internalNodes>
          <leafValues>
            -4.3174377083778381e-01 4.4716006517410278e-01</leafValues></_>
        <_>
          <internalNodes>
            0 -1 46 1777098798 -469778457 720649250 -2099302545
            2013179715 -1079001267 1735816902 -1275659800</internalNodes>
          <leafValues>
            -4.1920587420463562e-01 4.7516781091690063e-01</leafValues></_>
        <_>
          <internalNodes>
            0 -1 43 -1694522691 -39723696 -1343264905 2116746979
            1314776868 192921581 -1393131658 1541962341</internalNodes>
          <leafValues>
            -4.2673826217651367e-01 4.6490117907524109e-01</leafValues></_></weakClassifiers></_>
    <!-- stage 13 -->
    <_>
      <maxWeakCount>15</maxWeakCount>
      <stageThreshold>-9.7055368125438690e-02</stageThreshold>
      <weakClassifiers>
        <_>
          <internalNodes>
            0 -1 63 1247832960 -822345729 1853581299 208014882 649085830
            1132379903 -8568885 22609959</internalNodes>
          <leafValues>
            -2.0401337742805481e-01 6.6179859638214111e-01</leafValues></_>
        <_>
          <internalNodes>
            0 -1 131 1342543502 -805174840 -2071916470 -653720567
            -1064687286 671236128 -1433663321 881862818</internalNodes>
          <leafValues>
            -4.7443923354148865e-01 3.8971084356307983e-01</leafValues></_>
        <_>
          <internalNodes>
            0 -1 95 -806137869 -1078198273 2080288683 1705258604
            74821005 -570658842 -1376409873 -1381544606</internalNodes>
          <leafValues>
            -3.1005245447158813e-01 5.5662387609481812e-01</leafValues></_>
        <_>
          <internalNodes>
            0 -1 44 -1411058209 -102613008 784104613 1472362340
            -1803967013 583784439 494858667 257810906</internalNodes>
          <leafValues>
            -2.7618816494941711e-01 6.1096692085266113e-01</leafValues></_>
        <_>
          <internalNodes>
            0 -1 195 -72368129 1987182268 804158266 947087934 -353402336
            -475594881 -1426929078 -522192734</internalNodes>
          <leafValues>
            -2.8178942203521729e-01 6.1295920610427856e-01</leafValues></_>
        <_>
          <internalNodes>
            0 -1 29 504989982 1241783978 1073307575 -1641976183
            360103660 -1501366652 -596230209 -718676564</internalNodes>
          <leafValues>
            -3.3915770053863525e-01 4.9266594648361206e-01</leafValues></_>
        <_>
          <internalNodes>
            0 -1 187 4329592 671813889 -268304383 -969928675 1627398400
            -1760428031 1090617882 -21423404</internalNodes>
          <leafValues>
            -4.5775166153907776e-01 3.9529067277908325e-01</leafValues></_>
        <_>
          <internalNodes>
            0 -1 12 -805644321 -812208338 1069510611 -1637372956
            1466918343 -2019584162 1977900158 1431302687</internalNodes>
          <leafValues>
            -3.5681715607643127e-01 5.1872014999389648e-01</leafValues></_>
        <_>
          <internalNodes>
            0 -1 69 -833980884 -352809038 -1912643734 -509809488 -344555
            -1548159105 -1896252958 -2136525391</internalNodes>
          <leafValues>
            -4.1855731606483459e-01 4.6843189001083374e-01</leafValues></_>
        <_>
          <internalNodes>
            0 -1 173 -1056908026 1469218848 537141418 -1341701813
            1615972874 21020690 -1979629564 -1056817099</internalNodes>
          <leafValues>
            -4.1900640726089478e-01 4.7574865818023682e-01</leafValues></_>
        <_>
          <internalNodes>
            0 -1 206 -1840268163 -1846650066 -16777609 -5767754
            -856846692 2113855485 -1913671902 -2132170994</internalNodes>
          <leafValues>
            -3.6954769492149353e-01 5.2114796638488770e-01</leafValues></_>
        <_>
          <internalNodes>
            0 -1 88 1443912348 1376849939 51413013 1620451657 890249731
            1745389866 587207983 -1966996647</internalNodes>
          <leafValues>
            -4.5599323511123657e-01 4.4058656692504883e-01</leafValues></_>
        <_>
          <internalNodes>
            0 -1 219 1572641499 1407994670 -268543071 -2072265356
            -59904623 759559677 1534679026 -599536134</internalNodes>
          <leafValues>
            -3.1222221255302429e-01 6.7050373554229736e-01</leafValues></_>
        <_>
          <internalNodes>
            0 -1 168 1802913061 -424349789 -1074844803 1173107689
            1039576986 -1497530371 -1233744022 -605831197</internalNodes>
          <leafValues>
            -2.9804474115371704e-01 6.3657867908477783e-01</leafValues></_>
        <_>
          <internalNodes>
            0 -1 152 638553895 -1698907563 1342148543 -336876067
            -1647852579 264068541 -826466587 -753604267</internalNodes>
          <leafValues>
            -3.5150650143623352e-01 5.3299540281295776e-01</leafValues></_></weakClassifiers></_>
    <!-- stage 14 -->
    <_>
      <maxWeakCount>15</maxWeakCount>
      <stageThreshold>-9.9869325757026672e-02</stageThreshold>
      <weakClassifiers>
        <_>
          <internalNodes>
            0 -1 167 -2030813892 77889225 1056866046 721092348
            1811775220 291340132 -1225277740 74503798</internalNodes>
          <leafValues>
            -3.5238096117973328e-01 6.2877696752548218e-01</leafValues></_>
        <_>
          <internalNodes>
            0 -1 121 -1615868272 262926171 -1077985285 -1620049934
            2147479254 1073217527 -287621830 997444085</internalNodes>
          <leafValues>
            -3.8119426369667053e-01 4.3990790843963623e-01</leafValues></_>
        <_>
          <internalNodes>
            0 -1 73 -615277889 2098114056 -1088078019 1531277133
            995303378 -288301792 -1078511249 -7110657</internalNodes>
          <leafValues>
            -2.7861407399177551e-01 6.2610036134719849e-01</leafValues></_>
        <_>
          <internalNodes>
            0 -1 27 1906941695 -240442718 1056844008 649470073
            1744250365 -1360687115 1551306394 -395099577</internalNodes>
          <leafValues>
            -3.2907566428184509e-01 5.3177565336227417e-01</leafValues></_>
        <_>
          <internalNodes>
            0 -1 177 -18092297 -600309965 1858043871 1206582072
            -822108916 -1628987455 -430538864 -548683877</internalNodes>
          <leafValues>
            -2.6959651708602905e-01 7.0007598400115967e-01</leafValues></_>
        <_>
          <internalNodes>
            0 -1 136 -1154111867 800980728 -1354875243 -1506149070
            1409223025 2140143483 -319022824 644346771</internalNodes>
          <leafValues>
            -4.0447980165481567e-01 4.4141203165054321e-01</leafValues></_>
        <_>
          <internalNodes>
            0 -1 192 -648953723 1543786500 1509949459 1325941064
            394347100 1073808896 -1342124390 1081583723</internalNodes>
          <leafValues>
            -4.3550467491149902e-01 4.2572048306465149e-01</leafValues></_>
        <_>
          <internalNodes>
            0 -1 66 -1635891545 1592687718 1860675132 -1812911582
            -1644685377 -166555 -126429433 -793676324</internalNodes>
          <leafValues>
            -3.8514849543571472e-01 5.2061533927917480e-01</leafValues></_>
        <_>
          <internalNodes>
            0 -1 23 -109909607 -1623052503 -1342357894 2106146499
            -15827004 1993658200 1992089596 -227547536</internalNodes>
          <leafValues>
            -3.0114346742630005e-01 6.0660368204116821e-01</leafValues></_>
        <_>
          <internalNodes>
            0 -1 193 1518333461 -395151491 1342058414 1713536755
            -289934718 -1486455814 1664834218 -956301469</internalNodes>
          <leafValues>
            -2.8927430510520935e-01 6.4492744207382202e-01</leafValues></_>
        <_>
          <internalNodes>
            0 -1 208 1718615663 -771751942 -1363198055 -537301132
            -1821241849 544571191 -1401511480 -62024469</internalNodes>
          <leafValues>
            -2.8174427151679993e-01 6.6747260093688965e-01</leafValues></_>
        <_>
          <internalNodes>
            0 -1 110 -736591756 -1610022912 -2130178047 1879539777
            1225303428 1644232704 -1608236798 614696207</internalNodes>
          <leafValues>
            -4.8900422453880310e-01 4.0614226460456848e-01</leafValues></_>
        <_>
          <internalNodes>
            0 -1 65 -223755015 -1700031866 -16777364 -1829245122
            161289566 676823021 -2057865905 -739937933</internalNodes>
          <leafValues>
            -3.8942819833755493e-01 5.3599023818969727e-01</leafValues></_>
        <_>
          <internalNodes>
            0 -1 79 -1805149220 453099520 118510665 814880904 106497
            8388744 -1700128607 282560906</internalNodes>
          <leafValues>
            -5.5359500646591187e-01 3.9506325125694275e-01</leafValues></_>
        <_>
          <internalNodes>
            0 -1 55 1958474551 -1325662668 -1699091894 -1418789910
            1073702516 -1107952396 92107489 -647513686</internalNodes>
          <leafValues>
            -3.4648218750953674e-01 5.9816640615463257e-01</leafValues></_></weakClassifiers></_>
    <!-- stage 15 -->
    <_>
      <maxWeakCount>14</maxWeakCount>
      <stageThreshold>-3.4834632277488708e-01</stageThreshold>
      <weakClassifiers>
        <_>
          <internalNodes>
            0 -1 115 1734685188 407777085 -151077208 -47206866 -229459
            -542810148 1040051624 -1197146356</internalNodes>
          <leafValues>
            2.7777777984738350e-02 7.1715331077575684e-01</leafValues></_>
        <_>
          <internalNodes>
            0 -1 182 -1111810134 2062036903 -352633037 1572208575
            2041219082 -1394029386 -402774454 -1152504610</internalNodes>
          <leafValues>
            -2.8775438666343689e-01 5.6229639053344727e-01</leafValues></_>
        <_>
          <internalNodes>
            0 -1 145 -729669628 1615893584 -1551688753 -549452280
            536912089 402653312 990048816 -1241333978</internalNodes>
          <leafValues>
            -4.5257425308227539e-01 3.7803599238395691e-01</leafValues></_>
        <_>
          <internalNodes>
            0 -1 58 -2086995757 1500215147 -1342178317 1664566125
            -402754218 -1485836970 768726014 1002424134</internalNodes>
          <leafValues>
            -3.3287674188613892e-01 5.1375973224639893e-01</leafValues></_>
        <_>
          <internalNodes>
            0 -1 153 -1874797360 135025345 18780171 -1525940209
            134402562 -1723858816 536876710 1455712848</internalNodes>
          <leafValues>
            -5.6613796949386597e-01 2.9125082492828369e-01</leafValues></_>
        <_>
          <internalNodes>
            0 -1 36 -943759883 2085613423 1862168490 -1161855441
            -560057101 1046835164 -58882561 -1490305126</internalNodes>
          <leafValues>
            -2.8258749842643738e-01 6.5176910161972046e-01</leafValues></_>
        <_>
          <internalNodes>
            0 -1 126 -1056253936 100663296 -938981360 -373479360
            -1849130740 1224770057 -2105540216 -1161723889</internalNodes>
          <leafValues>
            -5.3538930416107178e-01 3.4977388381958008e-01</leafValues></_>
        <_>
          <internalNodes>
            0 -1 31 -860875867 -33697941 -93363599 908402273 922490696
            -16777345 -1883316242 -61846189</internalNodes>
          <leafValues>
            -3.8498777151107788e-01 4.9447989463806152e-01</leafValues></_>
        <_>
          <internalNodes>
            0 -1 181 -2067548584 285610240 272662794 318832640
            1879105674 436355072 805347787 -134020477</internalNodes>
          <leafValues>
            -4.5908007025718689e-01 4.3742781877517700e-01</leafValues></_>
        <_>
          <internalNodes>
            0 -1 90 -1427854029 -828768285 -1342480649 -39288862
            -9011403 -269680801 526341595 -34879677</internalNodes>
          <leafValues>
            -3.3190587162971497e-01 5.9340101480484009e-01</leafValues></_>
        <_>
          <internalNodes>
            0 -1 154 1547663297 1462578367 -1342423297 -817971409
            2136899533 -287481857 -992123557 -848356131</internalNodes>
          <leafValues>
            -3.6314475536346436e-01 5.3415793180465698e-01</leafValues></_>
        <_>
          <internalNodes>
            0 -1 179 -602083718 2063503356 -1073836033 1031785707
            -298005332 2147282783 763363326 2037253843</internalNodes>
          <leafValues>
            -3.8572207093238831e-01 4.9837249517440796e-01</leafValues></_>
        <_>
          <internalNodes>
            0 -1 22 1213537544 193037589 -2076164078 826605584
            -1845110615 673202176 -2097058464 1628049091</internalNodes>
          <leafValues>
            -5.9861361980438232e-01 3.4519213438034058e-01</leafValues></_>
        <_>
          <internalNodes>
            0 -1 215 -26907829 414875511 666787559 -1838682296 83868211
            -1511671937 2138417808 -717021814</internalNodes>
          <leafValues>
            -3.8740596175193787e-01 5.5978024005889893e-01</leafValues></_></weakClassifiers></_>
    <!-- stage 16 -->
    <_>
      <maxWeakCount>12</maxWeakCount>
      <stageThreshold>-1.7087072134017944e-01</stageThreshold>
      <weakClassifiers>
        <_>
          <internalNodes>
            0 -1 98 880848400 568377060 938835685 1973694448 -1772679238
            -163849 -147325577 1743986546</internalNodes>
          <leafValues>
            -1.1873351037502289e-01 6.9205570220947266e-01</leafValues></_>
        <_>
          <internalNodes>
            0 -1 162 1490882568 -796808853 988662902 -671691074 -8572548
            1576500767 1525450936 -302685445</internalNodes>
          <leafValues>
            -3.6496278643608093e-01 4.6853607892990112e-01</leafValues></_>
        <_>
          <internalNodes>
            0 -1 207 -1733319791 439515903 1056848673 -1692255248
            1974967743 -1813545097 -1569216326 -21957894</internalNodes>
          <leafValues>
            -3.0041974782943726e-01 5.4635083675384521e-01</leafValues></_>
        <_>
          <internalNodes>
            0 -1 17 -14378094 -2026958029 1035992864 733326830
            -1938174910 649537333 -921774 -438773</internalNodes>
          <leafValues>
            -3.1515836715698242e-01 5.0756263732910156e-01</leafValues></_>
        <_>
          <internalNodes>
            0 -1 67 -1495766824 -1803620365 2129557666 -1778155970
            1025349610 -438829204 2145324218 -1396671761</internalNodes>
          <leafValues>
            -3.9719024300575256e-01 4.6678397059440613e-01</leafValues></_>
        <_>
          <internalNodes>
            0 -1 70 -2079690619 63979657 -2062548992 -784105338
            570647212 -746028925 1623588872 -313732176</internalNodes>
          <leafValues>
            -4.4294035434722900e-01 4.1140753030776978e-01</leafValues></_>
        <_>
          <internalNodes>
            0 -1 170 -459109871 -784068409 32832 205297737 -1870495190
            -889126910 1074089766 352794642</internalNodes>
          <leafValues>
            -4.2319694161415100e-01 4.4584777951240540e-01</leafValues></_>
        <_>
          <internalNodes>
            0 -1 25 -1220596071 254541794 2146377598 -575751168
            1165630225 264241139 898922111 -1555845143</internalNodes>
          <leafValues>
            -3.6335352063179016e-01 5.1772803068161011e-01</leafValues></_>
        <_>
          <internalNodes>
            0 -1 166 322995133 285802505 -1061158912 -527171072
            -1643371636 -72839166 1912773249 739617434</internalNodes>
          <leafValues>
            -4.7124838829040527e-01 4.0552431344985962e-01</leafValues></_>
        <_>
          <internalNodes>
            0 -1 178 273631217 882307026 1718501374 -106528968
            -1352839861 -1855783082 -329939029 1700693927</internalNodes>
          <leafValues>
            -3.7290701270103455e-01 5.4072088003158569e-01</leafValues></_>
        <_>
          <internalNodes>
            0 -1 97 -2070765291 -1982558207 16812105 85265597 1216454816
            -2112880528 -1996470142 793002054</internalNodes>
          <leafValues>
            -4.8094144463539124e-01 4.1062253713607788e-01</leafValues></_>
        <_>
          <internalNodes>
            0 -1 214 -620802122 1504516939 -1359347866 1393225710
            1851731402 1253490302 1568656328 -1126449374</internalNodes>
          <leafValues>
            -3.3121985197067261e-01 6.3418424129486084e-01</leafValues></_></weakClassifiers></_>
    <!-- stage 17 -->
    <_>
      <maxWeakCount>14</maxWeakCount>
      <stageThreshold>-4.3355453014373779e-01</stageThreshold>
      <weakClassifiers>
        <_>
          <internalNodes>
            0 -1 143 1832782956 -1393598594 780078910 52387454
            2113887569 360652663 123082511 1245867803</internalNodes>
          <leafValues>
            -3.2510289549827576e-01 6.4775240421295166e-01</leafValues></_>
        <_>
          <internalNodes>
            0 -1 94 -1350924642 -210891204 -268538325 1945117536
            1342112202 -1678972930 -1363175283 871846677</internalNodes>
          <leafValues>
            -3.6729001998901367e-01 4.9255666136741638e-01</leafValues></_>
        <_>
          <internalNodes>
            0 -1 124 1392013511 -1005993983 1140957254 -1324777451
            37797890 1084358656 -1601642493 2089410659</internalNodes>
          <leafValues>
            -4.4065520167350769e-01 4.2228141427040100e-01</leafValues></_>
        <_>
          <internalNodes>
            0 -1 59 -335579970 -94110022 1274945530 118537218 -724668833
            -399773937 777889533 1313842431</internalNodes>
          <leafValues>
            -3.8025599718093872e-01 4.5679539442062378e-01</leafValues></_>
        <_>
          <internalNodes>
            0 -1 141 -846457968 -568488184 -1345892748 -305333455
            1827469505 -1236804123 -549683660 -415506577</internalNodes>
          <leafValues>
            -3.2583945989608765e-01 5.7504564523696899e-01</leafValues></_>
        <_>
          <internalNodes>
            0 -1 159 -116795649 -1419633645 -1367355937 -373604419
            -1803729588 785284481 1574178553 -285868064</internalNodes>
          <leafValues>
            -3.6352691054344177e-01 5.5070954561233521e-01</leafValues></_>
        <_>
          <internalNodes>
            0 -1 206 286294062 1287716944 1090666772 427860096 545376648
            1401061376 1222760597 678419176</internalNodes>
          <leafValues>
            -4.4981381297111511e-01 4.1939288377761841e-01</leafValues></_>
        <_>
          <internalNodes>
            0 -1 40 1644919676 863461303 -1477722117 -70173072 402568659
            -1863975042 -730099914 -143145521</internalNodes>
          <leafValues>
            -3.0102279782295227e-01 6.4739847183227539e-01</leafValues></_>
        <_>
          <internalNodes>
            0 -1 83 1099722762 954867714 8601739 1360167306 1855604
            -937295198 270474 -846968794</internalNodes>
          <leafValues>
            -5.6962352991104126e-01 3.6391267180442810e-01</leafValues></_>
        <_>
          <internalNodes>
            0 -1 68 -1055686188 1040318738 285348172 -452262844
            -1608406091 -922681278 -2013257640 551821463</internalNodes>
          <leafValues>
            -5.6423479318618774e-01 3.8467484712600708e-01</leafValues></_>
        <_>
          <internalNodes>
            0 -1 7 749870550 -1265139704 536936448 1633485061
            -1596944062 572702728 2032174426 -786309029</internalNodes>
          <leafValues>
            -4.5312950015068054e-01 4.6366682648658752e-01</leafValues></_>
        <_>
          <internalNodes>
            0 -1 118 -1762153866 -1254710529 -254411523 -285807875
            -10657 1409104446 2147466898 -388072650</internalNodes>
          <leafValues>
            -4.1108822822570801e-01 5.1463419198989868e-01</leafValues></_>
        <_>
          <internalNodes>
            0 -1 202 1848327599 312717227 -1393676648 -1312228739
            -402713632 -2019065857 1584764558 503047742</internalNodes>
          <leafValues>
            -3.7762308120727539e-01 5.6061488389968872e-01</leafValues></_>
        <_>
          <internalNodes>
            0 -1 155 61125692 -1711275256 1074909185 -539647276 12587126
            16826560 -2147448669 653240330</internalNodes>
          <leafValues>
            -4.9750211834907532e-01 4.3264520168304443e-01</leafValues></_></weakClassifiers></_>
    <!-- stage 18 -->
    <_>
      <maxWeakCount>11</maxWeakCount>
      <stageThreshold>-2.5231871008872986e-01</stageThreshold>
      <weakClassifiers>
        <_>
          <internalNodes>
            0 -1 119 -78078081 -6832257 273970017 1595243987 -83090
            -1627553796 -1073906195 1432174334</internalNodes>
          <leafValues>
            6.4462810754776001e-02 7.6482409238815308e-01</leafValues></_>
        <_>
          <internalNodes>
            0 -1 154 -2117795361 810034177 -1857552221 9077378 25184976
            -1031786367 1092320092 222056794</internalNodes>
          <leafValues>
            -4.3724054098129272e-01 4.0410336852073669e-01</leafValues></_>
        <_>
          <internalNodes>
            0 -1 35 1793354734 -17600438 1056894641 -42218966 1240833932
            1551289409 -822823262 -470245343</internalNodes>
          <leafValues>
            -3.3567121624946594e-01 5.0187629461288452e-01</leafValues></_>
        <_>
          <internalNodes>
            0 -1 183 545316090 1342231266 1879060499 1107296512
            302139608 810549890 -528349032 1379145419</internalNodes>
          <leafValues>
            -4.1003248095512390e-01 4.4696831703186035e-01</leafValues></_>
        <_>
          <internalNodes>
            0 -1 47 1800654522 -211767582 2146692994 -68595152
            1051712831 -949878916 -461533182 -34491401</internalNodes>
          <leafValues>
            -3.7854918837547302e-01 5.2491253614425659e-01</leafValues></_>
        <_>
          <internalNodes>
            0 -1 107 139430922 -1946133503 1073775744 402654357
            1610700033 138430472 1073780827 2048645658</internalNodes>
          <leafValues>
            -6.1239099502563477e-01 3.3674302697181702e-01</leafValues></_>
        <_>
          <internalNodes>
            0 -1 18 800714708 -835849112 -16863256 -224256276 635739299
            1325331941 821092134 1386184023</internalNodes>
          <leafValues>
            -3.9894896745681763e-01 4.9373501539230347e-01</leafValues></_>
        <_>
          <internalNodes>
            0 -1 208 -1882402490 -2141400640 -1744764794 1090551966
            1879281924 562102403 8499402 76723210</internalNodes>
          <leafValues>
            -5.2473276853561401e-01 3.8823878765106201e-01</leafValues></_>
        <_>
          <internalNodes>
            0 -1 9 -383875406 -351830467 2105175729 -816536732
            -1903165797 1065123824 2003709654 370076183</internalNodes>
          <leafValues>
            -4.3064278364181519e-01 4.9722117185592651e-01</leafValues></_>
        <_>
          <internalNodes>
            0 -1 57 -1574858302 -1030221568 -1878851451 -595263355
            -528446940 327204872 327260337 1770136502</internalNodes>
          <leafValues>
            -4.8653453588485718e-01 4.3922322988510132e-01</leafValues></_>
        <_>
          <internalNodes>
            0 -1 85 -775404002 -649838206 1073751131 -1719137916
            -939306848 554009283 -931114480 -118521600</internalNodes>
          <leafValues>
            -4.9688979983329773e-01 4.1694056987762451e-01</leafValues></_></weakClassifiers></_>
    <!-- stage 19 -->
    <_>
      <maxWeakCount>13</maxWeakCount>
      <stageThreshold>-6.9287347793579102e-01</stageThreshold>
      <weakClassifiers>
        <_>
          <internalNodes>
            0 -1 131 -852691267 -161120289 -311067669 -42995779
            -34079241 1885122556 -268894273 1699593707</internalNodes>
          <leafValues>
            9.3655586242675781e-02 7.8678035736083984e-01</leafValues></_>
        <_>
          <internalNodes>
            0 -1 117 1342761188 2030051649 16800458 -641445630
            -2002751485 805358816 -2147469118 1544010154</internalNodes>
          <leafValues>
            -4.8944631218910217e-01 3.8998746871948242e-01</leafValues></_>
        <_>
          <internalNodes>
            0 -1 109 -934700044 1751719700 1023356662 -277483979
            -1736679152 -820208053 -1133591316 -155933040</internalNodes>
          <leafValues>
            -3.7014824151992798e-01 4.8169165849685669e-01</leafValues></_>
        <_>
          <internalNodes>
            0 -1 33 234028795 1543454703 1873760045 253692673
            -1481202949 889061375 -546484309 196937231</internalNodes>
          <leafValues>
            -3.9375728368759155e-01 4.4690275192260742e-01</leafValues></_>
        <_>
          <internalNodes>
            0 -1 140 -708788172 1812205601 -1073741689 -1062778367
            1090582533 201852100 -1018920387 -1229649612</internalNodes>
          <leafValues>
            -4.6579346060752869e-01 4.0114375948905945e-01</leafValues></_>
        <_>
          <internalNodes>
            0 -1 19 13651242 -469104364 -1861877485 2013888644
            -1668011518 1568669827 -1180458869 738199810</internalNodes>
          <leafValues>
            -5.6513112783432007e-01 3.4376770257949829e-01</leafValues></_>
        <_>
          <internalNodes>
            0 -1 102 1640006182 -82644959 -1853882335 301990416
            -781033453 538050689 136904883 807144706</internalNodes>
          <leafValues>
            -6.3793683052062988e-01 2.8688791394233704e-01</leafValues></_>
        <_>
          <internalNodes>
            0 -1 199 93557836 234885377 -2080373492 -1279131312
            -1574402680 134400000 -1593795959 -139210489</internalNodes>
          <leafValues>
            -4.0579494833946228e-01 5.0013285875320435e-01</leafValues></_>
        <_>
          <internalNodes>
            0 -1 190 -557197053 -1824686459 -1392595341 -2128599702
            -1073807818 2146893694 -1346372172 -4227086</internalNodes>
          <leafValues>
            -3.1227990984916687e-01 6.6010689735412598e-01</leafValues></_>
        <_>
          <internalNodes>
            0 -1 56 -387923902 1879065883 -83869295 1753300995 18047617
            -1038579431 1762173284 -948677887</internalNodes>
          <leafValues>
            -4.9446806311607361e-01 4.4083508849143982e-01</leafValues></_>
        <_>
          <internalNodes>
            0 -1 10 639680839 -555176774 938993457 -6079519 534497177
            -159580313 -1762361432 1345843187</internalNodes>
          <leafValues>
            -3.7906828522682190e-01 5.5409067869186401e-01</leafValues></_>
        <_>
          <internalNodes>
            0 -1 48 405494345 127369189 -286355869 -671600898 237271479
            1466940287 -980091033 -178340357</internalNodes>
          <leafValues>
            -3.6122196912765503e-01 5.6502026319503784e-01</leafValues></_>
        <_>
          <internalNodes>
            0 -1 53 1229648771 -2006961492 1073742154 -1039121342
            -1601629726 -1005453268 -2080338029 185170441</internalNodes>
          <leafValues>
            -4.3827712535858154e-01 4.5082631707191467e-01</leafValues></_></weakClassifiers></_></stages>
  <features>
    <_>
      <rect>
        0 1 2 1</rect></_>
    <_>
      <rect>
        0 1 6 4</rect></_>
    <_>
      <rect>
        0 2 3 3</rect></_>
    <_>
      <rect>
        0 3 3 4</rect></_>
    <_>
      <rect>
        0 3 4 5</rect></_>
    <_>
      <rect>
        0 4 4 4</rect></_>
    <_>
      <rect>
        0 5 3 5</rect></_>
    <_>
      <rect>
        0 6 3 4</rect></_>
    <_>
      <rect>
        0 8 2 3</rect></_>
    <_>
      <rect>
        1 0 2 4</rect></_>
    <_>
      <rect>
        1 0 3 2</rect></_>
    <_>
      <rect>
        1 0 3 5</rect></_>
    <_>
      <rect>
        1 2 3 5</rect></_>
    <_>
      <rect>
        1 2 4 3</rect></_>
    <_>
      <rect>
        1 4 2 2</rect></_>
    <_>
      <rect>
        1 5 3 5</rect></_>
    <_>
      <rect>
        1 6 3 3</rect></_>
    <_>
      <rect>
        1 8 3 4</rect></_>
    <_>
      <rect>
        1 9 1 2</rect></_>
    <_>
      <rect>
        2 0 4 3</rect></_>
    <_>
      <rect>
        2 1 5 3</rect></_>
    <_>
      <rect>
        2 1 6 4</rect></_>
    <_>
      <rect>
        2 1 6 5</rect></_>
    <_>
      <rect>
        2 2 3 6</rect></_>
    <_>
      <rect>
        2 2 6 3</rect></_>
    <_>
      <rect>
        2 3 3 4</rect></_>
    <_>
      <rect>
        2 3 6 2</rect></_>
    <_>
      <rect>
        2 4 2 3</rect></_>
    <_>
      <rect>
        2 4 3 4</rect></_>
    <_>
      <rect>
        2 4 3 5</rect></_>
    <_>
      <rect>
        2 4 4 2</rect></_>
    <_>
      <rect>
        2 4 4 4</rect></_>
    <_>
      <rect>
        2 5 3 3</rect></_>
    <_>
      <rect>
        2 6 4 2</rect></_>
    <_>
      <rect>
        2 8 6 4</rect></_>
    <_>
      <rect>
        2 9 3 3</rect></_>
    <_>
      <rect>
        2 11 2 2</rect></_>
    <_>
      <rect>
        2 15 1 1</rect></_>
    <_>
      <rect>
        3 0 3 5</rect></_>
    <_>
      <rect>
        3 0 5 3</rect></_>
    <_>
      <rect>
        3 1 3 4</rect></_>
    <_>
      <rect>
        3 1 4 2</rect></_>
    <_>
      <rect>
        3 2 1 1</rect></_>
    <_>
      <rect>
        3 2 2 2</rect></_>
    <_>
      <rect>
        3 3 2 2</rect></_>
    <_>
      <rect>
        3 3 3 2</rect></_>
    <_>
      <rect>
        3 3 5 4</rect></_>
    <_>
      <rect>
        3 4 2 2</rect></_>
    <_>
      <rect>
        3 6 2 3</rect></_>
    <_>
      <rect>
        3 6 3 3</rect></_>
    <_>
      <rect>
        3 7 3 3</rect></_>
    <_>
      <rect>
        3 7 3 4</rect></_>
    <_>
      <rect>
        3 8 2 1</rect></_>
    <_>
      <rect>
        3 11 2 2</rect></_>
    <_>
      <rect>
        4 1 2 2</rect></_>
    <_>
      <rect>
        4 2 5 5</rect></_>
    <_>
      <rect>
        4 3 3 3</rect></_>
    <_>
      <rect>
        4 4 2 2</rect></_>
    <_>
      <rect>
        4 5 2 2</rect></_>
    <_>
      <rect>
        4 5 2 3</rect></_>
    <_>
      <rect>
        4 5 3 1</rect></_>
    <_>
      <rect>
        4 5 3 2</rect></_>
    <_>
      <rect>
        4 6 3 1</rect></_>
    <_>
      <rect>
        4 6 3 2</rect></_>
    <_>
      <rect>
        4 7 2 2</rect></_>
    <_>
      <rect>
        4 9 1 1</rect></_>
    <_>
      <rect>
        4 11 2 2</rect></_>
    <_>
      <rect>
        5 1 3 1</rect></_>
    <_>
      <rect>
        5 1 5 3</rect></_>
    <_>
      <rect>
        5 2 1 1</rect></_>
    <_>
      <rect>
        5 3 1 2</rect></_>
    <_>
      <rect>
        5 6 1 1</rect></_>
    <_>
      <rect>
        5 6 2 2</rect></_>
    <_>
      <rect>
        5 6 2 3</rect></_>
    <_>
      <rect>
        5 6 2 4</rect></_>
    <_>
      <rect>
        5 6 3 1</rect></_>
    <_>
      <rect>
        5 7 1 1</rect></_>
    <_>
      <rect>
        5 7 2 2</rect></_>
    <_>
      <rect>
        5 7 2 3</rect></_>
    <_>
      <rect>
        5 7 4 4</rect></_>
    <_>
      <rect>
        5 8 2 2</rect></_>
    <_>
      <rect>
        5 8 3 3</rect></_>
    <_>
      <rect>
        5 8 4 4</rect></_>
    <_>
      <rect>
        5 9 2 2</rect></_>
    <_>
      <rect>
        5 9 4 3</rect></_>
    <_>
      <rect>
        5 10 2 2</rect></_>
    <_>
      <rect>
        5 12 1 1</rect></_>
    <_>
      <rect>
        6 1 4 5</rect></_>
    <_>
      <rect>
        6 4 2 2</rect></_>
    <_>
      <rect>
        6 4 4 4</rect></_>
    <_>
      <rect>
        6 5 1 1</rect></_>
    <_>
      <rect>
        6 5 2 2</rect></_>
    <_>
      <rect>
        6 5 4 3</rect></_>
    <_>
      <rect>
        6 6 1 2</rect></_>
    <_>
      <rect>
        6 7 1 1</rect></_>
    <_>
      <rect>
        6 7 2 1</rect></_>
    <_>
      <rect>
        6 8 1 1</rect></_>
    <_>
      <rect>
        6 8 2 1</rect></_>
    <_>
      <rect>
        6 8 2 2</rect></_>
    <_>
      <rect>
        6 10 1 1</rect></_>
    <_>
      <rect>
        6 13 3 2</rect></_>
    <_>
      <rect>
        7 0 2 3</rect></_>
    <_>
      <rect>
        7 1 2 3</rect></_>
    <_>
      <rect>
        7 2 2 3</rect></_>
    <_>
      <rect>
        7 2 2 4</rect></_>
    <_>
      <rect>
        7 4 2 1</rect></_>
    <_>
      <rect>
        7 4 2 2</rect></_>
    <_>
      <rect>
        7 4 2 3</rect></_>
    <_>
      <rect>
        7 4 3 1</rect></_>
    <_>
      <rect>
        7 4 4 5</rect></_>
    <_>
      <rect>
        7 5 1 2</rect></_>
    <_>
      <rect>
        7 5 2 2</rect></_>
    <_>
      <rect>
        7 5 2 3</rect></_>
    <_>
      <rect>
        7 6 2 1</rect></_>
    <_>
      <rect>
        7 6 2 2</rect></_>
    <_>
      <rect>
        7 6 3 1</rect></_>
    <_>
      <rect>
        7 7 1 1</rect></_>
    <_>
      <rect>
        7 7 2 1</rect></_>
    <_>
      <rect>
        7 7 2 2</rect></_>
    <_>
      <rect>
        7 7 2 4</rect></_>
    <_>
      <rect>
        7 7 3 1</rect></_>
    <_>
      <rect>
        7 8 1 1</rect></_>
    <_>
      <rect>
        7 8 2 2</rect></_>
    <_>
      <rect>
        7 8 2 3</rect></_>
    <_>
      <rect>
        7 8 2 4</rect></_>
    <_>
      <rect>
        7 8 3 3</rect></_>
    <_>
      <rect>
        7 9 1 1</rect></_>
    <_>
      <rect>
        7 9 1 2</rect></_>
    <_>
      <rect>
        7 9 2 3</rect></_>
    <_>
      <rect>
        7 10 1 1</rect></_>
    <_>
      <rect>
        7 10 1 2</rect></_>
    <_>
      <rect>
        7 10 2 2</rect></_>
    <_>
      <rect>
        7 11 1 1</rect></_>
    <_>
      <rect>
        8 0 4 5</rect></_>
    <_>
      <rect>
        8 1 3 3</rect></_>
    <_>
      <rect>
        8 2 2 5</rect></_>
    <_>
      <rect>
        8 2 3 2</rect></_>
    <_>
      <rect>
        8 2 4 5</rect></_>
    <_>
      <rect>
        8 3 2 1</rect></_>
    <_>
      <rect>
        8 3 4 5</rect></_>
    <_>
      <rect>
        8 5 2 2</rect></_>
    <_>
      <rect>
        8 5 4 4</rect></_>
    <_>
      <rect>
        8 5 4 5</rect></_>
    <_>
      <rect>
        8 6 3 2</rect></_>
    <_>
      <rect>
        8 7 1 1</rect></_>
    <_>
      <rect>
        8 7 2 2</rect></_>
    <_>
      <rect>
        8 8 2 2</rect></_>
    <_>
      <rect>
        8 10 3 3</rect></_>
    <_>
      <rect>
        8 16 1 1</rect></_>
    <_>
      <rect>
        9 1 3 3</rect></_>
    <_>
      <rect>
        9 2 2 3</rect></_>
    <_>
      <rect>
        9 2 3 6</rect></_>
    <_>
      <rect>
        9 3 2 4</rect></_>
    <_>
      <rect>
        9 4 2 2</rect></_>
    <_>
      <rect>
        9 4 2 3</rect></_>
    <_>
      <rect>
        9 5 1 2</rect></_>
    <_>
      <rect>
        9 5 2 2</rect></_>
    <_>
      <rect>
        9 5 2 3</rect></_>
    <_>
      <rect>
        9 6 2 2</rect></_>
    <_>
      <rect>
        9 6 2 3</rect></_>
    <_>
      <rect>
        9 7 1 1</rect></_>
    <_>
      <rect>
        9 7 2 2</rect></_>
    <_>
      <rect>
        9 8 1 1</rect></_>
    <_>
      <rect>
        9 8 2 2</rect></_>
    <_>
      <rect>
        9 8 2 3</rect></_>
    <_>
      <rect>
        9 9 1 1</rect></_>
    <_>
      <rect>
        9 10 1 1</rect></_>
    <_>
      <rect>
        9 11 1 1</rect></_>
    <_>
      <rect>
        9 11 3 3</rect></_>
    <_>
      <rect>
        9 12 2 2</rect></_>
    <_>
      <rect>
        10 0 2 3</rect></_>
    <_>
      <rect>
        10 1 3 4</rect></_>
    <_>
      <rect>
        10 2 3 4</rect></_>
    <_>
      <rect>
        10 2 3 6</rect></_>
    <_>
      <rect>
        10 3 2 4</rect></_>
    <_>
      <rect>
        10 4 1 2</rect></_>
    <_>
      <rect>
        10 4 3 5</rect></_>
    <_>
      <rect>
        10 5 2 3</rect></_>
    <_>
      <rect>
        10 5 3 5</rect></_>
    <_>
      <rect>
        10 6 1 2</rect></_>
    <_>
      <rect>
        10 6 2 3</rect></_>
    <_>
      <rect>
        10 7 1 3</rect></_>
    <_>
      <rect>
        10 7 2 4</rect></_>
    <_>
      <rect>
        10 8 1 1</rect></_>
    <_>
      <rect>
        10 8 1 2</rect></_>
    <_>
      <rect>
        10 9 1 1</rect></_>
    <_>
      <rect>
        10 10 3 3</rect></_>
    <_>
      <rect>
        10 11 1 1</rect></_>
    <_>
      <rect>
        10 11 3 3</rect></_>
    <_>
      <rect>
        10 12 1 1</rect></_>
    <_>
      <rect>
        10 12 1 2</rect></_>
    <_>
      <rect>
        10 12 2 2</rect></_>
    <_>
      <rect>
        11 0 3 4</rect></_>
    <_>
      <rect>
        11 3 2 3</rect></_>
    <_>
      <rect>
        11 3 3 2</rect></_>
    <_>
      <rect>
        11 4 2 3</rect></_>
    <_>
      <rect>
        11 5 2 2</rect></_>
    <_>
      <rect>
        11 5 2 3</rect></_>
    <_>
      <rect>
        11 5 3 5</rect></_>
    <_>
      <rect>
        11 6 1 1</rect></_>
    <_>
      <rect>
        11 6 1 2</rect></_>
    <_>
      <rect>
        11 6 2 2</rect></_>
    <_>
      <rect>
        11 13 2 2</rect></_>
    <_>
      <rect>
        12 3 2 2</rect></_>
    <_>
      <rect>
        12 3 2 3</rect></_>
    <_>
      <rect>
        12 4 2 2</rect></_>
    <_>
      <rect>
        12 7 1 1</rect></_>
    <_>
      <rect>
        12 8 1 1</rect></_>
    <_>
      <rect>
        12 10 2 3</rect></_>
    <_>
      <rect>
        12 12 2 2</rect></_>
    <_>
      <rect>
        13 2 2 4</rect></_>
    <_>
      <rect>
        13 3 2 2</rect></_>
    <_>
      <rect>
        13 5 1 2</rect></_>
    <_>
      <rect>
        13 6 1 1</rect></_>
    <_>
      <rect>
        13 7 1 1</rect></_>
    <_>
      <rect>
        13 11 2 3</rect></_>
    <_>
      <rect>
        13 13 1 1</rect></_>
    <_>
      <rect>
        14 8 2 3</rect></_>
    <_>
      <rect>
        14 9 2 3</rect></_>
    <_>
      <rect>
        15 9 1 2</rect></_></features></cascade>
</opencv_storage>
