<?xml version="1.0"?>
<opencv_storage>
<cascade>
  <stageType>BOOST</stageType>
  <featureType>HAAR</featureType>
  <height>24</height>
  <width>24</width>
  <stageParams>
    <boostType>GAB</boostType>
    <minHitRate>9.9500000476837158e-01</minHitRate>
    <maxFalseAlarm>5.0000000000000000e-01</maxFalseAlarm>
    <weightTrimRate>9.4999999999999996e-01</weightTrimRate>
    <maxDepth>1</maxDepth>
    <maxWeakCount>100</maxWeakCount></stageParams>
  <featureParams>
    <maxCatCount>0</maxCatCount>
    <featSize>1</featSize>
    <mode>BASIC</mode></featureParams>
  <stageNum>20</stageNum>
  <stages>
    <!-- stage 0 -->
    <_>
      <maxWeakCount>15</maxWeakCount>
      <stageThreshold>-1.6165872812271118e+00</stageThreshold>
      <weakClassifiers>
        <_>
          <internalNodes>
            0 -1 534 -9.4540435820817947e-03</internalNodes>
          <leafValues>
            6.5102040767669678e-01 -6.4774775505065918e-01</leafValues></_>
        <_>
          <internalNodes>
            0 -1 813 1.3686482561752200e-03</internalNodes>
          <leafValues>
            -5.5833005905151367e-01 3.3095914125442505e-01</leafValues></_>
        <_>
          <internalNodes>
            0 -1 553 -1.2812759727239609e-02</internalNodes>
          <leafValues>
            3.7921589612960815e-01 -3.1210237741470337e-01</leafValues></_>
        <_>
          <internalNodes>
            0 -1 532 9.3642184510827065e-03</internalNodes>
          <leafValues>
            -1.8062542378902435e-01 5.6407362222671509e-01</leafValues></_>
        <_>
          <internalNodes>
            0 -1 220 1.9075203686952591e-02</internalNodes>
          <leafValues>
            1.0494597256183624e-01 -7.0457965135574341e-01</leafValues></_>
        <_>
          <internalNodes>
            0 -1 413 4.0213100146502256e-04</internalNodes>
          <leafValues>
            -1.7828769981861115e-01 3.7807676196098328e-01</leafValues></_>
        <_>
          <internalNodes>
            0 -1 431 -7.5557967647910118e-03</internalNodes>
          <leafValues>
            5.2088481187820435e-01 -1.3447737693786621e-01</leafValues></_>
        <_>
          <internalNodes>
            0 -1 20 -9.2206202447414398e-02</internalNodes>
          <leafValues>
            4.4445815682411194e-01 -1.6235233843326569e-01</leafValues></_>
        <_>
          <internalNodes>
            0 -1 221 -1.4600683003664017e-02</internalNodes>
          <leafValues>
            -5.9251803159713745e-01 1.2459068000316620e-01</leafValues></_>
        <_>
          <internalNodes>
            0 -1 149 1.9112125039100647e-02</internalNodes>
          <leafValues>
            1.0363899916410446e-01 -7.0671457052230835e-01</leafValues></_>
        <_>
          <internalNodes>
            0 -1 799 -6.1963293701410294e-03</internalNodes>
          <leafValues>
            5.8032339811325073e-01 -1.1997994780540466e-01</leafValues></_>
        <_>
          <internalNodes>
            0 -1 651 -1.5445440076291561e-02</internalNodes>
          <leafValues>
            5.2252608537673950e-01 -1.3922157883644104e-01</leafValues></_>
        <_>
          <internalNodes>
            0 -1 549 -4.9884901382029057e-03</internalNodes>
          <leafValues>
            4.8300904035568237e-01 -1.2018077820539474e-01</leafValues></_>
        <_>
          <internalNodes>
            0 -1 548 7.2402134537696838e-03</internalNodes>
          <leafValues>
            -8.1280186772346497e-02 6.2376362085342407e-01</leafValues></_>
        <_>
          <internalNodes>
            0 -1 480 -1.5323055908083916e-02</internalNodes>
          <leafValues>
            -7.3957264423370361e-01 7.8012175858020782e-02</leafValues></_></weakClassifiers></_>
    <!-- stage 1 -->
    <_>
      <maxWeakCount>27</maxWeakCount>
      <stageThreshold>-1.5508514642715454e+00</stageThreshold>
      <weakClassifiers>
        <_>
          <internalNodes>
            0 -1 530 6.6012572497129440e-03</internalNodes>
          <leafValues>
            -5.6551140546798706e-01 6.4508390426635742e-01</leafValues></_>
        <_>
          <internalNodes>
            0 -1 558 -1.4883773401379585e-02</internalNodes>
          <leafValues>
            5.2418357133865356e-01 -3.7140628695487976e-01</leafValues></_>
        <_>
          <internalNodes>
            0 -1 450 7.4187465943396091e-03</internalNodes>
          <leafValues>
            -1.6252571344375610e-01 5.6188774108886719e-01</leafValues></_>
        <_>
          <internalNodes>
            0 -1 220 2.1003581583499908e-02</internalNodes>
          <leafValues>
            7.8315183520317078e-02 -7.0068502426147461e-01</leafValues></_>
        <_>
          <internalNodes>
            0 -1 320 -1.5337276272475719e-02</internalNodes>
          <leafValues>
            -5.8336424827575684e-01 1.1742553114891052e-01</leafValues></_>
        <_>
          <internalNodes>
            0 -1 267 3.9480105042457581e-03</internalNodes>
          <leafValues>
            -1.8556320667266846e-01 3.1725016236305237e-01</leafValues></_>
        <_>
          <internalNodes>
            0 -1 846 -2.9255324043333530e-03</internalNodes>
          <leafValues>
            4.9245721101760864e-01 -1.2485291808843613e-01</leafValues></_>
        <_>
          <internalNodes>
            0 -1 404 -9.4413489103317261e-02</internalNodes>
          <leafValues>
            -6.7067182064056396e-01 7.3081359267234802e-02</leafValues></_>
        <_>
          <internalNodes>
            0 -1 284 2.4431796744465828e-02</internalNodes>
          <leafValues>
            8.8792860507965088e-02 -6.4589059352874756e-01</leafValues></_>
        <_>
          <internalNodes>
            0 -1 419 3.4509688615798950e-02</internalNodes>
          <leafValues>
            8.5138887166976929e-02 -5.2481472492218018e-01</leafValues></_>
        <_>
          <internalNodes>
            0 -1 764 2.0986215677112341e-03</internalNodes>
          <leafValues>
            -1.5342296659946442e-01 3.4049937129020691e-01</leafValues></_>
        <_>
          <internalNodes>
            0 -1 460 -5.6861549615859985e-02</internalNodes>
          <leafValues>
            3.9918619394302368e-01 -1.1881846934556961e-01</leafValues></_>
        <_>
          <internalNodes>
            0 -1 953 -7.4702419806271791e-04</internalNodes>
          <leafValues>
            -4.5655936002731323e-01 1.0831969976425171e-01</leafValues></_>
        <_>
          <internalNodes>
            0 -1 244 3.0558694154024124e-02</internalNodes>
          <leafValues>
            -1.4600944519042969e-01 3.3071774244308472e-01</leafValues></_>
        <_>
          <internalNodes>
            0 -1 10 -7.9008929431438446e-02</internalNodes>
          <leafValues>
            4.4756340980529785e-01 -1.1968636512756348e-01</leafValues></_>
        <_>
          <internalNodes>
            0 -1 90 1.8831761553883553e-03</internalNodes>
          <leafValues>
            9.1400548815727234e-02 -4.9246650934219360e-01</leafValues></_>
        <_>
          <internalNodes>
            0 -1 427 2.7460330165922642e-03</internalNodes>
          <leafValues>
            -2.4046999216079712e-01 1.6560843586921692e-01</leafValues></_>
        <_>
          <internalNodes>
            0 -1 449 -4.6403417363762856e-03</internalNodes>
          <leafValues>
            3.9449363946914673e-01 -1.3320443034172058e-01</leafValues></_>
        <_>
          <internalNodes>
            0 -1 922 -3.9966674521565437e-03</internalNodes>
          <leafValues>
            -5.9696429967880249e-01 8.0244526267051697e-02</leafValues></_>
        <_>
          <internalNodes>
            0 -1 556 -2.9151562601327896e-02</internalNodes>
          <leafValues>
            4.3351867794990540e-01 -1.0370694100856781e-01</leafValues></_>
        <_>
          <internalNodes>
            0 -1 276 4.2464104481041431e-03</internalNodes>
          <leafValues>
            8.5048101842403412e-02 -5.6445759534835815e-01</leafValues></_>
        <_>
          <internalNodes>
            0 -1 155 9.5909805968403816e-03</internalNodes>
          <leafValues>
            3.6020636558532715e-02 -8.8105899095535278e-01</leafValues></_>
        <_>
          <internalNodes>
            0 -1 282 -6.0123121365904808e-03</internalNodes>
          <leafValues>
            3.7524899840354919e-01 -1.1623917520046234e-01</leafValues></_>
        <_>
          <internalNodes>
            0 -1 475 -1.7251793295145035e-02</internalNodes>
          <leafValues>
            2.8148677945137024e-01 -1.6215467453002930e-01</leafValues></_>
        <_>
          <internalNodes>
            0 -1 216 6.9610580801963806e-02</internalNodes>
          <leafValues>
            6.0614228248596191e-02 -7.4456006288528442e-01</leafValues></_>
        <_>
          <internalNodes>
            0 -1 497 -2.5080164894461632e-02</internalNodes>
          <leafValues>
            3.9789268374443054e-01 -1.2495933473110199e-01</leafValues></_>
        <_>
          <internalNodes>
            0 -1 487 -3.5582636483013630e-03</internalNodes>
          <leafValues>
            -7.6257616281509399e-01 5.7078700512647629e-02</leafValues></_></weakClassifiers></_>
    <!-- stage 2 -->
    <_>
      <maxWeakCount>32</maxWeakCount>
      <stageThreshold>-1.5181845426559448e+00</stageThreshold>
      <weakClassifiers>
        <_>
          <internalNodes>
            0 -1 761 1.1944202706217766e-02</internalNodes>
          <leafValues>
            -5.7155400514602661e-01 5.4446852207183838e-01</leafValues></_>
        <_>
          <internalNodes>
            0 -1 501 -8.5127688944339752e-03</internalNodes>
          <leafValues>
            7.4084848165512085e-01 -2.0803695917129517e-01</leafValues></_>
        <_>
          <internalNodes>
            0 -1 596 -2.8896299190819263e-03</internalNodes>
          <leafValues>
            2.3680593073368073e-01 -2.5136756896972656e-01</leafValues></_>
        <_>
          <internalNodes>
            0 -1 279 -9.9052768200635910e-03</internalNodes>
          <leafValues>
            -4.9365937709808350e-01 1.0108874738216400e-01</leafValues></_>
        <_>
          <internalNodes>
            0 -1 439 2.4355938658118248e-03</internalNodes>
          <leafValues>
            -1.3100475072860718e-01 3.8362535834312439e-01</leafValues></_>
        <_>
          <internalNodes>
            0 -1 382 -5.7043809443712234e-02</internalNodes>
          <leafValues>
            4.2878136038780212e-01 -9.8592989146709442e-02</leafValues></_>
        <_>
          <internalNodes>
            0 -1 422 5.3550191223621368e-03</internalNodes>
          <leafValues>
            -1.2357068806886673e-01 3.5187536478042603e-01</leafValues></_>
        <_>
          <internalNodes>
            0 -1 418 9.7256703302264214e-03</internalNodes>
          <leafValues>
            8.4192171692848206e-02 -6.1177098751068115e-01</leafValues></_>
        <_>
          <internalNodes>
            0 -1 411 -7.6385531574487686e-03</internalNodes>
          <leafValues>
            -4.9058407545089722e-01 7.7938973903656006e-02</leafValues></_>
        <_>
          <internalNodes>
            0 -1 339 2.8789021074771881e-02</internalNodes>
          <leafValues>
            -1.0925765335559845e-01 4.5320618152618408e-01</leafValues></_>
        <_>
          <internalNodes>
            0 -1 504 -1.4844581484794617e-02</internalNodes>
          <leafValues>
            5.7732945680618286e-01 -9.3799792230129242e-02</leafValues></_>
        <_>
          <internalNodes>
            0 -1 909 3.2265060581266880e-03</internalNodes>
          <leafValues>
            1.0711050033569336e-01 -4.6059352159500122e-01</leafValues></_>
        <_>
          <internalNodes>
            0 -1 615 -5.1290667615830898e-03</internalNodes>
          <leafValues>
            5.8942890167236328e-01 -7.6445505023002625e-02</leafValues></_>
        <_>
          <internalNodes>
            0 -1 262 1.6836989670991898e-02</internalNodes>
          <leafValues>
            9.7474388778209686e-02 -5.0395470857620239e-01</leafValues></_>
        <_>
          <internalNodes>
            0 -1 711 -2.6162334252148867e-03</internalNodes>
          <leafValues>
            -4.6270027756690979e-01 9.5694072544574738e-02</leafValues></_>
        <_>
          <internalNodes>
            0 -1 211 -6.7867543548345566e-03</internalNodes>
          <leafValues>
            1.5478499233722687e-01 -2.4255123734474182e-01</leafValues></_>
        <_>
          <internalNodes>
            0 -1 88 3.9234338328242302e-03</internalNodes>
          <leafValues>
            6.8891637027263641e-02 -4.8626041412353516e-01</leafValues></_>
        <_>
          <internalNodes>
            0 -1 848 -3.1187199056148529e-03</internalNodes>
          <leafValues>
            5.2503371238708496e-01 -6.3079662621021271e-02</leafValues></_>
        <_>
          <internalNodes>
            0 -1 314 4.8545431345701218e-03</internalNodes>
          <leafValues>
            -1.0970568656921387e-01 3.4815141558647156e-01</leafValues></_>
        <_>
          <internalNodes>
            0 -1 410 1.2982042506337166e-02</internalNodes>
          <leafValues>
            6.1088278889656067e-02 -6.4749306440353394e-01</leafValues></_>
        <_>
          <internalNodes>
            0 -1 514 -2.9452808666974306e-03</internalNodes>
          <leafValues>
            3.4903123974800110e-01 -1.1851401627063751e-01</leafValues></_>
        <_>
          <internalNodes>
            0 -1 196 -4.9182883230969310e-04</internalNodes>
          <leafValues>
            -3.7001124024391174e-01 1.1766242235898972e-01</leafValues></_>
        <_>
          <internalNodes>
            0 -1 933 1.1339329648762941e-03</internalNodes>
          <leafValues>
            1.1799903959035873e-01 -3.4524127840995789e-01</leafValues></_>
        <_>
          <internalNodes>
            0 -1 948 -5.0962576642632484e-04</internalNodes>
          <leafValues>
            -3.9543873071670532e-01 1.0748691856861115e-01</leafValues></_>
        <_>
          <internalNodes>
            0 -1 109 3.5789288580417633e-02</internalNodes>
          <leafValues>
            -6.2602236866950989e-02 6.5696829557418823e-01</leafValues></_>
        <_>
          <internalNodes>
            0 -1 821 2.8987333644181490e-04</internalNodes>
          <leafValues>
            -2.2567829489707947e-01 1.6966311633586884e-01</leafValues></_>
        <_>
          <internalNodes>
            0 -1 694 -2.2628795355558395e-02</internalNodes>
          <leafValues>
            4.1445854306221008e-01 -1.1479257792234421e-01</leafValues></_>
        <_>
          <internalNodes>
            0 -1 100 1.9171598250977695e-04</internalNodes>
          <leafValues>
            1.3557378947734833e-01 -3.1359994411468506e-01</leafValues></_>
        <_>
          <internalNodes>
            0 -1 847 1.0321181034669280e-03</internalNodes>
          <leafValues>
            -1.0704827308654785e-01 3.8845944404602051e-01</leafValues></_>
        <_>
          <internalNodes>
            0 -1 215 -6.9376686587929726e-03</internalNodes>
          <leafValues>
            -7.1895551681518555e-01 6.3257828354835510e-02</leafValues></_>
        <_>
          <internalNodes>
            0 -1 48 1.1124420911073685e-02</internalNodes>
          <leafValues>
            6.4297132194042206e-02 -4.7896218299865723e-01</leafValues></_>
        <_>
          <internalNodes>
            0 -1 852 -1.2501475866883993e-03</internalNodes>
          <leafValues>
            2.6902097463607788e-01 -1.4587621390819550e-01</leafValues></_></weakClassifiers></_>
    <!-- stage 3 -->
    <_>
      <maxWeakCount>32</maxWeakCount>
      <stageThreshold>-1.4245916604995728e+00</stageThreshold>
      <weakClassifiers>
        <_>
          <internalNodes>
            0 -1 534 -1.6066830605268478e-02</internalNodes>
          <leafValues>
            5.9173125028610229e-01 -5.1854902505874634e-01</leafValues></_>
        <_>
          <internalNodes>
            0 -1 814 -1.0636467486619949e-03</internalNodes>
          <leafValues>
            4.5361584424972534e-01 -2.7701917290687561e-01</leafValues></_>
        <_>
          <internalNodes>
            0 -1 343 -9.5059014856815338e-03</internalNodes>
          <leafValues>
            4.8249658942222595e-01 -1.5248836576938629e-01</leafValues></_>
        <_>
          <internalNodes>
            0 -1 771 4.7659722622483969e-04</internalNodes>
          <leafValues>
            -2.5253027677536011e-01 2.4995122849941254e-01</leafValues></_>
        <_>
          <internalNodes>
            0 -1 447 -7.9896934330463409e-03</internalNodes>
          <leafValues>
            -4.3124729394912720e-01 9.9546030163764954e-02</leafValues></_>
        <_>
          <internalNodes>
            0 -1 225 4.1417568922042847e-02</internalNodes>
          <leafValues>
            7.6010636985301971e-02 -6.2091165781021118e-01</leafValues></_>
        <_>
          <internalNodes>
            0 -1 762 2.9520273208618164e-02</internalNodes>
          <leafValues>
            -4.5254420489072800e-02 7.1687859296798706e-01</leafValues></_>
        <_>
          <internalNodes>
            0 -1 845 4.8281304771080613e-04</internalNodes>
          <leafValues>
            -1.3182422518730164e-01 3.2651042938232422e-01</leafValues></_>
        <_>
          <internalNodes>
            0 -1 350 -3.3779279328882694e-03</internalNodes>
          <leafValues>
            -4.6406656503677368e-01 1.0108992457389832e-01</leafValues></_>
        <_>
          <internalNodes>
            0 -1 448 5.4799611680209637e-03</internalNodes>
          <leafValues>
            -1.2695798277854919e-01 3.1710639595985413e-01</leafValues></_>
        <_>
          <internalNodes>
            0 -1 895 -4.6822261065244675e-03</internalNodes>
          <leafValues>
            -5.0458759069442749e-01 7.1730121970176697e-02</leafValues></_>
        <_>
          <internalNodes>
            0 -1 408 -5.4074367508292198e-03</internalNodes>
          <leafValues>
            -5.7522106170654297e-01 6.4186222851276398e-02</leafValues></_>
        <_>
          <internalNodes>
            0 -1 835 -3.7687974981963634e-03</internalNodes>
          <leafValues>
            3.4637871384620667e-01 -1.1221756041049957e-01</leafValues></_>
        <_>
          <internalNodes>
            0 -1 906 -3.5101291723549366e-03</internalNodes>
          <leafValues>
            -6.2003439664840698e-01 5.9581920504570007e-02</leafValues></_>
        <_>
          <internalNodes>
            0 -1 200 -3.1390517950057983e-02</internalNodes>
          <leafValues>
            2.1553972363471985e-01 -1.6629149019718170e-01</leafValues></_>
        <_>
          <internalNodes>
            0 -1 769 4.6009854413568974e-03</internalNodes>
          <leafValues>
            -1.0708387196063995e-01 3.6032161116600037e-01</leafValues></_>
        <_>
          <internalNodes>
            0 -1 160 4.3863896280527115e-03</internalNodes>
          <leafValues>
            5.7448450475931168e-02 -6.6327059268951416e-01</leafValues></_>
        <_>
          <internalNodes>
            0 -1 524 1.6667429590597749e-03</internalNodes>
          <leafValues>
            -9.5676749944686890e-02 4.5172807574272156e-01</leafValues></_>
        <_>
          <internalNodes>
            0 -1 715 3.8603316061198711e-03</internalNodes>
          <leafValues>
            6.4199246466159821e-02 -6.0350793600082397e-01</leafValues></_>
        <_>
          <internalNodes>
            0 -1 757 -1.9623157568275928e-03</internalNodes>
          <leafValues>
            4.2744442820549011e-01 -8.9940138161182404e-02</leafValues></_>
        <_>
          <internalNodes>
            0 -1 496 -4.0407828986644745e-02</internalNodes>
          <leafValues>
            -6.2961959838867188e-01 5.8029338717460632e-02</leafValues></_>
        <_>
          <internalNodes>
            0 -1 111 2.8098726645112038e-02</internalNodes>
          <leafValues>
            -9.5551028847694397e-02 4.2595538496971130e-01</leafValues></_>
        <_>
          <internalNodes>
            0 -1 22 -1.7302674055099487e-01</internalNodes>
          <leafValues>
            4.0278676152229309e-01 -8.6321935057640076e-02</leafValues></_>
        <_>
          <internalNodes>
            0 -1 262 2.1669436246156693e-02</internalNodes>
          <leafValues>
            7.1874171495437622e-02 -5.1669085025787354e-01</leafValues></_>
        <_>
          <internalNodes>
            0 -1 70 -1.6210687160491943e-01</internalNodes>
          <leafValues>
            -5.3543829917907715e-01 5.5641457438468933e-02</leafValues></_>
        <_>
          <internalNodes>
            0 -1 258 -1.2548950314521790e-01</internalNodes>
          <leafValues>
            -8.9223200082778931e-01 3.1839512288570404e-02</leafValues></_>
        <_>
          <internalNodes>
            0 -1 495 2.4978060275316238e-02</internalNodes>
          <leafValues>
            -6.8289048969745636e-02 5.3195291757583618e-01</leafValues></_>
        <_>
          <internalNodes>
            0 -1 926 5.2146345842629671e-04</internalNodes>
          <leafValues>
            1.0949030518531799e-01 -3.2995554804801941e-01</leafValues></_>
        <_>
          <internalNodes>
            0 -1 82 4.4271415099501610e-03</internalNodes>
          <leafValues>
            8.3914183080196381e-02 -3.4764143824577332e-01</leafValues></_>
        <_>
          <internalNodes>
            0 -1 503 3.3804667182266712e-03</internalNodes>
          <leafValues>
            -1.2916456162929535e-01 2.7512070536613464e-01</leafValues></_>
        <_>
          <internalNodes>
            0 -1 539 5.5713127367198467e-03</internalNodes>
          <leafValues>
            -9.6018463373184204e-02 3.5781639814376831e-01</leafValues></_>
        <_>
          <internalNodes>
            0 -1 680 -8.7893744930624962e-03</internalNodes>
          <leafValues>
            -4.3300199508666992e-01 1.0261964052915573e-01</leafValues></_></weakClassifiers></_>
    <!-- stage 4 -->
    <_>
      <maxWeakCount>36</maxWeakCount>
      <stageThreshold>-1.3050490617752075e+00</stageThreshold>
      <weakClassifiers>
        <_>
          <internalNodes>
            0 -1 755 2.3251075297594070e-02</internalNodes>
          <leafValues>
            -4.8270314931869507e-01 5.6022411584854126e-01</leafValues></_>
        <_>
          <internalNodes>
            0 -1 501 -5.6791603565216064e-03</internalNodes>
          <leafValues>
            5.0052297115325928e-01 -2.4810160696506500e-01</leafValues></_>
        <_>
          <internalNodes>
            0 -1 758 2.2033844143152237e-03</internalNodes>
          <leafValues>
            -1.5381468832492828e-01 3.0778664350509644e-01</leafValues></_>
        <_>
          <internalNodes>
            0 -1 342 1.4050155878067017e-02</internalNodes>
          <leafValues>
            5.6327134370803833e-02 -5.0572597980499268e-01</leafValues></_>
        <_>
          <internalNodes>
            0 -1 8 9.9709898233413696e-02</internalNodes>
          <leafValues>
            -4.2731609195470810e-02 4.8256182670593262e-01</leafValues></_>
        <_>
          <internalNodes>
            0 -1 886 1.3284662738442421e-02</internalNodes>
          <leafValues>
            -1.5466855466365814e-01 2.6918736100196838e-01</leafValues></_>
        <_>
          <internalNodes>
            0 -1 578 -3.9768025279045105e-02</internalNodes>
          <leafValues>
            4.2904472351074219e-01 -9.6260957419872284e-02</leafValues></_>
        <_>
          <internalNodes>
            0 -1 18 -3.4868981689214706e-02</internalNodes>
          <leafValues>
            2.8274160623550415e-01 -1.2387262284755707e-01</leafValues></_>
        <_>
          <internalNodes>
            0 -1 526 -1.2971109244972467e-03</internalNodes>
          <leafValues>
            4.6764445304870605e-01 -8.2403160631656647e-02</leafValues></_>
        <_>
          <internalNodes>
            0 -1 269 2.2651050239801407e-02</internalNodes>
          <leafValues>
            5.8153286576271057e-02 -5.9554171562194824e-01</leafValues></_>
        <_>
          <internalNodes>
            0 -1 625 2.4949326179921627e-03</internalNodes>
          <leafValues>
            -1.8660730123519897e-01 1.8883726000785828e-01</leafValues></_>
        <_>
          <internalNodes>
            0 -1 528 1.5810535987839103e-03</internalNodes>
          <leafValues>
            -1.0127077251672745e-01 3.3741322159767151e-01</leafValues></_>
        <_>
          <internalNodes>
            0 -1 505 3.5248408094048500e-03</internalNodes>
          <leafValues>
            1.0434056818485260e-01 -4.1324925422668457e-01</leafValues></_>
        <_>
          <internalNodes>
            0 -1 265 1.3006782159209251e-02</internalNodes>
          <leafValues>
            -1.5851813554763794e-01 2.7227520942687988e-01</leafValues></_>
        <_>
          <internalNodes>
            0 -1 846 -6.8741552531719208e-03</internalNodes>
          <leafValues>
            6.1437731981277466e-01 -4.1032116860151291e-02</leafValues></_>
        <_>
          <internalNodes>
            0 -1 889 -4.5539373531937599e-03</internalNodes>
          <leafValues>
            -6.3395941257476807e-01 5.1460109651088715e-02</leafValues></_>
        <_>
          <internalNodes>
            0 -1 141 -7.9435389488935471e-03</internalNodes>
          <leafValues>
            -6.0665982961654663e-01 5.2577495574951172e-02</leafValues></_>
        <_>
          <internalNodes>
            0 -1 826 -1.8355693668127060e-02</internalNodes>
          <leafValues>
            2.9019120335578918e-01 -1.1636612564325333e-01</leafValues></_>
        <_>
          <internalNodes>
            0 -1 333 -7.5996038503944874e-03</internalNodes>
          <leafValues>
            4.0157026052474976e-01 -6.2142305076122284e-02</leafValues></_>
        <_>
          <internalNodes>
            0 -1 420 3.7757349200546741e-03</internalNodes>
          <leafValues>
            -1.3369639217853546e-01 2.8201109170913696e-01</leafValues></_>
        <_>
          <internalNodes>
            0 -1 318 4.4983825646340847e-03</internalNodes>
          <leafValues>
            6.1221517622470856e-02 -5.8860117197036743e-01</leafValues></_>
        <_>
          <internalNodes>
            0 -1 609 -1.9690981134772301e-03</internalNodes>
          <leafValues>
            1.6664126515388489e-01 -1.9448857009410858e-01</leafValues></_>
        <_>
          <internalNodes>
            0 -1 517 -4.8452783375978470e-03</internalNodes>
          <leafValues>
            3.4130898118019104e-01 -1.0918332636356354e-01</leafValues></_>
        <_>
          <internalNodes>
            0 -1 98 -6.5319694112986326e-04</internalNodes>
          <leafValues>
            -4.2345938086509705e-01 9.1597042977809906e-02</leafValues></_>
        <_>
          <internalNodes>
            0 -1 586 9.7382506355643272e-03</internalNodes>
          <leafValues>
            -6.6036529839038849e-02 5.0316065549850464e-01</leafValues></_>
        <_>
          <internalNodes>
            0 -1 546 -3.2002986408770084e-03</internalNodes>
          <leafValues>
            -4.7065621614456177e-01 7.7405832707881927e-02</leafValues></_>
        <_>
          <internalNodes>
            0 -1 119 -5.7875667698681355e-03</internalNodes>
          <leafValues>
            -4.7688302397727966e-01 5.9145011007785797e-02</leafValues></_>
        <_>
          <internalNodes>
            0 -1 573 1.2712904717773199e-03</internalNodes>
          <leafValues>
            8.3329118788242340e-02 -3.6637046933174133e-01</leafValues></_>
        <_>
          <internalNodes>
            0 -1 171 -4.9983698874711990e-02</internalNodes>
          <leafValues>
            -4.9744686484336853e-01 6.2237787991762161e-02</leafValues></_>
        <_>
          <internalNodes>
            0 -1 266 -1.9101686775684357e-02</internalNodes>
          <leafValues>
            -6.1377096176147461e-01 4.5325845479965210e-02</leafValues></_>
        <_>
          <internalNodes>
            0 -1 902 -1.1617959477007389e-02</internalNodes>
          <leafValues>
            -5.9752321243286133e-01 4.8749919980764389e-02</leafValues></_>
        <_>
          <internalNodes>
            0 -1 677 -1.6309660859405994e-03</internalNodes>
          <leafValues>
            2.7562391757965088e-01 -1.2696637213230133e-01</leafValues></_>
        <_>
          <internalNodes>
            0 -1 50 4.7165197320282459e-03</internalNodes>
          <leafValues>
            6.3639409840106964e-02 -4.7483509778976440e-01</leafValues></_>
        <_>
          <internalNodes>
            0 -1 150 2.1705836988985538e-03</internalNodes>
          <leafValues>
            5.3188122808933258e-02 -5.2262932062149048e-01</leafValues></_>
        <_>
          <internalNodes>
            0 -1 210 3.3588761091232300e-01</internalNodes>
          <leafValues>
            2.8295272961258888e-02 -7.9535520076751709e-01</leafValues></_>
        <_>
          <internalNodes>
            0 -1 634 2.8961063362658024e-03</internalNodes>
          <leafValues>
            6.0777224600315094e-02 -4.3452227115631104e-01</leafValues></_></weakClassifiers></_>
    <!-- stage 5 -->
    <_>
      <maxWeakCount>44</maxWeakCount>
      <stageThreshold>-1.3943064212799072e+00</stageThreshold>
      <weakClassifiers>
        <_>
          <internalNodes>
            0 -1 533 -7.9667484387755394e-03</internalNodes>
          <leafValues>
            3.5983264446258545e-01 -5.0980395078659058e-01</leafValues></_>
        <_>
          <internalNodes>
            0 -1 842 -9.7281197085976601e-03</internalNodes>
          <leafValues>
            4.5092535018920898e-01 -2.6166692376136780e-01</leafValues></_>
        <_>
          <internalNodes>
            0 -1 691 -2.3368418216705322e-02</internalNodes>
          <leafValues>
            5.5216252803802490e-01 -1.1364983022212982e-01</leafValues></_>
        <_>
          <internalNodes>
            0 -1 328 -2.4092733860015869e-02</internalNodes>
          <leafValues>
            -6.5501803159713745e-01 3.7497721612453461e-02</leafValues></_>
        <_>
          <internalNodes>
            0 -1 224 1.2803547084331512e-02</internalNodes>
          <leafValues>
            6.8729743361473083e-02 -5.3765541315078735e-01</leafValues></_>
        <_>
          <internalNodes>
            0 -1 815 8.5445051081478596e-04</internalNodes>
          <leafValues>
            -9.9257759749889374e-02 3.3047890663146973e-01</leafValues></_>
        <_>
          <internalNodes>
            0 -1 511 -2.0184226334095001e-02</internalNodes>
          <leafValues>
            -3.9502361416816711e-01 6.7176491022109985e-02</leafValues></_>
        <_>
          <internalNodes>
            0 -1 836 6.6414177417755127e-02</internalNodes>
          <leafValues>
            9.8973341286182404e-02 -5.3592443466186523e-01</leafValues></_>
        <_>
          <internalNodes>
            0 -1 454 -1.5225652605295181e-03</internalNodes>
          <leafValues>
            2.4417476356029510e-01 -1.3752403855323792e-01</leafValues></_>
        <_>
          <internalNodes>
            0 -1 923 -4.6028505312278867e-04</internalNodes>
          <leafValues>
            -3.4038874506950378e-01 9.1960899531841278e-02</leafValues></_>
        <_>
          <internalNodes>
            0 -1 494 1.2879357673227787e-02</internalNodes>
          <leafValues>
            -8.8492639362812042e-02 3.7986102700233459e-01</leafValues></_>
        <_>
          <internalNodes>
            0 -1 431 -7.8255329281091690e-03</internalNodes>
          <leafValues>
            3.2134121656417847e-01 -1.1790651828050613e-01</leafValues></_>
        <_>
          <internalNodes>
            0 -1 443 -2.2234292700886726e-02</internalNodes>
          <leafValues>
            4.9607867002487183e-01 -7.6408162713050842e-02</leafValues></_>
        <_>
          <internalNodes>
            0 -1 164 2.3750350810587406e-03</internalNodes>
          <leafValues>
            1.1564596742391586e-01 -3.9508447051048279e-01</leafValues></_>
        <_>
          <internalNodes>
            0 -1 23 3.8654230535030365e-02</internalNodes>
          <leafValues>
            -8.0713704228401184e-02 5.6025660037994385e-01</leafValues></_>
        <_>
          <internalNodes>
            0 -1 440 -5.4320720955729485e-03</internalNodes>
          <leafValues>
            -3.2783284783363342e-01 1.1167179048061371e-01</leafValues></_>
        <_>
          <internalNodes>
            0 -1 273 1.3791708042845130e-03</internalNodes>
          <leafValues>
            -1.1091230064630508e-01 3.1422078609466553e-01</leafValues></_>
        <_>
          <internalNodes>
            0 -1 670 1.6042646020650864e-02</internalNodes>
          <leafValues>
            -1.0949876904487610e-01 2.8067833185195923e-01</leafValues></_>
        <_>
          <internalNodes>
            0 -1 15 3.3918328583240509e-02</internalNodes>
          <leafValues>
            3.3442318439483643e-02 -8.5629826784133911e-01</leafValues></_>
        <_>
          <internalNodes>
            0 -1 543 -1.0035324841737747e-02</internalNodes>
          <leafValues>
            7.0961570739746094e-01 -5.1273696124553680e-02</leafValues></_>
        <_>
          <internalNodes>
            0 -1 546 2.5825439952313900e-03</internalNodes>
          <leafValues>
            7.5540333986282349e-02 -4.2960080504417419e-01</leafValues></_>
        <_>
          <internalNodes>
            0 -1 507 6.6757858730852604e-03</internalNodes>
          <leafValues>
            6.2457941472530365e-02 -4.2637392878532410e-01</leafValues></_>
        <_>
          <internalNodes>
            0 -1 823 2.9337359592318535e-03</internalNodes>
          <leafValues>
            -1.5280772745609283e-01 2.1896788477897644e-01</leafValues></_>
        <_>
          <internalNodes>
            0 -1 787 -1.0371548123657703e-02</internalNodes>
          <leafValues>
            2.5781306624412537e-01 -1.1992646008729935e-01</leafValues></_>
        <_>
          <internalNodes>
            0 -1 483 1.4548471197485924e-02</internalNodes>
          <leafValues>
            -1.0217716544866562e-01 3.4144353866577148e-01</leafValues></_>
        <_>
          <internalNodes>
            0 -1 939 -9.3990762252360582e-04</internalNodes>
          <leafValues>
            -3.1968078017234802e-01 9.1808661818504333e-02</leafValues></_>
        <_>
          <internalNodes>
            0 -1 243 5.2115157246589661e-02</internalNodes>
          <leafValues>
            4.9941409379243851e-02 -6.1169654130935669e-01</leafValues></_>
        <_>
          <internalNodes>
            0 -1 435 -1.1349827982485294e-03</internalNodes>
          <leafValues>
            4.2411878705024719e-01 -7.8625634312629700e-02</leafValues></_>
        <_>
          <internalNodes>
            0 -1 92 5.3961174562573433e-03</internalNodes>
          <leafValues>
            4.9219973385334015e-02 -6.4292424917221069e-01</leafValues></_>
        <_>
          <internalNodes>
            0 -1 800 -4.1640796698629856e-03</internalNodes>
          <leafValues>
            -3.1405797600746155e-01 8.4154635667800903e-02</leafValues></_>
        <_>
          <internalNodes>
            0 -1 173 7.6390542089939117e-03</internalNodes>
          <leafValues>
            -1.0320336371660233e-01 2.8030991554260254e-01</leafValues></_>
        <_>
          <internalNodes>
            0 -1 388 -5.4825018160045147e-03</internalNodes>
          <leafValues>
            -3.4373486042022705e-01 9.3621693551540375e-02</leafValues></_>
        <_>
          <internalNodes>
            0 -1 398 4.5459717512130737e-03</internalNodes>
          <leafValues>
            7.5674623250961304e-02 -3.8956364989280701e-01</leafValues></_>
        <_>
          <internalNodes>
            0 -1 178 -8.4741562604904175e-02</internalNodes>
          <leafValues>
            -6.6998094320297241e-01 4.3683603405952454e-02</leafValues></_>
        <_>
          <internalNodes>
            0 -1 561 -4.9852416850626469e-03</internalNodes>
          <leafValues>
            3.5898587107658386e-01 -8.5278734564781189e-02</leafValues></_>
        <_>
          <internalNodes>
            0 -1 218 -1.1842222884297371e-02</internalNodes>
          <leafValues>
            1.8428736925125122e-01 -1.4617630839347839e-01</leafValues></_>
        <_>
          <internalNodes>
            0 -1 167 -1.2139961123466492e-02</internalNodes>
          <leafValues>
            -3.4238299727439880e-01 7.7033542096614838e-02</leafValues></_>
        <_>
          <internalNodes>
            0 -1 530 -5.1889573223888874e-03</internalNodes>
          <leafValues>
            4.8652777075767517e-01 -5.8089219033718109e-02</leafValues></_>
        <_>
          <internalNodes>
            0 -1 613 8.2708057016134262e-04</internalNodes>
          <leafValues>
            -1.2019151449203491e-01 2.2053574025630951e-01</leafValues></_>
        <_>
          <internalNodes>
            0 -1 722 9.6383512020111084e-02</internalNodes>
          <leafValues>
            -6.3869707286357880e-02 4.5504388213157654e-01</leafValues></_>
        <_>
          <internalNodes>
            0 -1 506 3.6788270808756351e-03</internalNodes>
          <leafValues>
            4.9758438020944595e-02 -5.7806497812271118e-01</leafValues></_>
        <_>
          <internalNodes>
            0 -1 179 -1.1429952457547188e-02</internalNodes>
          <leafValues>
            -3.7746524810791016e-01 6.7839257419109344e-02</leafValues></_>
        <_>
          <internalNodes>
            0 -1 580 -1.2409591581672430e-03</internalNodes>
          <leafValues>
            -3.2104668021202087e-01 7.9127795994281769e-02</leafValues></_>
        <_>
          <internalNodes>
            0 -1 881 -2.7583830058574677e-02</internalNodes>
          <leafValues>
            3.6058050394058228e-01 -7.7969171106815338e-02</leafValues></_></weakClassifiers></_>
    <!-- stage 6 -->
    <_>
      <maxWeakCount>39</maxWeakCount>
      <stageThreshold>-1.2500959634780884e+00</stageThreshold>
      <weakClassifiers>
        <_>
          <internalNodes>
            0 -1 437 1.3828439638018608e-02</internalNodes>
          <leafValues>
            -4.7246128320693970e-01 3.4018266201019287e-01</leafValues></_>
        <_>
          <internalNodes>
            0 -1 840 -6.4860880374908447e-03</internalNodes>
          <leafValues>
            4.1018667817115784e-01 -2.2636409103870392e-01</leafValues></_>
        <_>
          <internalNodes>
            0 -1 557 -3.6719255149364471e-03</internalNodes>
          <leafValues>
            2.3045082390308380e-01 -3.0593380331993103e-01</leafValues></_>
        <_>
          <internalNodes>
            0 -1 320 -2.0146708935499191e-02</internalNodes>
          <leafValues>
            -6.8977677822113037e-01 6.5291427075862885e-02</leafValues></_>
        <_>
          <internalNodes>
            0 -1 498 -2.8599629178643227e-02</internalNodes>
          <leafValues>
            3.4270444512367249e-01 -1.3273940980434418e-01</leafValues></_>
        <_>
          <internalNodes>
            0 -1 230 7.7077159658074379e-03</internalNodes>
          <leafValues>
            2.5321181863546371e-02 -8.0433446168899536e-01</leafValues></_>
        <_>
          <internalNodes>
            0 -1 184 6.7007336765527725e-03</internalNodes>
          <leafValues>
            5.6262284517288208e-02 -5.5133873224258423e-01</leafValues></_>
        <_>
          <internalNodes>
            0 -1 531 -5.0205904990434647e-03</internalNodes>
          <leafValues>
            4.4702512025833130e-01 -5.6648135185241699e-02</leafValues></_>
        <_>
          <internalNodes>
            0 -1 410 -9.3301236629486084e-03</internalNodes>
          <leafValues>
            -4.8439651727676392e-01 5.6304335594177246e-02</leafValues></_>
        <_>
          <internalNodes>
            0 -1 659 -8.9419730007648468e-02</internalNodes>
          <leafValues>
            -8.2037097215652466e-01 3.2505381852388382e-02</leafValues></_>
        <_>
          <internalNodes>
            0 -1 370 -2.5321021676063538e-03</internalNodes>
          <leafValues>
            -3.2758337259292603e-01 8.8850051164627075e-02</leafValues></_>
        <_>
          <internalNodes>
            0 -1 161 -1.9244115799665451e-02</internalNodes>
          <leafValues>
            3.6206775903701782e-01 -7.2653479874134064e-02</leafValues></_>
        <_>
          <internalNodes>
            0 -1 575 -1.0013014543801546e-03</internalNodes>
          <leafValues>
            -4.0002515912055969e-01 6.4647510647773743e-02</leafValues></_>
        <_>
          <internalNodes>
            0 -1 127 -1.8576540052890778e-02</internalNodes>
          <leafValues>
            -4.2288789153099060e-01 5.6282661855220795e-02</leafValues></_>
        <_>
          <internalNodes>
            0 -1 361 1.5398221090435982e-02</internalNodes>
          <leafValues>
            9.0072385966777802e-02 -3.1176167726516724e-01</leafValues></_>
        <_>
          <internalNodes>
            0 -1 743 -3.9333194494247437e-02</internalNodes>
          <leafValues>
            -4.5503747463226318e-01 5.7972393929958344e-02</leafValues></_>
        <_>
          <internalNodes>
            0 -1 747 8.6464434862136841e-03</internalNodes>
          <leafValues>
            -5.6997206062078476e-02 5.3774523735046387e-01</leafValues></_>
        <_>
          <internalNodes>
            0 -1 424 -4.2036129161715508e-03</internalNodes>
          <leafValues>
            4.5848476886749268e-01 -5.3929466754198074e-02</leafValues></_>
        <_>
          <internalNodes>
            0 -1 741 -5.4039014503359795e-03</internalNodes>
          <leafValues>
            2.6906445622444153e-01 -1.2898480892181396e-01</leafValues></_>
        <_>
          <internalNodes>
            0 -1 438 7.5312689878046513e-03</internalNodes>
          <leafValues>
            5.6362748146057129e-02 -5.4026442766189575e-01</leafValues></_>
        <_>
          <internalNodes>
            0 -1 371 3.2513646874576807e-03</internalNodes>
          <leafValues>
            -1.3469500839710236e-01 2.0598460733890533e-01</leafValues></_>
        <_>
          <internalNodes>
            0 -1 53 -1.6877619782462716e-03</internalNodes>
          <leafValues>
            -3.5581204295158386e-01 8.3041407167911530e-02</leafValues></_>
        <_>
          <internalNodes>
            0 -1 627 -1.1362394317984581e-02</internalNodes>
          <leafValues>
            3.1406047940254211e-01 -1.0113035887479782e-01</leafValues></_>
        <_>
          <internalNodes>
            0 -1 700 1.2112399563193321e-02</internalNodes>
          <leafValues>
            -1.0894863307476044e-01 2.4980555474758148e-01</leafValues></_>
        <_>
          <internalNodes>
            0 -1 486 3.0841878615319729e-03</internalNodes>
          <leafValues>
            -1.8811595439910889e-01 1.6013103723526001e-01</leafValues></_>
        <_>
          <internalNodes>
            0 -1 16 1.3355057686567307e-02</internalNodes>
          <leafValues>
            -8.0901786684989929e-02 3.7436127662658691e-01</leafValues></_>
        <_>
          <internalNodes>
            0 -1 13 -4.9597714096307755e-02</internalNodes>
          <leafValues>
            3.0308634042739868e-01 -9.1073982417583466e-02</leafValues></_>
        <_>
          <internalNodes>
            0 -1 804 -1.3482491485774517e-02</internalNodes>
          <leafValues>
            -7.3909491300582886e-01 3.4074705094099045e-02</leafValues></_>
        <_>
          <internalNodes>
            0 -1 953 2.7219316689297557e-04</internalNodes>
          <leafValues>
            1.1100662499666214e-01 -2.2033748030662537e-01</leafValues></_>
        <_>
          <internalNodes>
            0 -1 950 1.5549696981906891e-03</internalNodes>
          <leafValues>
            5.6576196104288101e-02 -4.6575284004211426e-01</leafValues></_>
        <_>
          <internalNodes>
            0 -1 248 1.0938720777630806e-02</internalNodes>
          <leafValues>
            -8.0507650971412659e-02 3.4713223576545715e-01</leafValues></_>
        <_>
          <internalNodes>
            0 -1 490 -9.6245426684617996e-03</internalNodes>
          <leafValues>
            2.9400879144668579e-01 -1.0803363472223282e-01</leafValues></_>
        <_>
          <internalNodes>
            0 -1 26 -1.2550568580627441e-01</internalNodes>
          <leafValues>
            -6.4957565069198608e-01 4.2153943330049515e-02</leafValues></_>
        <_>
          <internalNodes>
            0 -1 296 8.8381217792630196e-03</internalNodes>
          <leafValues>
            -7.6644711196422577e-02 4.1744098067283630e-01</leafValues></_>
        <_>
          <internalNodes>
            0 -1 633 -3.0008121393620968e-03</internalNodes>
          <leafValues>
            -3.8240885734558105e-01 7.4260935187339783e-02</leafValues></_>
        <_>
          <internalNodes>
            0 -1 739 -1.4602582901716232e-02</internalNodes>
          <leafValues>
            -5.8651864528656006e-01 4.3521448969841003e-02</leafValues></_>
        <_>
          <internalNodes>
            0 -1 222 8.4485761821269989e-02</internalNodes>
          <leafValues>
            3.4040227532386780e-02 -6.5253591537475586e-01</leafValues></_>
        <_>
          <internalNodes>
            0 -1 362 7.7731199562549591e-03</internalNodes>
          <leafValues>
            -9.4957776367664337e-02 3.0217698216438293e-01</leafValues></_>
        <_>
          <internalNodes>
            0 -1 645 -1.8707637209445238e-03</internalNodes>
          <leafValues>
            -3.8421896100044250e-01 6.9158457219600677e-02</leafValues></_></weakClassifiers></_>
    <!-- stage 7 -->
    <_>
      <maxWeakCount>54</maxWeakCount>
      <stageThreshold>-1.3099044561386108e+00</stageThreshold>
      <weakClassifiers>
        <_>
          <internalNodes>
            0 -1 348 -3.9800569415092468e-02</internalNodes>
          <leafValues>
            4.3288084864616394e-01 -4.2845880985260010e-01</leafValues></_>
        <_>
          <internalNodes>
            0 -1 840 -8.7714754045009613e-03</internalNodes>
          <leafValues>
            4.9257060885429382e-01 -1.7257440090179443e-01</leafValues></_>
        <_>
          <internalNodes>
            0 -1 552 -2.5311455130577087e-02</internalNodes>
          <leafValues>
            4.7309908270835876e-01 -1.1165983974933624e-01</leafValues></_>
        <_>
          <internalNodes>
            0 -1 489 -9.8492447286844254e-03</internalNodes>
          <leafValues>
            -4.5747092366218567e-01 7.4264936149120331e-02</leafValues></_>
        <_>
          <internalNodes>
            0 -1 478 1.1372083798050880e-02</internalNodes>
          <leafValues>
            -1.1314006149768829e-01 2.7775964140892029e-01</leafValues></_>
        <_>
          <internalNodes>
            0 -1 911 2.3509203456342220e-03</internalNodes>
          <leafValues>
            4.0308676660060883e-02 -4.0722459554672241e-01</leafValues></_>
        <_>
          <internalNodes>
            0 -1 426 -5.2527496591210365e-03</internalNodes>
          <leafValues>
            3.1627607345581055e-01 -8.6039692163467407e-02</leafValues></_>
        <_>
          <internalNodes>
            0 -1 911 -2.0470833405852318e-03</internalNodes>
          <leafValues>
            -3.6440154910087585e-01 9.0539276599884033e-02</leafValues></_>
        <_>
          <internalNodes>
            0 -1 37 4.1213640943169594e-03</internalNodes>
          <leafValues>
            4.9209609627723694e-02 -4.8806092143058777e-01</leafValues></_>
        <_>
          <internalNodes>
            0 -1 546 -3.6673950962722301e-03</internalNodes>
          <leafValues>
            -4.4616603851318359e-01 6.3767589628696442e-02</leafValues></_>
        <_>
          <internalNodes>
            0 -1 360 4.1498672217130661e-03</internalNodes>
          <leafValues>
            6.6229276359081268e-02 -4.8413649201393127e-01</leafValues></_>
        <_>
          <internalNodes>
            0 -1 424 2.2814408876001835e-03</internalNodes>
          <leafValues>
            -6.8368144333362579e-02 4.6911594271659851e-01</leafValues></_>
        <_>
          <internalNodes>
            0 -1 551 5.8740526437759399e-03</internalNodes>
          <leafValues>
            -1.1698416620492935e-01 2.2785043716430664e-01</leafValues></_>
        <_>
          <internalNodes>
            0 -1 560 2.0537465810775757e-02</internalNodes>
          <leafValues>
            -5.8317705988883972e-02 4.4938156008720398e-01</leafValues></_>
        <_>
          <internalNodes>
            0 -1 321 4.8308745026588440e-02</internalNodes>
          <leafValues>
            5.5541303008794785e-02 -5.3581839799880981e-01</leafValues></_>
        <_>
          <internalNodes>
            0 -1 673 -8.2743156235665083e-04</internalNodes>
          <leafValues>
            -3.6191010475158691e-01 6.1033744364976883e-02</leafValues></_>
        <_>
          <internalNodes>
            0 -1 928 -2.6661339215934277e-03</internalNodes>
          <leafValues>
            -4.4311136007308960e-01 5.2359361201524734e-02</leafValues></_>
        <_>
          <internalNodes>
            0 -1 626 -5.6700929999351501e-03</internalNodes>
          <leafValues>
            3.5500752925872803e-01 -6.7095577716827393e-02</leafValues></_>
        <_>
          <internalNodes>
            0 -1 297 -5.3302017040550709e-03</internalNodes>
          <leafValues>
            -4.3256399035453796e-01 6.0676369816064835e-02</leafValues></_>
        <_>
          <internalNodes>
            0 -1 503 -6.5459832549095154e-03</internalNodes>
          <leafValues>
            4.2959678173065186e-01 -5.4168079048395157e-02</leafValues></_>
        <_>
          <internalNodes>
            0 -1 612 2.0067766308784485e-03</internalNodes>
          <leafValues>
            -8.4107838571071625e-02 3.4571471810340881e-01</leafValues></_>
        <_>
          <internalNodes>
            0 -1 451 -4.0000742301344872e-03</internalNodes>
          <leafValues>
            -4.8405629396438599e-01 5.5449116975069046e-02</leafValues></_>
        <_>
          <internalNodes>
            0 -1 554 8.0450829118490219e-03</internalNodes>
          <leafValues>
            7.4643686413764954e-02 -3.0824851989746094e-01</leafValues></_>
        <_>
          <internalNodes>
            0 -1 309 3.6802731454372406e-02</internalNodes>
          <leafValues>
            5.9875629842281342e-02 -4.3254601955413818e-01</leafValues></_>
        <_>
          <internalNodes>
            0 -1 124 2.1574767306447029e-03</internalNodes>
          <leafValues>
            5.4757058620452881e-02 -4.0790465474128723e-01</leafValues></_>
        <_>
          <internalNodes>
            0 -1 316 1.0902971960604191e-02</internalNodes>
          <leafValues>
            -8.7098106741905212e-02 3.1268969178199768e-01</leafValues></_>
        <_>
          <internalNodes>
            0 -1 417 2.8711466584354639e-03</internalNodes>
          <leafValues>
            6.2559075653553009e-02 -3.8368299603462219e-01</leafValues></_>
        <_>
          <internalNodes>
            0 -1 841 2.6369506958872080e-03</internalNodes>
          <leafValues>
            -8.1814706325531006e-02 3.5112634301185608e-01</leafValues></_>
        <_>
          <internalNodes>
            0 -1 323 -2.3682944476604462e-02</internalNodes>
          <leafValues>
            2.4839401245117188e-01 -1.0718507319688797e-01</leafValues></_>
        <_>
          <internalNodes>
            0 -1 595 -1.0952202975749969e-01</internalNodes>
          <leafValues>
            -8.6148834228515625e-01 2.8685946017503738e-02</leafValues></_>
        <_>
          <internalNodes>
            0 -1 449 -6.7378534004092216e-03</internalNodes>
          <leafValues>
            3.8091006875038147e-01 -7.2663016617298126e-02</leafValues></_>
        <_>
          <internalNodes>
            0 -1 704 5.1779341883957386e-03</internalNodes>
          <leafValues>
            -1.3581611216068268e-01 1.7310479283332825e-01</leafValues></_>
        <_>
          <internalNodes>
            0 -1 598 -1.2727209925651550e-01</internalNodes>
          <leafValues>
            -6.1195379495620728e-01 5.0843480974435806e-02</leafValues></_>
        <_>
          <internalNodes>
            0 -1 44 1.1532917618751526e-01</internalNodes>
          <leafValues>
            -7.5076043605804443e-02 4.0203738212585449e-01</leafValues></_>
        <_>
          <internalNodes>
            0 -1 519 -2.3333774879574776e-03</internalNodes>
          <leafValues>
            -3.6707764863967896e-01 6.6604502499103546e-02</leafValues></_>
        <_>
          <internalNodes>
            0 -1 30 1.6128202900290489e-02</internalNodes>
          <leafValues>
            6.7247301340103149e-02 -3.7025406956672668e-01</leafValues></_>
        <_>
          <internalNodes>
            0 -1 718 -1.0129068978130817e-03</internalNodes>
          <leafValues>
            -4.5861339569091797e-01 5.2790358662605286e-02</leafValues></_>
        <_>
          <internalNodes>
            0 -1 932 2.3120720870792866e-03</internalNodes>
          <leafValues>
            5.2608031779527664e-02 -4.0277323126792908e-01</leafValues></_>
        <_>
          <internalNodes>
            0 -1 847 -1.7841525841504335e-03</internalNodes>
          <leafValues>
            3.0544942617416382e-01 -7.5052864849567413e-02</leafValues></_>
        <_>
          <internalNodes>
            0 -1 334 -7.9278741031885147e-03</internalNodes>
          <leafValues>
            3.0021706223487854e-01 -7.5156293809413910e-02</leafValues></_>
        <_>
          <internalNodes>
            0 -1 278 5.0665144808590412e-03</internalNodes>
          <leafValues>
            -8.0642923712730408e-02 3.2984465360641479e-01</leafValues></_>
        <_>
          <internalNodes>
            0 -1 65 3.2893387833610177e-04</internalNodes>
          <leafValues>
            8.7836310267448425e-02 -2.8479751944541931e-01</leafValues></_>
        <_>
          <internalNodes>
            0 -1 882 -7.8356154263019562e-03</internalNodes>
          <leafValues>
            2.7297824621200562e-01 -8.3843581378459930e-02</leafValues></_>
        <_>
          <internalNodes>
            0 -1 473 -6.2247470021247864e-02</internalNodes>
          <leafValues>
            5.8805251121520996e-01 -3.5372201353311539e-02</leafValues></_>
        <_>
          <internalNodes>
            0 -1 4 -9.5251671969890594e-02</internalNodes>
          <leafValues>
            4.5259678363800049e-01 -4.9253810197114944e-02</leafValues></_>
        <_>
          <internalNodes>
            0 -1 135 8.1489337608218193e-03</internalNodes>
          <leafValues>
            -9.7882486879825592e-02 2.2478194534778595e-01</leafValues></_>
        <_>
          <internalNodes>
            0 -1 521 3.6179799586534500e-02</internalNodes>
          <leafValues>
            2.8973111882805824e-02 -7.3041111230850220e-01</leafValues></_>
        <_>
          <internalNodes>
            0 -1 227 -5.0693228840827942e-03</internalNodes>
          <leafValues>
            1.8758989870548248e-01 -1.2688852846622467e-01</leafValues></_>
        <_>
          <internalNodes>
            0 -1 190 3.3968649804592133e-03</internalNodes>
          <leafValues>
            5.3670562803745270e-02 -4.8573824763298035e-01</leafValues></_>
        <_>
          <internalNodes>
            0 -1 607 -3.7809221539646387e-03</internalNodes>
          <leafValues>
            -4.1146296262741089e-01 5.1454845815896988e-02</leafValues></_>
        <_>
          <internalNodes>
            0 -1 820 -1.3382639735937119e-03</internalNodes>
          <leafValues>
            4.4547373056411743e-01 -5.0802070647478104e-02</leafValues></_>
        <_>
          <internalNodes>
            0 -1 636 -4.3800571002066135e-03</internalNodes>
          <leafValues>
            -5.8081477880477905e-01 4.1051644831895828e-02</leafValues></_>
        <_>
          <internalNodes>
            0 -1 2 1.4257504371926188e-03</internalNodes>
          <leafValues>
            -1.2259121984243393e-01 1.8631020188331604e-01</leafValues></_>
        <_>
          <internalNodes>
            0 -1 583 3.5347347147762775e-03</internalNodes>
          <leafValues>
            6.5434627234935760e-02 -3.4337612986564636e-01</leafValues></_></weakClassifiers></_>
    <!-- stage 8 -->
    <_>
      <maxWeakCount>53</maxWeakCount>
      <stageThreshold>-1.3093186616897583e+00</stageThreshold>
      <weakClassifiers>
        <_>
          <internalNodes>
            0 -1 850 1.0297983884811401e-02</internalNodes>
          <leafValues>
            -4.3443283438682556e-01 3.9215686917304993e-01</leafValues></_>
        <_>
          <internalNodes>
            0 -1 559 -1.7783276736736298e-02</internalNodes>
          <leafValues>
            2.8031006455421448e-01 -3.0747383832931519e-01</leafValues></_>
        <_>
          <internalNodes>
            0 -1 544 2.3545909207314253e-03</internalNodes>
          <leafValues>
            -1.6152551770210266e-01 4.0311795473098755e-01</leafValues></_>
        <_>
          <internalNodes>
            0 -1 543 1.1213773861527443e-02</internalNodes>
          <leafValues>
            -1.1186834424734116e-01 4.1940176486968994e-01</leafValues></_>
        <_>
          <internalNodes>
            0 -1 354 7.2599556297063828e-03</internalNodes>
          <leafValues>
            -6.2101472169160843e-02 4.6077972650527954e-01</leafValues></_>
        <_>
          <internalNodes>
            0 -1 120 1.9920915365219116e-02</internalNodes>
          <leafValues>
            7.5360603630542755e-02 -4.6237912774085999e-01</leafValues></_>
        <_>
          <internalNodes>
            0 -1 142 2.6585927233099937e-02</internalNodes>
          <leafValues>
            8.0613799393177032e-02 -4.0301790833473206e-01</leafValues></_>
        <_>
          <internalNodes>
            0 -1 151 2.6861857622861862e-03</internalNodes>
          <leafValues>
            -1.4054393768310547e-01 2.1009343862533569e-01</leafValues></_>
        <_>
          <internalNodes>
            0 -1 751 -1.2256265617907047e-03</internalNodes>
          <leafValues>
            -3.7199309468269348e-01 7.8604482114315033e-02</leafValues></_>
        <_>
          <internalNodes>
            0 -1 701 3.5289963707327843e-03</internalNodes>
          <leafValues>
            -3.6763977259397507e-02 5.2688562870025635e-01</leafValues></_>
        <_>
          <internalNodes>
            0 -1 52 7.7473127748817205e-04</internalNodes>
          <leafValues>
            1.0034140199422836e-01 -2.4194775521755219e-01</leafValues></_>
        <_>
          <internalNodes>
            0 -1 175 -2.9873326420783997e-02</internalNodes>
          <leafValues>
            -2.9903349280357361e-01 7.7786870300769806e-02</leafValues></_>
        <_>
          <internalNodes>
            0 -1 767 -9.0206824243068695e-03</internalNodes>
          <leafValues>
            4.4910687208175659e-01 -5.1106829196214676e-02</leafValues></_>
        <_>
          <internalNodes>
            0 -1 45 -4.3951380997896194e-02</internalNodes>
          <leafValues>
            3.5934880375862122e-01 -7.6167486608028412e-02</leafValues></_>
        <_>
          <internalNodes>
            0 -1 235 -6.1288955621421337e-03</internalNodes>
          <leafValues>
            -4.9462351202964783e-01 5.4965578019618988e-02</leafValues></_>
        <_>
          <internalNodes>
            0 -1 737 -4.0122382342815399e-03</internalNodes>
          <leafValues>
            2.8748011589050293e-01 -9.2019334435462952e-02</leafValues></_>
        <_>
          <internalNodes>
            0 -1 470 -1.0926309973001480e-02</internalNodes>
          <leafValues>
            2.2787481546401978e-01 -1.0915256291627884e-01</leafValues></_>
        <_>
          <internalNodes>
            0 -1 464 1.3041872531175613e-02</internalNodes>
          <leafValues>
            -7.0205613970756531e-02 4.3770843744277954e-01</leafValues></_>
        <_>
          <internalNodes>
            0 -1 757 8.8044826406985521e-04</internalNodes>
          <leafValues>
            -1.0610573738813400e-01 2.3484697937965393e-01</leafValues></_>
        <_>
          <internalNodes>
            0 -1 122 2.5712745264172554e-03</internalNodes>
          <leafValues>
            5.2220005542039871e-02 -4.5024397969245911e-01</leafValues></_>
        <_>
          <internalNodes>
            0 -1 868 -1.7388872802257538e-03</internalNodes>
          <leafValues>
            3.0125516653060913e-01 -7.7147692441940308e-02</leafValues></_>
        <_>
          <internalNodes>
            0 -1 714 -9.0385309886187315e-04</internalNodes>
          <leafValues>
            -3.9790678024291992e-01 6.3227988779544830e-02</leafValues></_>
        <_>
          <internalNodes>
            0 -1 452 3.4239864908158779e-03</internalNodes>
          <leafValues>
            -1.1126358807086945e-01 2.1710912883281708e-01</leafValues></_>
        <_>
          <internalNodes>
            0 -1 291 -9.2453490942716599e-03</internalNodes>
          <leafValues>
            -8.1872403621673584e-01 3.8835801184177399e-02</leafValues></_>
        <_>
          <internalNodes>
            0 -1 431 -1.3101825490593910e-02</internalNodes>
          <leafValues>
            3.7686949968338013e-01 -8.3371601998806000e-02</leafValues></_>
        <_>
          <internalNodes>
            0 -1 335 -4.3931148946285248e-02</internalNodes>
          <leafValues>
            -6.6770613193511963e-01 4.9016762524843216e-02</leafValues></_>
        <_>
          <internalNodes>
            0 -1 412 2.3036206141114235e-02</internalNodes>
          <leafValues>
            5.8228719979524612e-02 -4.1044619679450989e-01</leafValues></_>
        <_>
          <internalNodes>
            0 -1 280 -9.4431135803461075e-03</internalNodes>
          <leafValues>
            -2.7551892399787903e-01 7.9576887190341949e-02</leafValues></_>
        <_>
          <internalNodes>
            0 -1 214 -8.9538302272558212e-03</internalNodes>
          <leafValues>
            4.1152602434158325e-01 -5.6639060378074646e-02</leafValues></_>
        <_>
          <internalNodes>
            0 -1 716 -1.2592066079378128e-02</internalNodes>
          <leafValues>
            2.2275298833847046e-01 -1.0774019360542297e-01</leafValues></_>
        <_>
          <internalNodes>
            0 -1 585 -4.3331470340490341e-02</internalNodes>
          <leafValues>
            5.6285458803176880e-01 -4.2868394404649734e-02</leafValues></_>
        <_>
          <internalNodes>
            0 -1 600 -1.2460084632039070e-02</internalNodes>
          <leafValues>
            4.5162892341613770e-01 -4.6715710312128067e-02</leafValues></_>
        <_>
          <internalNodes>
            0 -1 730 -6.2671311199665070e-02</internalNodes>
          <leafValues>
            -7.5336813926696777e-01 3.4622453153133392e-02</leafValues></_>
        <_>
          <internalNodes>
            0 -1 785 -8.6143473163247108e-04</internalNodes>
          <leafValues>
            1.5975363552570343e-01 -1.4896239340305328e-01</leafValues></_>
        <_>
          <internalNodes>
            0 -1 543 -1.0060077533125877e-02</internalNodes>
          <leafValues>
            6.1227458715438843e-01 -3.7921652197837830e-02</leafValues></_>
        <_>
          <internalNodes>
            0 -1 706 -2.6248104870319366e-02</internalNodes>
          <leafValues>
            6.8679928779602051e-01 -2.5716984644532204e-02</leafValues></_>
        <_>
          <internalNodes>
            0 -1 824 1.2690869625657797e-03</internalNodes>
          <leafValues>
            8.1756189465522766e-02 -2.9281201958656311e-01</leafValues></_>
        <_>
          <internalNodes>
            0 -1 409 5.1240092143416405e-03</internalNodes>
          <leafValues>
            3.0198819935321808e-02 -6.7644673585891724e-01</leafValues></_>
        <_>
          <internalNodes>
            0 -1 708 7.8531019389629364e-03</internalNodes>
          <leafValues>
            -1.1683338880538940e-01 1.8547369539737701e-01</leafValues></_>
        <_>
          <internalNodes>
            0 -1 58 5.0216726958751678e-03</internalNodes>
          <leafValues>
            5.3588353097438812e-02 -4.1980618238449097e-01</leafValues></_>
        <_>
          <internalNodes>
            0 -1 764 2.3143936414271593e-03</internalNodes>
          <leafValues>
            -1.2249555438756943e-01 2.0498052239418030e-01</leafValues></_>
        <_>
          <internalNodes>
            0 -1 535 -4.3770233169198036e-03</internalNodes>
          <leafValues>
            -6.6785681247711182e-01 3.8069456815719604e-02</leafValues></_>
        <_>
          <internalNodes>
            0 -1 5 4.8654466867446899e-01</internalNodes>
          <leafValues>
            3.1261317431926727e-02 -5.8361053466796875e-01</leafValues></_>
        <_>
          <internalNodes>
            0 -1 463 -1.7774555832147598e-02</internalNodes>
          <leafValues>
            -8.0052763223648071e-01 2.3891689255833626e-02</leafValues></_>
        <_>
          <internalNodes>
            0 -1 733 4.1315983980894089e-02</internalNodes>
          <leafValues>
            -5.4268456995487213e-02 4.7037926316261292e-01</leafValues></_>
        <_>
          <internalNodes>
            0 -1 379 -8.1061180680990219e-03</internalNodes>
          <leafValues>
            -5.7550096511840820e-01 4.2907830327749252e-02</leafValues></_>
        <_>
          <internalNodes>
            0 -1 884 -4.3879725039005280e-02</internalNodes>
          <leafValues>
            -4.5981714129447937e-01 4.2959664016962051e-02</leafValues></_>
        <_>
          <internalNodes>
            0 -1 947 -1.5356794465333223e-03</internalNodes>
          <leafValues>
            -2.2055335342884064e-01 1.0011987388134003e-01</leafValues></_>
        <_>
          <internalNodes>
            0 -1 507 8.1084407866001129e-03</internalNodes>
          <leafValues>
            4.8633404076099396e-02 -4.6605733036994934e-01</leafValues></_>
        <_>
          <internalNodes>
            0 -1 516 2.4464270099997520e-03</internalNodes>
          <leafValues>
            -1.0134249925613403e-01 2.8964516520500183e-01</leafValues></_>
        <_>
          <internalNodes>
            0 -1 425 1.3737855479121208e-03</internalNodes>
          <leafValues>
            -7.1980379521846771e-02 3.4118971228599548e-01</leafValues></_>
        <_>
          <internalNodes>
            0 -1 35 9.2283990234136581e-03</internalNodes>
          <leafValues>
            -2.0588275790214539e-01 1.3097897171974182e-01</leafValues></_>
        <_>
          <internalNodes>
            0 -1 25 2.9001990333199501e-02</internalNodes>
          <leafValues>
            3.6781307309865952e-02 -5.8979117870330811e-01</leafValues></_></weakClassifiers></_>
    <!-- stage 9 -->
    <_>
      <maxWeakCount>65</maxWeakCount>
      <stageThreshold>-1.3160494565963745e+00</stageThreshold>
      <weakClassifiers>
        <_>
          <internalNodes>
            0 -1 433 -1.1078716255724430e-02</internalNodes>
          <leafValues>
            2.7759197354316711e-01 -4.5549282431602478e-01</leafValues></_>
        <_>
          <internalNodes>
            0 -1 518 -1.6805792227387428e-02</internalNodes>
          <leafValues>
            3.1968012452125549e-01 -2.7173608541488647e-01</leafValues></_>
        <_>
          <internalNodes>
            0 -1 762 2.6985958218574524e-02</internalNodes>
          <leafValues>
            -9.1202005743980408e-02 3.7601098418235779e-01</leafValues></_>
        <_>
          <internalNodes>
            0 -1 251 1.9526785239577293e-02</internalNodes>
          <leafValues>
            -8.2910284399986267e-02 4.9542245268821716e-01</leafValues></_>
        <_>
          <internalNodes>
            0 -1 508 1.0107064619660378e-02</internalNodes>
          <leafValues>
            9.7176350653171539e-02 -3.4393566846847534e-01</leafValues></_>
        <_>
          <internalNodes>
            0 -1 329 -2.1150132641196251e-02</internalNodes>
          <leafValues>
            -3.8053980469703674e-01 6.7487388849258423e-02</leafValues></_>
        <_>
          <internalNodes>
            0 -1 226 3.5896994173526764e-02</internalNodes>
          <leafValues>
            1.1167033761739731e-01 -3.0307045578956604e-01</leafValues></_>
        <_>
          <internalNodes>
            0 -1 531 -4.8260195180773735e-03</internalNodes>
          <leafValues>
            3.5336720943450928e-01 -1.0081686824560165e-01</leafValues></_>
        <_>
          <internalNodes>
            0 -1 85 8.6072034901008010e-04</internalNodes>
          <leafValues>
            1.1879090219736099e-01 -2.3959091305732727e-01</leafValues></_>
        <_>
          <internalNodes>
            0 -1 349 2.7422087732702494e-03</internalNodes>
          <leafValues>
            -9.4830214977264404e-02 3.0316224694252014e-01</leafValues></_>
        <_>
          <internalNodes>
            0 -1 837 3.0906175379641354e-04</internalNodes>
          <leafValues>
            -2.4129278957843781e-01 1.0469086468219757e-01</leafValues></_>
        <_>
          <internalNodes>
            0 -1 751 -8.8236527517437935e-04</internalNodes>
          <leafValues>
            -3.2688233256340027e-01 5.8037869632244110e-02</leafValues></_>
        <_>
          <internalNodes>
            0 -1 400 -1.4346786774694920e-02</internalNodes>
          <leafValues>
            -6.5326642990112305e-01 4.5912474393844604e-02</leafValues></_>
        <_>
          <internalNodes>
            0 -1 180 7.9584822058677673e-02</internalNodes>
          <leafValues>
            2.1696627140045166e-02 -8.2990872859954834e-01</leafValues></_>
        <_>
          <internalNodes>
            0 -1 913 -4.5230193063616753e-03</internalNodes>
          <leafValues>
            -4.6690794825553894e-01 4.3458420783281326e-02</leafValues></_>
        <_>
          <internalNodes>
            0 -1 752 -2.9740589670836926e-03</internalNodes>
          <leafValues>
            4.7159147262573242e-01 -4.7971948981285095e-02</leafValues></_>
        <_>
          <internalNodes>
            0 -1 503 -7.1067819371819496e-03</internalNodes>
          <leafValues>
            4.5056781172752380e-01 -4.4279612600803375e-02</leafValues></_>
        <_>
          <internalNodes>
            0 -1 851 1.5371623449027538e-03</internalNodes>
          <leafValues>
            -8.4310740232467651e-02 2.7288094162940979e-01</leafValues></_>
        <_>
          <internalNodes>
            0 -1 34 -7.1117058396339417e-03</internalNodes>
          <leafValues>
            -4.1813495755195618e-01 5.4466094821691513e-02</leafValues></_>
        <_>
          <internalNodes>
            0 -1 63 3.1522880308330059e-03</internalNodes>
          <leafValues>
            5.1959101110696793e-02 -3.8490706682205200e-01</leafValues></_>
        <_>
          <internalNodes>
            0 -1 89 8.1747042713686824e-04</internalNodes>
          <leafValues>
            4.3877907097339630e-02 -3.9368143677711487e-01</leafValues></_>
        <_>
          <internalNodes>
            0 -1 710 -1.9660778343677521e-03</internalNodes>
          <leafValues>
            -2.8494024276733398e-01 6.8463578820228577e-02</leafValues></_>
        <_>
          <internalNodes>
            0 -1 69 -2.1783789992332458e-01</internalNodes>
          <leafValues>
            -7.4383956193923950e-01 2.2540599107742310e-02</leafValues></_>
        <_>
          <internalNodes>
            0 -1 103 7.9797223210334778e-02</internalNodes>
          <leafValues>
            6.0571692883968353e-02 -3.1130373477935791e-01</leafValues></_>
        <_>
          <internalNodes>
            0 -1 163 2.2317338734865189e-03</internalNodes>
          <leafValues>
            8.3553992211818695e-02 -2.6577579975128174e-01</leafValues></_>
        <_>
          <internalNodes>
            0 -1 72 2.4745119735598564e-02</internalNodes>
          <leafValues>
            -9.4744674861431122e-02 2.2815747559070587e-01</leafValues></_>
        <_>
          <internalNodes>
            0 -1 477 3.0256200581789017e-02</internalNodes>
          <leafValues>
            -7.9543881118297577e-02 3.1560486555099487e-01</leafValues></_>
        <_>
          <internalNodes>
            0 -1 652 -1.2271592766046524e-01</internalNodes>
          <leafValues>
            -7.8163146972656250e-01 2.3887723684310913e-02</leafValues></_>
        <_>
          <internalNodes>
            0 -1 512 -2.2544924169778824e-02</internalNodes>
          <leafValues>
            1.9518244266510010e-01 -1.2164198607206345e-01</leafValues></_>
        <_>
          <internalNodes>
            0 -1 870 4.8983166925609112e-04</internalNodes>
          <leafValues>
            -8.9588515460491180e-02 2.5093406438827515e-01</leafValues></_>
        <_>
          <internalNodes>
            0 -1 675 -1.4714382123202085e-03</internalNodes>
          <leafValues>
            -3.2640326023101807e-01 6.7723639309406281e-02</leafValues></_>
        <_>
          <internalNodes>
            0 -1 302 5.4633552208542824e-03</internalNodes>
          <leafValues>
            -9.5787502825260162e-02 2.2261528670787811e-01</leafValues></_>
        <_>
          <internalNodes>
            0 -1 459 -4.4544212520122528e-02</internalNodes>
          <leafValues>
            3.8584619760513306e-01 -5.3739596158266068e-02</leafValues></_>
        <_>
          <internalNodes>
            0 -1 633 -4.5387023128569126e-03</internalNodes>
          <leafValues>
            -4.7179496288299561e-01 4.2320773005485535e-02</leafValues></_>
        <_>
          <internalNodes>
            0 -1 308 4.4191055931150913e-03</internalNodes>
          <leafValues>
            -1.1632584780454636e-01 1.7173972725868225e-01</leafValues></_>
        <_>
          <internalNodes>
            0 -1 346 2.7065927162766457e-02</internalNodes>
          <leafValues>
            3.0469393357634544e-02 -7.0082914829254150e-01</leafValues></_>
        <_>
          <internalNodes>
            0 -1 102 1.9991066306829453e-02</internalNodes>
          <leafValues>
            -1.1704149097204208e-01 1.8265582621097565e-01</leafValues></_>
        <_>
          <internalNodes>
            0 -1 601 -2.7682734653353691e-03</internalNodes>
          <leafValues>
            3.2164949178695679e-01 -6.6219858825206757e-02</leafValues></_>
        <_>
          <internalNodes>
            0 -1 203 4.6124709770083427e-03</internalNodes>
          <leafValues>
            1.1199852824211121e-01 -2.3705556988716125e-01</leafValues></_>
        <_>
          <internalNodes>
            0 -1 488 8.2538835704326630e-03</internalNodes>
          <leafValues>
            6.5527588129043579e-02 -3.6130380630493164e-01</leafValues></_>
        <_>
          <internalNodes>
            0 -1 367 1.3541691005229950e-03</internalNodes>
          <leafValues>
            -1.1872067302465439e-01 1.7402428388595581e-01</leafValues></_>
        <_>
          <internalNodes>
            0 -1 855 -3.4699735697358847e-03</internalNodes>
          <leafValues>
            -3.0483844876289368e-01 7.0580311119556427e-02</leafValues></_>
        <_>
          <internalNodes>
            0 -1 871 1.8146447837352753e-03</internalNodes>
          <leafValues>
            -5.7381987571716309e-02 4.1576361656188965e-01</leafValues></_>
        <_>
          <internalNodes>
            0 -1 492 -4.0907422080636024e-03</internalNodes>
          <leafValues>
            2.2194699943065643e-01 -9.4976179301738739e-02</leafValues></_>
        <_>
          <internalNodes>
            0 -1 199 -9.5321796834468842e-04</internalNodes>
          <leafValues>
            -2.2621183097362518e-01 8.5711032152175903e-02</leafValues></_>
        <_>
          <internalNodes>
            0 -1 413 5.9956905897706747e-04</internalNodes>
          <leafValues>
            -9.1819293797016144e-02 2.0637218654155731e-01</leafValues></_>
        <_>
          <internalNodes>
            0 -1 751 1.2649681884795427e-03</internalNodes>
          <leafValues>
            6.5477557480335236e-02 -3.2479032874107361e-01</leafValues></_>
        <_>
          <internalNodes>
            0 -1 827 -1.0726097971200943e-02</internalNodes>
          <leafValues>
            3.0275765061378479e-01 -7.0395842194557190e-02</leafValues></_>
        <_>
          <internalNodes>
            0 -1 697 6.3329180702567101e-03</internalNodes>
          <leafValues>
            -6.2306851148605347e-02 2.9801768064498901e-01</leafValues></_>
        <_>
          <internalNodes>
            0 -1 637 -3.0098117422312498e-03</internalNodes>
          <leafValues>
            1.6248072683811188e-01 -1.3143603503704071e-01</leafValues></_>
        <_>
          <internalNodes>
            0 -1 372 -1.7774533480405807e-02</internalNodes>
          <leafValues>
            2.3131223022937775e-01 -8.7901800870895386e-02</leafValues></_>
        <_>
          <internalNodes>
            0 -1 781 -1.1554480297490954e-03</internalNodes>
          <leafValues>
            -3.2076150178909302e-01 6.5027646720409393e-02</leafValues></_>
        <_>
          <internalNodes>
            0 -1 594 -1.1999074369668961e-02</internalNodes>
          <leafValues>
            1.3391253352165222e-01 -1.4924597740173340e-01</leafValues></_>
        <_>
          <internalNodes>
            0 -1 683 -6.0190539807081223e-03</internalNodes>
          <leafValues>
            4.6427479386329651e-01 -4.2094435542821884e-02</leafValues></_>
        <_>
          <internalNodes>
            0 -1 772 1.4737719902768731e-04</internalNodes>
          <leafValues>
            -1.9910439848899841e-01 9.8480753600597382e-02</leafValues></_>
        <_>
          <internalNodes>
            0 -1 360 2.0251711830496788e-03</internalNodes>
          <leafValues>
            7.4131630361080170e-02 -2.6757213473320007e-01</leafValues></_>
        <_>
          <internalNodes>
            0 -1 326 4.0076384320855141e-03</internalNodes>
          <leafValues>
            4.7023348510265350e-02 -4.0153896808624268e-01</leafValues></_>
        <_>
          <internalNodes>
            0 -1 434 -1.5101813478395343e-03</internalNodes>
          <leafValues>
            2.2393690049648285e-01 -9.2168867588043213e-02</leafValues></_>
        <_>
          <internalNodes>
            0 -1 428 5.7820007205009460e-03</internalNodes>
          <leafValues>
            3.2865297049283981e-02 -6.0143578052520752e-01</leafValues></_>
        <_>
          <internalNodes>
            0 -1 272 5.4958909749984741e-03</internalNodes>
          <leafValues>
            -8.3552747964859009e-02 2.4205800890922546e-01</leafValues></_>
        <_>
          <internalNodes>
            0 -1 654 -1.6808595973998308e-03</internalNodes>
          <leafValues>
            1.6927310824394226e-01 -1.7961373925209045e-01</leafValues></_>
        <_>
          <internalNodes>
            0 -1 589 -1.0598496533930302e-02</internalNodes>
          <leafValues>
            2.5775179266929626e-01 -7.7601395547389984e-02</leafValues></_>
        <_>
          <internalNodes>
            0 -1 263 7.6241344213485718e-02</internalNodes>
          <leafValues>
            4.1811451315879822e-02 -5.4393458366394043e-01</leafValues></_>
        <_>
          <internalNodes>
            0 -1 107 -5.1144571043550968e-03</internalNodes>
          <leafValues>
            -4.6090745925903320e-01 3.7984661757946014e-02</leafValues></_>
        <_>
          <internalNodes>
            0 -1 801 -5.7362414896488190e-02</internalNodes>
          <leafValues>
            -6.9080102443695068e-01 2.3250954225659370e-02</leafValues></_></weakClassifiers></_>
    <!-- stage 10 -->
    <_>
      <maxWeakCount>62</maxWeakCount>
      <stageThreshold>-1.1887556314468384e+00</stageThreshold>
      <weakClassifiers>
        <_>
          <internalNodes>
            0 -1 501 -1.0379450395703316e-02</internalNodes>
          <leafValues>
            4.0476191043853760e-01 -3.9739662408828735e-01</leafValues></_>
        <_>
          <internalNodes>
            0 -1 755 3.2347083091735840e-02</internalNodes>
          <leafValues>
            -1.4091309905052185e-01 5.1844751834869385e-01</leafValues></_>
        <_>
          <internalNodes>
            0 -1 285 6.6006937995553017e-03</internalNodes>
          <leafValues>
            -1.4584238827228546e-01 2.7501705288887024e-01</leafValues></_>
        <_>
          <internalNodes>
            0 -1 67 2.9565818840637803e-04</internalNodes>
          <leafValues>
            1.0588701069355011e-01 -2.6091143488883972e-01</leafValues></_>
        <_>
          <internalNodes>
            0 -1 245 4.5927472412586212e-02</internalNodes>
          <leafValues>
            -9.8640404641628265e-02 2.5279098749160767e-01</leafValues></_>
        <_>
          <internalNodes>
            0 -1 689 -1.3274757657200098e-03</internalNodes>
          <leafValues>
            -2.4547044932842255e-01 8.6475178599357605e-02</leafValues></_>
        <_>
          <internalNodes>
            0 -1 770 2.1864082664251328e-03</internalNodes>
          <leafValues>
            -1.6861449182033539e-01 1.5360115468502045e-01</leafValues></_>
        <_>
          <internalNodes>
            0 -1 399 2.5082051753997803e-02</internalNodes>
          <leafValues>
            1.0932894051074982e-01 -2.9957708716392517e-01</leafValues></_>
        <_>
          <internalNodes>
            0 -1 910 1.0378777515143156e-03</internalNodes>
          <leafValues>
            7.7088557183742523e-02 -2.6687273383140564e-01</leafValues></_>
        <_>
          <internalNodes>
            0 -1 40 1.1508287861943245e-02</internalNodes>
          <leafValues>
            3.9095040410757065e-02 -6.4983612298965454e-01</leafValues></_>
        <_>
          <internalNodes>
            0 -1 753 -1.1999949347227812e-03</internalNodes>
          <leafValues>
            1.5040054917335510e-01 -1.3730596005916595e-01</leafValues></_>
        <_>
          <internalNodes>
            0 -1 602 6.3423942774534225e-03</internalNodes>
          <leafValues>
            4.7897424548864365e-02 -4.8962068557739258e-01</leafValues></_>
        <_>
          <internalNodes>
            0 -1 527 -1.9903325010091066e-03</internalNodes>
          <leafValues>
            1.9796986877918243e-01 -1.1392001807689667e-01</leafValues></_>
        <_>
          <internalNodes>
            0 -1 487 2.8378423303365707e-03</internalNodes>
          <leafValues>
            7.3828741908073425e-02 -4.1323596239089966e-01</leafValues></_>
        <_>
          <internalNodes>
            0 -1 788 -6.0857073403894901e-03</internalNodes>
          <leafValues>
            2.7325010299682617e-01 -9.5233872532844543e-02</leafValues></_>
        <_>
          <internalNodes>
            0 -1 311 -2.5313254445791245e-02</internalNodes>
          <leafValues>
            2.9480436444282532e-01 -7.1914672851562500e-02</leafValues></_>
        <_>
          <internalNodes>
            0 -1 357 -2.3332271724939346e-02</internalNodes>
          <leafValues>
            -6.2023919820785522e-01 3.0084496363997459e-02</leafValues></_>
        <_>
          <internalNodes>
            0 -1 491 6.4137643203139305e-03</internalNodes>
          <leafValues>
            -4.2319249361753464e-02 5.4690539836883545e-01</leafValues></_>
        <_>
          <internalNodes>
            0 -1 436 2.9013203456997871e-03</internalNodes>
          <leafValues>
            -1.1256287992000580e-01 1.7775046825408936e-01</leafValues></_>
        <_>
          <internalNodes>
            0 -1 117 -1.2007389217615128e-02</internalNodes>
          <leafValues>
            -7.5939726829528809e-01 2.3763548582792282e-02</leafValues></_>
        <_>
          <internalNodes>
            0 -1 83 4.9471177160739899e-02</internalNodes>
          <leafValues>
            2.7259666472673416e-02 -6.8957078456878662e-01</leafValues></_>
        <_>
          <internalNodes>
            0 -1 87 -4.0296674706041813e-03</internalNodes>
          <leafValues>
            -2.7004662156105042e-01 7.0568859577178955e-02</leafValues></_>
        <_>
          <internalNodes>
            0 -1 327 -8.3361817523837090e-03</internalNodes>
          <leafValues>
            -3.4482911229133606e-01 5.0028674304485321e-02</leafValues></_>
        <_>
          <internalNodes>
            0 -1 503 -5.5839628912508488e-03</internalNodes>
          <leafValues>
            3.7751325964927673e-01 -5.7236552238464355e-02</leafValues></_>
        <_>
          <internalNodes>
            0 -1 870 -5.0698621198534966e-03</internalNodes>
          <leafValues>
            6.7218846082687378e-01 -3.0715744942426682e-02</leafValues></_>
        <_>
          <internalNodes>
            0 -1 129 2.9013808816671371e-02</internalNodes>
          <leafValues>
            -4.7683563083410263e-02 3.9409112930297852e-01</leafValues></_>
        <_>
          <internalNodes>
            0 -1 920 -9.9942390806972980e-04</internalNodes>
          <leafValues>
            -2.6041114330291748e-01 7.4552059173583984e-02</leafValues></_>
        <_>
          <internalNodes>
            0 -1 688 1.3353588059544563e-02</internalNodes>
          <leafValues>
            -5.8347955346107483e-02 3.2845363020896912e-01</leafValues></_>
        <_>
          <internalNodes>
            0 -1 381 -2.7419170364737511e-02</internalNodes>
          <leafValues>
            4.6347415447235107e-01 -4.4804651290178299e-02</leafValues></_>
        <_>
          <internalNodes>
            0 -1 268 -7.9128583893179893e-03</internalNodes>
          <leafValues>
            -8.5776430368423462e-01 2.5316383689641953e-02</leafValues></_>
        <_>
          <internalNodes>
            0 -1 33 6.9566234946250916e-02</internalNodes>
          <leafValues>
            -4.5191586017608643e-02 5.0585526227951050e-01</leafValues></_>
        <_>
          <internalNodes>
            0 -1 644 -9.1291405260562897e-02</internalNodes>
          <leafValues>
            -7.6315945386886597e-01 2.7809210121631622e-02</leafValues></_>
        <_>
          <internalNodes>
            0 -1 890 -1.7541775014251471e-03</internalNodes>
          <leafValues>
            1.4369308948516846e-01 -1.2344206869602203e-01</leafValues></_>
        <_>
          <internalNodes>
            0 -1 299 8.5770428180694580e-02</internalNodes>
          <leafValues>
            -8.9123897254467010e-02 2.0489990711212158e-01</leafValues></_>
        <_>
          <internalNodes>
            0 -1 332 -2.6048906147480011e-02</internalNodes>
          <leafValues>
            -4.6297293901443481e-01 3.8316983729600906e-02</leafValues></_>
        <_>
          <internalNodes>
            0 -1 509 5.9152217581868172e-03</internalNodes>
          <leafValues>
            -8.5183747112751007e-02 2.7186626195907593e-01</leafValues></_>
        <_>
          <internalNodes>
            0 -1 336 -7.9368120059370995e-03</internalNodes>
          <leafValues>
            2.7677267789840698e-01 -7.7908463776111603e-02</leafValues></_>
        <_>
          <internalNodes>
            0 -1 108 2.3360233753919601e-02</internalNodes>
          <leafValues>
            4.0524162352085114e-02 -5.0718355178833008e-01</leafValues></_>
        <_>
          <internalNodes>
            0 -1 378 1.1524821165949106e-03</internalNodes>
          <leafValues>
            4.2991422116756439e-02 -4.0409412980079651e-01</leafValues></_>
        <_>
          <internalNodes>
            0 -1 86 -1.7924731364473701e-03</internalNodes>
          <leafValues>
            -3.3437538146972656e-01 4.8589915037155151e-02</leafValues></_>
        <_>
          <internalNodes>
            0 -1 185 1.1125572025775909e-01</internalNodes>
          <leafValues>
            2.2661490365862846e-02 -6.9838792085647583e-01</leafValues></_>
        <_>
          <internalNodes>
            0 -1 206 -2.5114621967077255e-02</internalNodes>
          <leafValues>
            2.8601846098899841e-01 -6.6305577754974365e-02</leafValues></_>
        <_>
          <internalNodes>
            0 -1 906 5.2028177306056023e-03</internalNodes>
          <leafValues>
            3.1385391950607300e-02 -6.7345404624938965e-01</leafValues></_>
        <_>
          <internalNodes>
            0 -1 818 -4.9688862636685371e-03</internalNodes>
          <leafValues>
            4.0430530905723572e-01 -4.8459775745868683e-02</leafValues></_>
        <_>
          <internalNodes>
            0 -1 453 -1.0452172718942165e-03</internalNodes>
          <leafValues>
            -2.7061960101127625e-01 6.8269297480583191e-02</leafValues></_>
        <_>
          <internalNodes>
            0 -1 643 -1.3122865930199623e-02</internalNodes>
          <leafValues>
            2.0712971687316895e-01 -9.4959460198879242e-02</leafValues></_>
        <_>
          <internalNodes>
            0 -1 830 -3.8403946906328201e-02</internalNodes>
          <leafValues>
            -7.0558625459671021e-01 2.4326065555214882e-02</leafValues></_>
        <_>
          <internalNodes>
            0 -1 499 -1.1255136132240295e-01</internalNodes>
          <leafValues>
            -6.8127375841140747e-01 2.3066062480211258e-02</leafValues></_>
        <_>
          <internalNodes>
            0 -1 731 -1.4232523739337921e-02</internalNodes>
          <leafValues>
            1.3623520731925964e-01 -1.3336145877838135e-01</leafValues></_>
        <_>
          <internalNodes>
            0 -1 568 -1.6044288873672485e-02</internalNodes>
          <leafValues>
            3.9134326577186584e-01 -4.5937106013298035e-02</leafValues></_>
        <_>
          <internalNodes>
            0 -1 162 -3.4832514356821775e-03</internalNodes>
          <leafValues>
            -2.5126823782920837e-01 7.1297369897365570e-02</leafValues></_>
        <_>
          <internalNodes>
            0 -1 159 -2.2987641859799623e-03</internalNodes>
          <leafValues>
            -2.0322990417480469e-01 8.6424425244331360e-02</leafValues></_>
        <_>
          <internalNodes>
            0 -1 600 -1.2750489637255669e-02</internalNodes>
          <leafValues>
            4.1893857717514038e-01 -4.6826630830764771e-02</leafValues></_>
        <_>
          <internalNodes>
            0 -1 567 -1.2018675915896893e-03</internalNodes>
          <leafValues>
            -2.1574918925762177e-01 7.9033344984054565e-02</leafValues></_>
        <_>
          <internalNodes>
            0 -1 375 -2.0782803185284138e-03</internalNodes>
          <leafValues>
            -2.5659832358360291e-01 7.2148784995079041e-02</leafValues></_>
        <_>
          <internalNodes>
            0 -1 608 4.2732065776363015e-04</internalNodes>
          <leafValues>
            -9.6901632845401764e-02 2.0695434510707855e-01</leafValues></_>
        <_>
          <internalNodes>
            0 -1 403 -4.3696216307580471e-03</internalNodes>
          <leafValues>
            -5.7390141487121582e-01 3.2388668507337570e-02</leafValues></_>
        <_>
          <internalNodes>
            0 -1 395 -1.8012335523962975e-02</internalNodes>
          <leafValues>
            5.4096400737762451e-01 -4.5420341193675995e-02</leafValues></_>
        <_>
          <internalNodes>
            0 -1 656 2.6760078035295010e-03</internalNodes>
          <leafValues>
            6.4995244145393372e-02 -2.8823536634445190e-01</leafValues></_>
        <_>
          <internalNodes>
            0 -1 456 -7.1179531514644623e-02</internalNodes>
          <leafValues>
            -3.8329568505287170e-01 4.2992446571588516e-02</leafValues></_>
        <_>
          <internalNodes>
            0 -1 619 -4.2061381042003632e-02</internalNodes>
          <leafValues>
            3.7813112139701843e-01 -5.3763285279273987e-02</leafValues></_>
        <_>
          <internalNodes>
            0 -1 669 1.0434791445732117e-02</internalNodes>
          <leafValues>
            5.8911409229040146e-02 -3.2039856910705566e-01</leafValues></_></weakClassifiers></_>
    <!-- stage 11 -->
    <_>
      <maxWeakCount>61</maxWeakCount>
      <stageThreshold>-1.1872961521148682e+00</stageThreshold>
      <weakClassifiers>
        <_>
          <internalNodes>
            0 -1 807 -3.8463952951133251e-03</internalNodes>
          <leafValues>
            1.7350746691226959e-01 -4.6334585547447205e-01</leafValues></_>
        <_>
          <internalNodes>
            0 -1 430 -7.7216355130076408e-03</internalNodes>
          <leafValues>
            3.1485220789909363e-01 -2.0221346616744995e-01</leafValues></_>
        <_>
          <internalNodes>
            0 -1 563 -2.1692134439945221e-02</internalNodes>
          <leafValues>
            2.2772057354450226e-01 -1.6377821564674377e-01</leafValues></_>
        <_>
          <internalNodes>
            0 -1 397 1.4783832244575024e-02</internalNodes>
          <leafValues>
            6.1686363071203232e-02 -4.2340576648712158e-01</leafValues></_>
        <_>
          <internalNodes>
            0 -1 621 -7.5106900185346603e-03</internalNodes>
          <leafValues>
            5.1141262054443359e-01 -2.8807839378714561e-02</leafValues></_>
        <_>
          <internalNodes>
            0 -1 675 -5.1950401393696666e-04</internalNodes>
          <leafValues>
            -2.3773360252380371e-01 9.2646524310112000e-02</leafValues></_>
        <_>
          <internalNodes>
            0 -1 219 6.6410223953425884e-03</internalNodes>
          <leafValues>
            6.3067294657230377e-02 -5.1180469989776611e-01</leafValues></_>
        <_>
          <internalNodes>
            0 -1 307 9.2358015477657318e-02</internalNodes>
          <leafValues>
            -6.5862059593200684e-02 4.5817098021507263e-01</leafValues></_>
        <_>
          <internalNodes>
            0 -1 816 7.9715554602444172e-04</internalNodes>
          <leafValues>
            -9.5721676945686340e-02 2.4208353459835052e-01</leafValues></_>
        <_>
          <internalNodes>
            0 -1 537 -7.4220625683665276e-03</internalNodes>
          <leafValues>
            3.4633934497833252e-01 -5.9854652732610703e-02</leafValues></_>
        <_>
          <internalNodes>
            0 -1 479 6.3169106841087341e-02</internalNodes>
          <leafValues>
            -5.2680227905511856e-02 5.3589272499084473e-01</leafValues></_>
        <_>
          <internalNodes>
            0 -1 42 9.3843135982751846e-04</internalNodes>
          <leafValues>
            7.6675936579704285e-02 -3.1012955307960510e-01</leafValues></_>
        <_>
          <internalNodes>
            0 -1 91 -9.4678970053792000e-03</internalNodes>
          <leafValues>
            -7.0090663433074951e-01 4.6451672911643982e-02</leafValues></_>
        <_>
          <internalNodes>
            0 -1 429 -6.1688879504799843e-03</internalNodes>
          <leafValues>
            -2.8125655651092529e-01 7.0648878812789917e-02</leafValues></_>
        <_>
          <internalNodes>
            0 -1 513 1.5132314292714000e-03</internalNodes>
          <leafValues>
            -4.2103327810764313e-02 4.9061754345893860e-01</leafValues></_>
        <_>
          <internalNodes>
            0 -1 819 -1.3200321700423956e-04</internalNodes>
          <leafValues>
            1.6660901904106140e-01 -1.3511961698532104e-01</leafValues></_>
        <_>
          <internalNodes>
            0 -1 892 -3.0488813295960426e-02</internalNodes>
          <leafValues>
            2.6319488883018494e-01 -7.5980015099048615e-02</leafValues></_>
        <_>
          <internalNodes>
            0 -1 344 -2.1868599578738213e-02</internalNodes>
          <leafValues>
            4.3288812041282654e-01 -4.7422707080841064e-02</leafValues></_>
        <_>
          <internalNodes>
            0 -1 466 -2.9277354478836060e-02</internalNodes>
          <leafValues>
            2.3988361656665802e-01 -1.0277100652456284e-01</leafValues></_>
        <_>
          <internalNodes>
            0 -1 114 -1.1918200552463531e-01</internalNodes>
          <leafValues>
            -6.3605231046676636e-01 3.5521335899829865e-02</leafValues></_>
        <_>
          <internalNodes>
            0 -1 97 5.0636185333132744e-03</internalNodes>
          <leafValues>
            3.9194732904434204e-02 -4.5259478688240051e-01</leafValues></_>
        <_>
          <internalNodes>
            0 -1 387 -1.3440099358558655e-01</internalNodes>
          <leafValues>
            -5.3899616003036499e-01 3.5527508705854416e-02</leafValues></_>
        <_>
          <internalNodes>
            0 -1 693 -1.0135769844055176e-02</internalNodes>
          <leafValues>
            1.5227489173412323e-01 -1.4495846629142761e-01</leafValues></_>
        <_>
          <internalNodes>
            0 -1 125 -4.5273505151271820e-02</internalNodes>
          <leafValues>
            4.3296805024147034e-01 -5.4649483412504196e-02</leafValues></_>
        <_>
          <internalNodes>
            0 -1 199 1.4342414215207100e-03</internalNodes>
          <leafValues>
            9.0087085962295532e-02 -2.5410202145576477e-01</leafValues></_>
        <_>
          <internalNodes>
            0 -1 773 1.2622335925698280e-03</internalNodes>
          <leafValues>
            -1.2101656198501587e-01 1.8286307156085968e-01</leafValues></_>
        <_>
          <internalNodes>
            0 -1 635 1.7681766301393509e-02</internalNodes>
          <leafValues>
            -1.3063615560531616e-01 1.8120303750038147e-01</leafValues></_>
        <_>
          <internalNodes>
            0 -1 137 1.0425926744937897e-01</internalNodes>
          <leafValues>
            6.1194129288196564e-02 -3.5390090942382812e-01</leafValues></_>
        <_>
          <internalNodes>
            0 -1 490 1.2019567191600800e-02</internalNodes>
          <leafValues>
            -7.2813138365745544e-02 2.8232157230377197e-01</leafValues></_>
        <_>
          <internalNodes>
            0 -1 389 1.6861259937286377e-02</internalNodes>
          <leafValues>
            6.1630144715309143e-02 -4.0291276574134827e-01</leafValues></_>
        <_>
          <internalNodes>
            0 -1 201 2.5189691223204136e-03</internalNodes>
          <leafValues>
            4.7220204025506973e-02 -4.0917450189590454e-01</leafValues></_>
        <_>
          <internalNodes>
            0 -1 946 -3.1116460449993610e-03</internalNodes>
          <leafValues>
            -2.0470538735389709e-01 9.6194416284561157e-02</leafValues></_>
        <_>
          <internalNodes>
            0 -1 535 -4.5600244775414467e-03</internalNodes>
          <leafValues>
            -6.0613441467285156e-01 2.6615036651492119e-02</leafValues></_>
        <_>
          <internalNodes>
            0 -1 685 -1.7096595838665962e-03</internalNodes>
          <leafValues>
