<?xml version="1.0"?>
<opencv_storage>
<cascade>
  <stageType>BOOST</stageType>
  <featureType>HAAR</featureType>
  <height>24</height>
  <width>24</width>
  <stageParams>
    <boostType>GAB</boostType>
    <minHitRate>9.9500000476837158e-01</minHitRate>
    <maxFalseAlarm>5.0000000000000000e-01</maxFalseAlarm>
    <weightTrimRate>9.4999999999999996e-01</weightTrimRate>
    <maxDepth>1</maxDepth>
    <maxWeakCount>100</maxWeakCount></stageParams>
  <featureParams>
    <maxCatCount>0</maxCatCount>
    <featSize>1</featSize>
    <mode>BASIC</mode></featureParams>
  <stageNum>20</stageNum>
  <stages>
    <!-- stage 0 -->
    <_>
      <maxWeakCount>10</maxWeakCount>
      <stageThreshold>-1.8777644634246826e+00</stageThreshold>
      <weakClassifiers>
        <_>
          <internalNodes>
            0 -1 392 5.5735679343342781e-03</internalNodes>
          <leafValues>
            -7.2189581394195557e-01 6.7602246999740601e-01</leafValues></_>
        <_>
          <internalNodes>
            0 -1 461 -6.7476425319910049e-03</internalNodes>
          <leafValues>
            6.3036412000656128e-01 -5.3811877965927124e-01</leafValues></_>
        <_>
          <internalNodes>
            0 -1 761 -1.1229694355279207e-03</internalNodes>
          <leafValues>
            7.2219634056091309e-01 -3.0062445998191833e-01</leafValues></_>
        <_>
          <internalNodes>
            0 -1 613 -6.8077156320214272e-03</internalNodes>
          <leafValues>
            6.9052672386169434e-01 -2.0635645091533661e-01</leafValues></_>
        <_>
          <internalNodes>
            0 -1 455 -5.5699481163173914e-04</internalNodes>
          <leafValues>
            5.0018888711929321e-01 -2.0535974204540253e-01</leafValues></_>
        <_>
          <internalNodes>
            0 -1 628 1.0998407378792763e-03</internalNodes>
          <leafValues>
            -2.2669951617717743e-01 4.1537562012672424e-01</leafValues></_>
        <_>
          <internalNodes>
            0 -1 683 -7.2169920895248652e-04</internalNodes>
          <leafValues>
            4.5794251561164856e-01 -1.8063744902610779e-01</leafValues></_>
        <_>
          <internalNodes>
            0 -1 239 -5.8426745235919952e-03</internalNodes>
          <leafValues>
            3.0701404809951782e-01 -2.9762357473373413e-01</leafValues></_>
        <_>
          <internalNodes>
            0 -1 310 -7.4769593775272369e-03</internalNodes>
          <leafValues>
            5.5672085285186768e-01 -1.3030889630317688e-01</leafValues></_>
        <_>
          <internalNodes>
            0 -1 223 1.6966290771961212e-02</internalNodes>
          <leafValues>
            -2.7817147970199585e-01 3.2522258162498474e-01</leafValues></_></weakClassifiers></_>
    <!-- stage 1 -->
    <_>
      <maxWeakCount>13</maxWeakCount>
      <stageThreshold>-1.8253126144409180e+00</stageThreshold>
      <weakClassifiers>
        <_>
          <internalNodes>
            0 -1 434 -4.9449708312749863e-03</internalNodes>
          <leafValues>
            5.8319872617721558e-01 -6.7213112115859985e-01</leafValues></_>
        <_>
          <internalNodes>
            0 -1 680 2.7611358091235161e-03</internalNodes>
          <leafValues>
            -4.7226172685623169e-01 5.7441371679306030e-01</leafValues></_>
        <_>
          <internalNodes>
            0 -1 481 -2.5519464164972305e-02</internalNodes>
          <leafValues>
            6.1312013864517212e-01 -2.7096459269523621e-01</leafValues></_>
        <_>
          <internalNodes>
            0 -1 324 6.6230008378624916e-03</internalNodes>
          <leafValues>
            -3.0276283621788025e-01 4.8423334956169128e-01</leafValues></_>
        <_>
          <internalNodes>
            0 -1 727 1.0013035498559475e-03</internalNodes>
          <leafValues>
            -1.8784575164318085e-01 6.0702770948410034e-01</leafValues></_>
        <_>
          <internalNodes>
            0 -1 755 5.6915666209533811e-04</internalNodes>
          <leafValues>
            -2.2360986471176147e-01 3.6607226729393005e-01</leafValues></_>
        <_>
          <internalNodes>
            0 -1 316 6.0600172728300095e-03</internalNodes>
          <leafValues>
            -1.4451165497303009e-01 4.9910321831703186e-01</leafValues></_>
        <_>
          <internalNodes>
            0 -1 224 2.6762572815641761e-04</internalNodes>
          <leafValues>
            -1.7113345861434937e-01 3.9906832575798035e-01</leafValues></_>
        <_>
          <internalNodes>
            0 -1 394 2.8603509999811649e-03</internalNodes>
          <leafValues>
            1.8453378975391388e-01 -5.0744724273681641e-01</leafValues></_>
        <_>
          <internalNodes>
            0 -1 360 1.9432574510574341e-02</internalNodes>
          <leafValues>
            6.4700238406658173e-02 -7.0074206590652466e-01</leafValues></_>
        <_>
          <internalNodes>
            0 -1 136 -3.2945938408374786e-02</internalNodes>
          <leafValues>
            -6.7199122905731201e-01 1.0584906488656998e-01</leafValues></_>
        <_>
          <internalNodes>
            0 -1 455 -8.1264466280117631e-04</internalNodes>
          <leafValues>
            4.6243557333946228e-01 -1.7709276080131531e-01</leafValues></_>
        <_>
          <internalNodes>
            0 -1 809 3.1686373986303806e-03</internalNodes>
          <leafValues>
            -1.5616339445114136e-01 4.2557451128959656e-01</leafValues></_></weakClassifiers></_>
    <!-- stage 2 -->
    <_>
      <maxWeakCount>22</maxWeakCount>
      <stageThreshold>-1.7794882059097290e+00</stageThreshold>
      <weakClassifiers>
        <_>
          <internalNodes>
            0 -1 756 -6.7882477305829525e-03</internalNodes>
          <leafValues>
            5.5175518989562988e-01 -5.9985125064849854e-01</leafValues></_>
        <_>
          <internalNodes>
            0 -1 543 -4.0969559922814369e-03</internalNodes>
          <leafValues>
            5.8386564254760742e-01 -3.6364665627479553e-01</leafValues></_>
        <_>
          <internalNodes>
            0 -1 371 -2.9701238963752985e-03</internalNodes>
          <leafValues>
            5.6533432006835938e-01 -2.6006934046745300e-01</leafValues></_>
        <_>
          <internalNodes>
            0 -1 629 -8.7431175634264946e-03</internalNodes>
          <leafValues>
            6.0434460639953613e-01 -1.7902129888534546e-01</leafValues></_>
        <_>
          <internalNodes>
            0 -1 144 3.5291430540382862e-03</internalNodes>
          <leafValues>
            -2.8688669204711914e-01 2.5951066613197327e-01</leafValues></_>
        <_>
          <internalNodes>
            0 -1 247 -1.8914746120572090e-02</internalNodes>
          <leafValues>
            -5.7511448860168457e-01 1.2146572768688202e-01</leafValues></_>
        <_>
          <internalNodes>
            0 -1 385 8.4699168801307678e-03</internalNodes>
          <leafValues>
            1.1801400035619736e-01 -5.5180698633193970e-01</leafValues></_>
        <_>
          <internalNodes>
            0 -1 727 5.1493587670847774e-04</internalNodes>
          <leafValues>
            -2.2061534225940704e-01 3.2576200366020203e-01</leafValues></_>
        <_>
          <internalNodes>
            0 -1 350 -3.0869774520397186e-02</internalNodes>
          <leafValues>
            -6.9101768732070923e-01 1.1092212051153183e-01</leafValues></_>
        <_>
          <internalNodes>
            0 -1 381 -1.1567254550755024e-03</internalNodes>
          <leafValues>
            4.9724528193473816e-01 -1.3368444144725800e-01</leafValues></_>
        <_>
          <internalNodes>
            0 -1 808 6.3615082763135433e-04</internalNodes>
          <leafValues>
            -1.1487568169832230e-01 4.5768654346466064e-01</leafValues></_>
        <_>
          <internalNodes>
            0 -1 532 -6.7860558629035950e-03</internalNodes>
          <leafValues>
            3.5904014110565186e-01 -1.3961985707283020e-01</leafValues></_>
        <_>
          <internalNodes>
            0 -1 717 7.7421183232218027e-04</internalNodes>
          <leafValues>
            -2.3086161911487579e-01 2.1836091578006744e-01</leafValues></_>
        <_>
          <internalNodes>
            0 -1 641 -3.3137433230876923e-02</internalNodes>
          <leafValues>
            5.1005673408508301e-01 -9.6394717693328857e-02</leafValues></_>
        <_>
          <internalNodes>
            0 -1 143 -3.6126845516264439e-03</internalNodes>
          <leafValues>
            -3.6534884572029114e-01 1.2736266851425171e-01</leafValues></_>
        <_>
          <internalNodes>
            0 -1 869 2.8425981290638447e-03</internalNodes>
          <leafValues>
            1.1335507035255432e-01 -4.0697082877159119e-01</leafValues></_>
        <_>
          <internalNodes>
            0 -1 460 9.6267256885766983e-03</internalNodes>
          <leafValues>
            -1.3781368732452393e-01 3.2238036394119263e-01</leafValues></_>
        <_>
          <internalNodes>
            0 -1 849 -1.7799683846533298e-03</internalNodes>
          <leafValues>
            -4.0421241521835327e-01 1.0472533851861954e-01</leafValues></_>
        <_>
          <internalNodes>
            0 -1 597 -8.5986619815230370e-03</internalNodes>
          <leafValues>
            4.6626234054565430e-01 -9.4385981559753418e-02</leafValues></_>
        <_>
          <internalNodes>
            0 -1 156 5.7083339197561145e-04</internalNodes>
          <leafValues>
            -1.4852745831012726e-01 2.7594572305679321e-01</leafValues></_>
        <_>
          <internalNodes>
            0 -1 491 -3.9811853319406509e-02</internalNodes>
          <leafValues>
            4.9187132716178894e-01 -8.0002635717391968e-02</leafValues></_>
        <_>
          <internalNodes>
            0 -1 246 -1.6460221260786057e-02</internalNodes>
          <leafValues>
            -7.6510185003280640e-01 6.4526125788688660e-02</leafValues></_></weakClassifiers></_>
    <!-- stage 3 -->
    <_>
      <maxWeakCount>25</maxWeakCount>
      <stageThreshold>-1.5575587749481201e+00</stageThreshold>
      <weakClassifiers>
        <_>
          <internalNodes>
            0 -1 599 -4.2713666334748268e-03</internalNodes>
          <leafValues>
            3.1241831183433533e-01 -6.5110135078430176e-01</leafValues></_>
        <_>
          <internalNodes>
            0 -1 456 3.0165906064212322e-03</internalNodes>
          <leafValues>
            -4.5126408338546753e-01 3.6147388815879822e-01</leafValues></_>
        <_>
          <internalNodes>
            0 -1 488 -2.6163086295127869e-02</internalNodes>
          <leafValues>
            5.4524451494216919e-01 -2.7023994922637939e-01</leafValues></_>
        <_>
          <internalNodes>
            0 -1 364 1.7883433029055595e-03</internalNodes>
          <leafValues>
            -2.5695195794105530e-01 4.1894951462745667e-01</leafValues></_>
        <_>
          <internalNodes>
            0 -1 611 3.2540408428758383e-03</internalNodes>
          <leafValues>
            -2.6583114266395569e-01 2.4685055017471313e-01</leafValues></_>
        <_>
          <internalNodes>
            0 -1 296 -1.6956314444541931e-02</internalNodes>
          <leafValues>
            -5.7503211498260498e-01 1.5231944620609283e-01</leafValues></_>
        <_>
          <internalNodes>
            0 -1 174 1.0789345949888229e-02</internalNodes>
          <leafValues>
            5.3410265594720840e-02 -4.8113957047462463e-01</leafValues></_>
        <_>
          <internalNodes>
            0 -1 547 3.4767994657158852e-04</internalNodes>
          <leafValues>
            -3.2844701409339905e-01 1.9319410622119904e-01</leafValues></_>
        <_>
          <internalNodes>
            0 -1 422 1.0981786064803600e-02</internalNodes>
          <leafValues>
            9.2592321336269379e-02 -4.8962920904159546e-01</leafValues></_>
        <_>
          <internalNodes>
            0 -1 729 1.7292175907641649e-03</internalNodes>
          <leafValues>
            -1.5184158086776733e-01 3.1912708282470703e-01</leafValues></_>
        <_>
          <internalNodes>
            0 -1 446 1.6937367618083954e-03</internalNodes>
          <leafValues>
            -1.5364263951778412e-01 3.6844193935394287e-01</leafValues></_>
        <_>
          <internalNodes>
            0 -1 290 -8.1254728138446808e-03</internalNodes>
          <leafValues>
            -4.7254982590675354e-01 1.1536767333745956e-01</leafValues></_>
        <_>
          <internalNodes>
            0 -1 455 -9.2779571423307061e-04</internalNodes>
          <leafValues>
            3.2003906369209290e-01 -1.5245528519153595e-01</leafValues></_>
        <_>
          <internalNodes>
            0 -1 589 -1.9880826584994793e-03</internalNodes>
          <leafValues>
            -7.7618902921676636e-01 6.1238132417201996e-02</leafValues></_>
        <_>
          <internalNodes>
            0 -1 487 9.8882950842380524e-03</internalNodes>
          <leafValues>
            -1.1799465864896774e-01 4.0318027138710022e-01</leafValues></_>
        <_>
          <internalNodes>
            0 -1 1 2.1099744737148285e-01</internalNodes>
          <leafValues>
            -1.1558971554040909e-01 3.9489099383354187e-01</leafValues></_>
        <_>
          <internalNodes>
            0 -1 665 2.7754511684179306e-03</internalNodes>
          <leafValues>
            -2.1084967255592346e-01 2.2580666840076447e-01</leafValues></_>
        <_>
          <internalNodes>
            0 -1 109 -1.1473916471004486e-02</internalNodes>
          <leafValues>
            -7.6967775821685791e-01 5.9951674193143845e-02</leafValues></_>
        <_>
          <internalNodes>
            0 -1 139 -7.6344464905560017e-03</internalNodes>
          <leafValues>
            -6.2807101011276245e-01 5.4405335336923599e-02</leafValues></_>
        <_>
          <internalNodes>
            0 -1 210 -1.2461589649319649e-02</internalNodes>
          <leafValues>
            3.5985165834426880e-01 -1.3492085039615631e-01</leafValues></_>
        <_>
          <internalNodes>
            0 -1 408 1.6247833147644997e-02</internalNodes>
          <leafValues>
            -1.2729397416114807e-01 3.1079450249671936e-01</leafValues></_>
        <_>
          <internalNodes>
            0 -1 442 1.7716782167553902e-03</internalNodes>
          <leafValues>
            -5.5885035544633865e-02 7.0111727714538574e-01</leafValues></_>
        <_>
          <internalNodes>
            0 -1 810 3.9589623920619488e-03</internalNodes>
          <leafValues>
            -8.7374053895473480e-02 4.0843054652214050e-01</leafValues></_>
        <_>
          <internalNodes>
            0 -1 528 5.5874017998576164e-03</internalNodes>
          <leafValues>
            5.0010811537504196e-02 -8.1452804803848267e-01</leafValues></_>
        <_>
          <internalNodes>
            0 -1 184 7.9232044517993927e-02</internalNodes>
          <leafValues>
            -9.9822215735912323e-02 4.2577141523361206e-01</leafValues></_></weakClassifiers></_>
    <!-- stage 4 -->
    <_>
      <maxWeakCount>31</maxWeakCount>
      <stageThreshold>-1.5624525547027588e+00</stageThreshold>
      <weakClassifiers>
        <_>
          <internalNodes>
            0 -1 756 -8.9320763945579529e-03</internalNodes>
          <leafValues>
            5.2051836252212524e-01 -5.1565760374069214e-01</leafValues></_>
        <_>
          <internalNodes>
            0 -1 449 2.0639719441533089e-03</internalNodes>
          <leafValues>
            -3.6061793565750122e-01 4.2672452330589294e-01</leafValues></_>
        <_>
          <internalNodes>
            0 -1 480 -1.1963773518800735e-02</internalNodes>
          <leafValues>
            4.4163903594017029e-01 -3.1961160898208618e-01</leafValues></_>
        <_>
          <internalNodes>
            0 -1 468 1.1207197792828083e-02</internalNodes>
          <leafValues>
            -3.1549581885337830e-01 1.8734182417392731e-01</leafValues></_>
        <_>
          <internalNodes>
            0 -1 497 -2.4311568588018417e-02</internalNodes>
          <leafValues>
            7.2321587800979614e-01 -7.8498035669326782e-02</leafValues></_>
        <_>
          <internalNodes>
            0 -1 178 1.4993961900472641e-02</internalNodes>
          <leafValues>
            1.7395608127117157e-01 -5.1374846696853638e-01</leafValues></_>
        <_>
          <internalNodes>
            0 -1 264 -7.1248367428779602e-02</internalNodes>
          <leafValues>
            3.9267420768737793e-01 -1.7062297463417053e-01</leafValues></_>
        <_>
          <internalNodes>
            0 -1 719 2.6420885697007179e-03</internalNodes>
          <leafValues>
            -1.5258480608463287e-01 3.0050832033157349e-01</leafValues></_>
        <_>
          <internalNodes>
            0 -1 375 -1.4143155887722969e-02</internalNodes>
          <leafValues>
            -7.1401613950729370e-01 8.3089716732501984e-02</leafValues></_>
        <_>
          <internalNodes>
            0 -1 427 -1.2001301161944866e-02</internalNodes>
          <leafValues>
            -5.9224522113800049e-01 3.9184581488370895e-02</leafValues></_>
        <_>
          <internalNodes>
            0 -1 617 6.2915892340242863e-03</internalNodes>
          <leafValues>
            -1.7530830204486847e-01 2.6476216316223145e-01</leafValues></_>
        <_>
          <internalNodes>
            0 -1 207 -1.5142259187996387e-02</internalNodes>
          <leafValues>
            -6.6616773605346680e-01 7.6431214809417725e-02</leafValues></_>
        <_>
          <internalNodes>
            0 -1 86 -1.2137534096837044e-02</internalNodes>
          <leafValues>
            3.9043334126472473e-01 -1.2334749102592468e-01</leafValues></_>
        <_>
          <internalNodes>
            0 -1 727 6.3467613654211164e-04</internalNodes>
          <leafValues>
            -1.4500734210014343e-01 2.7769640088081360e-01</leafValues></_>
        <_>
          <internalNodes>
            0 -1 209 1.8922302871942520e-02</internalNodes>
          <leafValues>
            5.8427806943655014e-02 -5.8147776126861572e-01</leafValues></_>
        <_>
          <internalNodes>
            0 -1 416 -4.3443558388389647e-04</internalNodes>
          <leafValues>
            2.3941507935523987e-01 -1.6528095304965973e-01</leafValues></_>
        <_>
          <internalNodes>
            0 -1 625 1.9708283245563507e-02</internalNodes>
          <leafValues>
            -1.0246272385120392e-01 3.8912442326545715e-01</leafValues></_>
        <_>
          <internalNodes>
            0 -1 476 2.8816706035286188e-03</internalNodes>
          <leafValues>
            -1.7157429456710815e-01 2.1581013500690460e-01</leafValues></_>
        <_>
          <internalNodes>
            0 -1 112 -1.1191911064088345e-02</internalNodes>
          <leafValues>
            -9.2355889081954956e-01 3.8902726024389267e-02</leafValues></_>
        <_>
          <internalNodes>
            0 -1 313 -1.5550546813756227e-03</internalNodes>
          <leafValues>
            2.5882139801979065e-01 -1.4559815824031830e-01</leafValues></_>
        <_>
          <internalNodes>
            0 -1 391 -3.2411669380962849e-03</internalNodes>
          <leafValues>
            -3.8132548332214355e-01 8.9031219482421875e-02</leafValues></_>
        <_>
          <internalNodes>
            0 -1 526 7.2866319678723812e-03</internalNodes>
          <leafValues>
            -9.6191875636577606e-02 3.5436001420021057e-01</leafValues></_>
        <_>
          <internalNodes>
            0 -1 450 -2.6929748710244894e-03</internalNodes>
          <leafValues>
            -4.8450115323066711e-01 8.4527485072612762e-02</leafValues></_>
        <_>
          <internalNodes>
            0 -1 430 -2.8891325928270817e-03</internalNodes>
          <leafValues>
            -5.9381514787673950e-01 6.2951080501079559e-02</leafValues></_>
        <_>
          <internalNodes>
            0 -1 723 -2.7491215150803328e-03</internalNodes>
          <leafValues>
            3.6211398243904114e-01 -1.0261372476816177e-01</leafValues></_>
        <_>
          <internalNodes>
            0 -1 170 -1.1173726618289948e-01</internalNodes>
          <leafValues>
            -8.7928897142410278e-01 3.9728444069623947e-02</leafValues></_>
        <_>
          <internalNodes>
            0 -1 153 -7.9370150342583656e-03</internalNodes>
          <leafValues>
            -4.2594248056411743e-01 6.1166141182184219e-02</leafValues></_>
        <_>
          <internalNodes>
            0 -1 496 -3.9159081643447280e-04</internalNodes>
          <leafValues>
            1.4083141088485718e-01 -2.4097430706024170e-01</leafValues></_>
        <_>
          <internalNodes>
            0 -1 165 -2.8479957953095436e-02</internalNodes>
          <leafValues>
            -5.4475659132003784e-01 6.2231365591287613e-02</leafValues></_>
        <_>
          <internalNodes>
            0 -1 332 -5.8579370379447937e-03</internalNodes>
          <leafValues>
            -6.0680824518203735e-01 4.6155709773302078e-02</leafValues></_>
        <_>
          <internalNodes>
            0 -1 598 8.9605152606964111e-03</internalNodes>
          <leafValues>
            -9.4474740326404572e-02 3.7277668714523315e-01</leafValues></_></weakClassifiers></_>
    <!-- stage 5 -->
    <_>
      <maxWeakCount>40</maxWeakCount>
      <stageThreshold>-1.5541716814041138e+00</stageThreshold>
      <weakClassifiers>
        <_>
          <internalNodes>
            0 -1 761 -1.7588586779311299e-03</internalNodes>
          <leafValues>
            3.8775509595870972e-01 -5.3759819269180298e-01</leafValues></_>
        <_>
          <internalNodes>
            0 -1 472 -1.6863525379449129e-03</internalNodes>
          <leafValues>
            3.0033144354820251e-01 -3.8116079568862915e-01</leafValues></_>
        <_>
          <internalNodes>
            0 -1 499 -3.3100891858339310e-02</internalNodes>
          <leafValues>
            5.1031136512756348e-01 -2.1371239423751831e-01</leafValues></_>
        <_>
          <internalNodes>
            0 -1 386 3.4499787725508213e-03</internalNodes>
          <leafValues>
            -4.1392716765403748e-01 1.4377088844776154e-01</leafValues></_>
        <_>
          <internalNodes>
            0 -1 385 -8.1080133095383644e-03</internalNodes>
          <leafValues>
            -4.2066362500190735e-01 1.7160098254680634e-01</leafValues></_>
        <_>
          <internalNodes>
            0 -1 455 -4.5803264947608113e-04</internalNodes>
          <leafValues>
            1.9613082706928253e-01 -2.5987705588340759e-01</leafValues></_>
        <_>
          <internalNodes>
            0 -1 246 -1.0541178286075592e-02</internalNodes>
          <leafValues>
            -5.2763640880584717e-01 9.6228659152984619e-02</leafValues></_>
        <_>
          <internalNodes>
            0 -1 599 -1.1791826691478491e-03</internalNodes>
          <leafValues>
            1.9118121266365051e-01 -2.6036983728408813e-01</leafValues></_>
        <_>
          <internalNodes>
            0 -1 398 -6.8072929978370667e-02</internalNodes>
          <leafValues>
            4.2774397134780884e-01 -9.5434859395027161e-02</leafValues></_>
        <_>
          <internalNodes>
            0 -1 637 5.2621485665440559e-03</internalNodes>
          <leafValues>
            -1.9058929383754730e-01 2.7777516841888428e-01</leafValues></_>
        <_>
          <internalNodes>
            0 -1 450 -3.2685231417417526e-03</internalNodes>
          <leafValues>
            -5.5873686075210571e-01 8.6024999618530273e-02</leafValues></_>
        <_>
          <internalNodes>
            0 -1 426 -3.6889887414872646e-03</internalNodes>
          <leafValues>
            -3.7944117188453674e-01 7.7460773289203644e-02</leafValues></_>
        <_>
          <internalNodes>
            0 -1 767 9.1446517035365105e-04</internalNodes>
          <leafValues>
            -1.1444783955812454e-01 3.1130167841911316e-01</leafValues></_>
        <_>
          <internalNodes>
            0 -1 534 -1.6801293939352036e-02</internalNodes>
          <leafValues>
            -7.2052854299545288e-01 5.5914361029863358e-02</leafValues></_>
        <_>
          <internalNodes>
            0 -1 310 7.7534485608339310e-03</internalNodes>
          <leafValues>
            -7.6631769537925720e-02 5.4226899147033691e-01</leafValues></_>
        <_>
          <internalNodes>
            0 -1 245 2.4102302268147469e-03</internalNodes>
          <leafValues>
            -1.5361666679382324e-01 2.3661768436431885e-01</leafValues></_>
        <_>
          <internalNodes>
            0 -1 316 5.8972495608031750e-03</internalNodes>
          <leafValues>
            -1.0795144736766815e-01 3.9453759789466858e-01</leafValues></_>
        <_>
          <internalNodes>
            0 -1 610 2.5967066176235676e-03</internalNodes>
          <leafValues>
            9.4444997608661652e-02 -4.5207095146179199e-01</leafValues></_>
        <_>
          <internalNodes>
            0 -1 65 9.3709994107484818e-03</internalNodes>
          <leafValues>
            3.6687020212411880e-02 -6.7198836803436279e-01</leafValues></_>
        <_>
          <internalNodes>
            0 -1 680 6.4292983151972294e-03</internalNodes>
          <leafValues>
            -1.0566268116235733e-01 3.3166918158531189e-01</leafValues></_>
        <_>
          <internalNodes>
            0 -1 879 -1.9503086805343628e-03</internalNodes>
          <leafValues>
            -5.1207494735717773e-01 6.9219455122947693e-02</leafValues></_>
        <_>
          <internalNodes>
            0 -1 19 -2.9883399605751038e-02</internalNodes>
          <leafValues>
            -5.3834456205368042e-01 5.2997443825006485e-02</leafValues></_>
        <_>
          <internalNodes>
            0 -1 117 -4.0825065225362778e-02</internalNodes>
          <leafValues>
            3.6283290386199951e-01 -9.6405424177646637e-02</leafValues></_>
        <_>
          <internalNodes>
            0 -1 93 -4.3001860380172729e-02</internalNodes>
          <leafValues>
            -4.7670441865921021e-01 7.1844376623630524e-02</leafValues></_>
        <_>
          <internalNodes>
            0 -1 274 6.4938492141664028e-04</internalNodes>
          <leafValues>
            -1.1173833906650543e-01 2.8518813848495483e-01</leafValues></_>
        <_>
          <internalNodes>
            0 -1 440 4.4258539564907551e-03</internalNodes>
          <leafValues>
            4.2723752558231354e-02 -7.7964359521865845e-01</leafValues></_>
        <_>
          <internalNodes>
            0 -1 351 -1.0017476975917816e-02</internalNodes>
          <leafValues>
            2.5474545359611511e-01 -1.2865349650382996e-01</leafValues></_>
        <_>
          <internalNodes>
            0 -1 808 -7.0612947456538677e-04</internalNodes>
          <leafValues>
            3.6184269189834595e-01 -8.1711389124393463e-02</leafValues></_>
        <_>
          <internalNodes>
            0 -1 166 4.7122735530138016e-02</internalNodes>
          <leafValues>
            -6.1095688492059708e-02 4.8611193895339966e-01</leafValues></_>
        <_>
          <internalNodes>
            0 -1 315 3.6211949773132801e-03</internalNodes>
          <leafValues>
            7.5247094035148621e-02 -4.0786135196685791e-01</leafValues></_>
        <_>
          <internalNodes>
            0 -1 797 1.4896083623170853e-02</internalNodes>
          <leafValues>
            -1.0176334530115128e-01 2.8140807151794434e-01</leafValues></_>
        <_>
          <internalNodes>
            0 -1 541 1.1372682638466358e-03</internalNodes>
          <leafValues>
            -8.4028199315071106e-02 3.2094430923461914e-01</leafValues></_>
        <_>
          <internalNodes>
            0 -1 861 1.7104120925068855e-03</internalNodes>
          <leafValues>
            9.3742646276950836e-02 -3.1429100036621094e-01</leafValues></_>
        <_>
          <internalNodes>
            0 -1 601 -1.7588021000847220e-03</internalNodes>
          <leafValues>
            -4.5350295305252075e-01 5.6719288229942322e-02</leafValues></_>
        <_>
          <internalNodes>
            0 -1 376 -7.6573854312300682e-03</internalNodes>
          <leafValues>
            2.6706764101982117e-01 -1.1335283517837524e-01</leafValues></_>
        <_>
          <internalNodes>
            0 -1 487 1.1115962639451027e-02</internalNodes>
          <leafValues>
            -9.2103973031044006e-02 3.0548092722892761e-01</leafValues></_>
        <_>
          <internalNodes>
            0 -1 668 -1.6174269840121269e-02</internalNodes>
          <leafValues>
            -8.5788911581039429e-01 3.9528079330921173e-02</leafValues></_>
        <_>
          <internalNodes>
            0 -1 786 1.9521903595887125e-04</internalNodes>
          <leafValues>
            -1.6788254678249359e-01 1.7580533027648926e-01</leafValues></_>
        <_>
          <internalNodes>
            0 -1 834 -1.2473392416723073e-04</internalNodes>
          <leafValues>
            1.7867231369018555e-01 -1.5709139406681061e-01</leafValues></_>
        <_>
          <internalNodes>
            0 -1 162 -3.1753763556480408e-02</internalNodes>
          <leafValues>
            6.2888407707214355e-01 -4.3876927345991135e-02</leafValues></_></weakClassifiers></_>
    <!-- stage 6 -->
    <_>
      <maxWeakCount>47</maxWeakCount>
      <stageThreshold>-1.4491991996765137e+00</stageThreshold>
      <weakClassifiers>
        <_>
          <internalNodes>
            0 -1 763 -4.9161985516548157e-03</internalNodes>
          <leafValues>
            4.3181818723678589e-01 -5.0070619583129883e-01</leafValues></_>
        <_>
          <internalNodes>
            0 -1 323 8.0908201634883881e-03</internalNodes>
          <leafValues>
            -3.1345212459564209e-01 3.3493801951408386e-01</leafValues></_>
        <_>
          <internalNodes>
            0 -1 563 -5.4130186326801777e-03</internalNodes>
          <leafValues>
            4.2978784441947937e-01 -2.1523144841194153e-01</leafValues></_>
        <_>
          <internalNodes>
            0 -1 438 6.7927148193120956e-03</internalNodes>
          <leafValues>
            -2.0688810944557190e-01 3.3864566683769226e-01</leafValues></_>
        <_>
          <internalNodes>
            0 -1 615 1.1604656465351582e-03</internalNodes>
          <leafValues>
            -2.2526280581951141e-01 1.9327388703823090e-01</leafValues></_>
        <_>
          <internalNodes>
            0 -1 315 4.3080737814307213e-03</internalNodes>
          <leafValues>
            8.1669911742210388e-02 -5.8453220129013062e-01</leafValues></_>
        <_>
          <internalNodes>
            0 -1 661 1.3573908247053623e-02</internalNodes>
          <leafValues>
            -7.5439661741256714e-02 4.4936028122901917e-01</leafValues></_>
        <_>
          <internalNodes>
            0 -1 367 4.3128803372383118e-03</internalNodes>
          <leafValues>
            -1.5218590199947357e-01 2.2126969695091248e-01</leafValues></_>
        <_>
          <internalNodes>
            0 -1 605 -2.9133460484445095e-03</internalNodes>
          <leafValues>
            -5.1393216848373413e-01 9.0594261884689331e-02</leafValues></_>
        <_>
          <internalNodes>
            0 -1 679 -1.2875521788373590e-03</internalNodes>
          <leafValues>
            -4.2734819650650024e-01 7.5278200209140778e-02</leafValues></_>
        <_>
          <internalNodes>
            0 -1 533 7.3520820587873459e-03</internalNodes>
          <leafValues>
            8.8294688612222672e-03 -7.1479755640029907e-01</leafValues></_>
        <_>
          <internalNodes>
            0 -1 152 -4.7994102351367474e-03</internalNodes>
          <leafValues>
            -7.3068642616271973e-01 4.0367636829614639e-02</leafValues></_>
        <_>
          <internalNodes>
            0 -1 450 2.8179960791021585e-03</internalNodes>
          <leafValues>
            6.8905636668205261e-02 -4.0475186705589294e-01</leafValues></_>
        <_>
          <internalNodes>
            0 -1 121 1.0704798623919487e-03</internalNodes>
          <leafValues>
            -8.3995960652828217e-02 3.4390985965728760e-01</leafValues></_>
        <_>
          <internalNodes>
            0 -1 762 2.8244671411812305e-03</internalNodes>
          <leafValues>
            -4.6043004840612411e-02 5.9852385520935059e-01</leafValues></_>
        <_>
          <internalNodes>
            0 -1 545 1.6710224736016244e-04</internalNodes>
          <leafValues>
            -2.3857237398624420e-01 1.3278049230575562e-01</leafValues></_>
        <_>
          <internalNodes>
            0 -1 823 5.7454090565443039e-03</internalNodes>
          <leafValues>
            3.8650743663311005e-02 -5.1970809698104858e-01</leafValues></_>
        <_>
          <internalNodes>
            0 -1 329 2.7147291228175163e-02</internalNodes>
          <leafValues>
            -5.7435505092144012e-02 4.7039556503295898e-01</leafValues></_>
        <_>
          <internalNodes>
            0 -1 396 -2.3728489875793457e-02</internalNodes>
          <leafValues>
            2.9799813032150269e-01 -1.0101606696844101e-01</leafValues></_>
        <_>
          <internalNodes>
            0 -1 659 7.7963888179510832e-04</internalNodes>
          <leafValues>
            8.0933615565299988e-02 -3.6666753888130188e-01</leafValues></_>
        <_>
          <internalNodes>
            0 -1 506 5.7052373886108398e-03</internalNodes>
          <leafValues>
            -9.7865730524063110e-02 2.6548957824707031e-01</leafValues></_>
        <_>
          <internalNodes>
            0 -1 81 -5.4961526766419411e-03</internalNodes>
          <leafValues>
            -3.0319276452064514e-01 8.9982442557811737e-02</leafValues></_>
        <_>
          <internalNodes>
            0 -1 453 1.8864759476855397e-03</internalNodes>
          <leafValues>
            -7.3015347123146057e-02 3.6551618576049805e-01</leafValues></_>
        <_>
          <internalNodes>
            0 -1 181 -2.8419803828001022e-02</internalNodes>
          <leafValues>
            -7.1969789266586304e-01 3.5349562764167786e-02</leafValues></_>
        <_>
          <internalNodes>
            0 -1 457 -3.2637077383697033e-03</internalNodes>
          <leafValues>
            2.7229321002960205e-01 -1.0014190524816513e-01</leafValues></_>
        <_>
          <internalNodes>
            0 -1 595 3.8229112979024649e-03</internalNodes>
          <leafValues>
            6.1666823923587799e-02 -4.1997793316841125e-01</leafValues></_>
        <_>
          <internalNodes>
            0 -1 826 -2.9868207639083266e-04</internalNodes>
          <leafValues>
            2.4234294891357422e-01 -1.0581905394792557e-01</leafValues></_>
        <_>
          <internalNodes>
            0 -1 588 -1.2767014559358358e-03</internalNodes>
          <leafValues>
            -5.1737421751022339e-01 5.4753039032220840e-02</leafValues></_>
        <_>
          <internalNodes>
            0 -1 519 1.9940985366702080e-03</internalNodes>
          <leafValues>
            6.0774695128202438e-02 -4.1039800643920898e-01</leafValues></_>
        <_>
          <internalNodes>
            0 -1 421 -6.6977797541767359e-04</internalNodes>
          <leafValues>
            2.0205545425415039e-01 -1.3203503191471100e-01</leafValues></_>
        <_>
          <internalNodes>
            0 -1 3 -4.7474112361669540e-03</internalNodes>
          <leafValues>
            -3.3440640568733215e-01 8.9297860860824585e-02</leafValues></_>
        <_>
          <internalNodes>
            0 -1 566 -1.7086531966924667e-02</internalNodes>
          <leafValues>
            4.5970532298088074e-01 -5.6198190897703171e-02</leafValues></_>
        <_>
          <internalNodes>
            0 -1 187 1.1548053473234177e-02</internalNodes>
          <leafValues>
            3.3553764224052429e-02 -8.3149510622024536e-01</leafValues></_>
        <_>
          <internalNodes>
            0 -1 98 -1.2467133346945047e-03</internalNodes>
          <leafValues>
            -3.4712338447570801e-01 6.1449564993381500e-02</leafValues></_>
        <_>
          <internalNodes>
            0 -1 750 1.2290678569115698e-04</internalNodes>
          <leafValues>
            -1.2735070288181305e-01 2.0364069938659668e-01</leafValues></_>
        <_>
          <internalNodes>
            0 -1 642 9.0497825294733047e-03</internalNodes>
          <leafValues>
            4.4936425983905792e-02 -5.5862939357757568e-01</leafValues></_>
        <_>
          <internalNodes>
            0 -1 244 1.8431318458169699e-03</internalNodes>
          <leafValues>
            -1.5512573719024658e-01 1.6408066451549530e-01</leafValues></_>
        <_>
          <internalNodes>
            0 -1 100 -6.0418513603508472e-03</internalNodes>
          <leafValues>
            -4.3594780564308167e-01 5.3167890757322311e-02</leafValues></_>
        <_>
          <internalNodes>
            0 -1 213 4.8371655866503716e-03</internalNodes>
          <leafValues>
            -8.6394652724266052e-02 2.9766178131103516e-01</leafValues></_>
        <_>
          <internalNodes>
            0 -1 467 2.7200202457606792e-03</internalNodes>
          <leafValues>
            -1.2713316082954407e-01 2.2418357431888580e-01</leafValues></_>
        <_>
          <internalNodes>
            0 -1 433 -9.0685235336422920e-03</internalNodes>
          <leafValues>
            -3.3335283398628235e-01 8.6134873330593109e-02</leafValues></_>
        <_>
          <internalNodes>
            0 -1 650 9.9974751472473145e-02</internalNodes>
          <leafValues>
            -5.2607193589210510e-02 5.0303959846496582e-01</leafValues></_>
        <_>
          <internalNodes>
            0 -1 697 9.2645110562443733e-03</internalNodes>
          <leafValues>
            -2.5861084461212158e-02 8.4793013334274292e-01</leafValues></_>
        <_>
          <internalNodes>
            0 -1 35 -2.1174877882003784e-02</internalNodes>
          <leafValues>
            -4.4572424888610840e-01 6.0785874724388123e-02</leafValues></_>
        <_>
          <internalNodes>
            0 -1 49 -5.6809778325259686e-03</internalNodes>
          <leafValues>
            2.9324153065681458e-01 -8.1698521971702576e-02</leafValues></_>
        <_>
          <internalNodes>
            0 -1 87 -4.0252793580293655e-02</internalNodes>
          <leafValues>
            -7.9346561431884766e-01 3.0444478616118431e-02</leafValues></_>
        <_>
          <internalNodes>
            0 -1 314 5.7555092498660088e-03</internalNodes>
          <leafValues>
            6.6615156829357147e-02 -3.0895853042602539e-01</leafValues></_></weakClassifiers></_>
    <!-- stage 7 -->
    <_>
      <maxWeakCount>48</maxWeakCount>
      <stageThreshold>-1.4848952293395996e+00</stageThreshold>
      <weakClassifiers>
        <_>
          <internalNodes>
            0 -1 442 -2.1439890842884779e-03</internalNodes>
          <leafValues>
            3.7250995635986328e-01 -4.9141630530357361e-01</leafValues></_>
        <_>
          <internalNodes>
            0 -1 768 3.7575960159301758e-03</internalNodes>
          <leafValues>
            -3.2497826218605042e-01 2.8976473212242126e-01</leafValues></_>
        <_>
          <internalNodes>
            0 -1 634 -5.6669907644391060e-03</internalNodes>
          <leafValues>
            4.0781542658805847e-01 -1.9108627736568451e-01</leafValues></_>
        <_>
          <internalNodes>
            0 -1 562 -7.5980685651302338e-03</internalNodes>
          <leafValues>
            2.9802283644676208e-01 -1.8742394447326660e-01</leafValues></_>
        <_>
          <internalNodes>
            0 -1 719 9.9555589258670807e-04</internalNodes>
          <leafValues>
            -2.2792005538940430e-01 2.1325190365314484e-01</leafValues></_>
        <_>
          <internalNodes>
            0 -1 489 -3.2043080776929855e-02</internalNodes>
          <leafValues>
            5.3146415948867798e-01 -5.2013885229825974e-02</leafValues></_>
        <_>
          <internalNodes>
            0 -1 669 -1.1341024655848742e-03</internalNodes>
          <leafValues>
            -3.7882369756698608e-01 9.1914638876914978e-02</leafValues></_>
        <_>
          <internalNodes>
            0 -1 263 3.0861841514706612e-03</internalNodes>
          <leafValues>
            6.5782375633716583e-02 -3.8170182704925537e-01</leafValues></_>
        <_>
          <internalNodes>
            0 -1 395 -5.2184099331498146e-03</internalNodes>
          <leafValues>
            -6.0602229833602905e-01 7.0591613650321960e-02</leafValues></_>
        <_>
          <internalNodes>
            0 -1 727 9.9649978801608086e-04</internalNodes>
          <leafValues>
            -1.2156298756599426e-01 2.5597843527793884e-01</leafValues></_>
        <_>
          <internalNodes>
            0 -1 418 -1.2129619717597961e-01</internalNodes>
          <leafValues>
            -7.2139996290206909e-01 3.1645316630601883e-02</leafValues></_>
        <_>
          <internalNodes>
            0 -1 381 -1.1933508794754744e-03</internalNodes>
          <leafValues>
            2.9823026061058044e-01 -1.0476134717464447e-01</leafValues></_>
        <_>
          <internalNodes>
            0 -1 125 -1.1132282204926014e-02</internalNodes>
          <leafValues>
            -3.7835285067558289e-01 7.4952542781829834e-02</leafValues></_>
        <_>
          <internalNodes>
            0 -1 61 8.6681108223274350e-04</internalNodes>
          <leafValues>
            -2.0754727721214294e-01 1.3451194763183594e-01</leafValues></_>
        <_>
          <internalNodes>
            0 -1 875 -5.0928061828017235e-03</internalNodes>
          <leafValues>
            -3.8635146617889404e-01 7.8177899122238159e-02</leafValues></_>
        <_>
          <internalNodes>
            0 -1 262 -5.6364536285400391e-03</internalNodes>
          <leafValues>
            -4.5753493905067444e-01 5.4435126483440399e-02</leafValues></_>
        <_>
          <internalNodes>
            0 -1 473 8.1155402585864067e-04</internalNodes>
          <leafValues>
            1.1769851297140121e-01 -2.4523736536502838e-01</leafValues></_>
        <_>
          <internalNodes>
            0 -1 739 -1.4816641341894865e-03</internalNodes>
          <leafValues>
            2.4896556138992310e-01 -1.1615220457315445e-01</leafValues></_>
        <_>
          <internalNodes>
            0 -1 340 2.8150426805950701e-04</internalNodes>
          <leafValues>
            -1.0751305520534515e-01 2.4716530740261078e-01</leafValues></_>
        <_>
          <internalNodes>
            0 -1 518 5.4698899388313293e-02</internalNodes>
          <leafValues>
            3.6036513745784760e-02 -7.0665740966796875e-01</leafValues></_>
        <_>
          <internalNodes>
            0 -1 353 -1.9849785603582859e-03</internalNodes>
          <leafValues>
            -3.1664559245109558e-01 8.0571576952934265e-02</leafValues></_>
        <_>
          <internalNodes>
            0 -1 227 -7.7016919385641813e-04</internalNodes>
          <leafValues>
            2.1405588090419769e-01 -1.2965790927410126e-01</leafValues></_>
        <_>
          <internalNodes>
            0 -1 67 -2.7478616684675217e-03</internalNodes>
          <leafValues>
            -5.9120392799377441e-01 4.5086268335580826e-02</leafValues></_>
        <_>
          <internalNodes>
            0 -1 616 -2.4543005973100662e-02</internalNodes>
          <leafValues>
            4.0925639867782593e-01 -6.3702516257762909e-02</leafValues></_>
        <_>
          <internalNodes>
            0 -1 746 2.4015754461288452e-02</internalNodes>
          <leafValues>
            5.6269928812980652e-02 -5.3091782331466675e-01</leafValues></_>
        <_>
          <internalNodes>
            0 -1 771 -1.4791334979236126e-03</internalNodes>
          <leafValues>
            3.0667427182197571e-01 -8.7224610149860382e-02</leafValues></_>
        <_>
          <internalNodes>
            0 -1 780 2.1737166680395603e-03</internalNodes>
          <leafValues>
            6.4846798777580261e-02 -3.7405005097389221e-01</leafValues></_>
        <_>
          <internalNodes>
            0 -1 188 -1.8698764033615589e-03</internalNodes>
          <leafValues>
            -3.3353665471076965e-01 7.0925965905189514e-02</leafValues></_>
        <_>
          <internalNodes>
            0 -1 830 1.1624593753367662e-03</internalNodes>
          <leafValues>
            -6.3666798174381256e-02 4.1205880045890808e-01</leafValues></_>
        <_>
          <internalNodes>
            0 -1 785 -3.9444420486688614e-02</internalNodes>
          <leafValues>
            -3.9988201856613159e-01 6.4108520746231079e-02</leafValues></_>
        <_>
          <internalNodes>
            0 -1 820 -9.6029853448271751e-03</internalNodes>
          <leafValues>
            2.3756602406501770e-01 -1.1813806742429733e-01</leafValues></_>
        <_>
          <internalNodes>
            0 -1 59 7.0153377950191498e-02</internalNodes>
          <leafValues>
            -9.4980023801326752e-02 2.5552660226821899e-01</leafValues></_>
        <_>
          <internalNodes>
            0 -1 383 -2.9154585208743811e-03</internalNodes>
          <leafValues>
            -2.6641169190406799e-01 9.8558038473129272e-02</leafValues></_>
        <_>
          <internalNodes>
            0 -1 315 -3.3032100182026625e-03</internalNodes>
          <leafValues>
            -3.4953001141548157e-01 7.6166197657585144e-02</leafValues></_>
        <_>
          <internalNodes>
            0 -1 651 -7.8817792236804962e-03</internalNodes>
          <leafValues>
            -5.8324307203292847e-01 3.9624366909265518e-02</leafValues></_>
        <_>
          <internalNodes>
            0 -1 677 -9.8277488723397255e-04</internalNodes>
          <leafValues>
            2.0959553122520447e-01 -1.1981578916311264e-01</leafValues></_>
        <_>
          <internalNodes>
            0 -1 677 8.6074857972562313e-04</internalNodes>
          <leafValues>
            -8.6203336715698242e-02 4.1988489031791687e-01</leafValues></_>
        <_>
          <internalNodes>
            0 -1 515 3.8046739995479584e-02</internalNodes>
          <leafValues>
            3.8375746458768845e-02 -7.2107583284378052e-01</leafValues></_>
        <_>
          <internalNodes>
            0 -1 858 1.6452968120574951e-02</internalNodes>
          <leafValues>
            3.6852594465017319e-02 -5.4693758487701416e-01</leafValues></_>
        <_>
          <internalNodes>
            0 -1 173 -2.3295775055885315e-02</internalNodes>
          <leafValues>
            1.4725938439369202e-01 -1.6185890138149261e-01</leafValues></_>
        <_>
          <internalNodes>
            0 -1 204 -1.3244116678833961e-02</internalNodes>
          <leafValues>
            2.1613588929176331e-01 -1.1543752998113632e-01</leafValues></_>
        <_>
          <internalNodes>
            0 -1 134 9.3889385461807251e-03</internalNodes>
          <leafValues>
            8.0587223172187805e-02 -2.8328371047973633e-01</leafValues></_>
        <_>
          <internalNodes>
            0 -1 138 -8.8178031146526337e-03</internalNodes>
          <leafValues>
            -6.3569021224975586e-01 3.6304533481597900e-02</leafValues></_>
        <_>
          <internalNodes>
            0 -1 118 5.7593488693237305e-01</internalNodes>
          <leafValues>
            1.8978150561451912e-02 -9.1356635093688965e-01</leafValues></_>
        <_>
          <internalNodes>
            0 -1 306 -2.3603867739439011e-02</internalNodes>
          <leafValues>
            -6.9911491870880127e-01 2.6606826111674309e-02</leafValues></_>
        <_>
          <internalNodes>
            0 -1 31 -8.1385448575019836e-03</internalNodes>
          <leafValues>
            -4.0826335549354553e-01 5.1199004054069519e-02</leafValues></_>
        <_>
          <internalNodes>
            0 -1 84 -1.6791276633739471e-02</internalNodes>
          <leafValues>
            2.7404931187629700e-01 -7.9442031681537628e-02</leafValues></_>
        <_>
          <internalNodes>
            0 -1 4 -8.3508957177400589e-03</internalNodes>
          <leafValues>
            -2.7675908803939819e-01 1.0535273700952530e-01</leafValues></_></weakClassifiers></_>
    <!-- stage 8 -->
    <_>
      <maxWeakCount>54</maxWeakCount>
      <stageThreshold>-1.4556339979171753e+00</stageThreshold>
      <weakClassifiers>
        <_>
          <internalNodes>
            0 -1 606 -2.7694697491824627e-03</internalNodes>
          <leafValues>
            1.9549930095672607e-01 -5.3742641210556030e-01</leafValues></_>
        <_>
          <internalNodes>
            0 -1 434 -8.3007309585809708e-03</internalNodes>
          <leafValues>
            3.8655412197113037e-01 -2.4344407021999359e-01</leafValues></_>
        <_>
          <internalNodes>
            0 -1 488 -1.6811819747090340e-02</internalNodes>
          <leafValues>
            2.6216846704483032e-01 -2.7283397316932678e-01</leafValues></_>
        <_>
          <internalNodes>
            0 -1 678 1.4305929653346539e-03</internalNodes>
          <leafValues>
            -1.2997317314147949e-01 3.3794766664505005e-01</leafValues></_>
        <_>
          <internalNodes>
            0 -1 722 2.2274993534665555e-04</internalNodes>
          <leafValues>
            -3.2404494285583496e-01 1.3542823493480682e-01</leafValues></_>
        <_>
          <internalNodes>
            0 -1 257 -1.0284068994224072e-03</internalNodes>
          <leafValues>
            1.5656943619251251e-01 -2.0520026981830597e-01</leafValues></_>
        <_>
          <internalNodes>
            0 -1 106 -5.3190574049949646e-02</internalNodes>
          <leafValues>
            2.5537762045860291e-01 -1.2414620816707611e-01</leafValues></_>
        <_>
          <internalNodes>
            0 -1 431 -6.1515606939792633e-03</internalNodes>
          <leafValues>
            -4.2954283952713013e-01 8.6645774543285370e-02</leafValues></_>
        <_>
          <internalNodes>
            0 -1 569 -1.3362865429371595e-03</internalNodes>
          <leafValues>
            1.4086997509002686e-01 -1.9537360966205597e-01</leafValues></_>
        <_>
          <internalNodes>
            0 -1 96 6.3200250267982483e-02</internalNodes>
          <leafValues>
            -6.1074376106262207e-02 5.7491487264633179e-01</leafValues></_>
        <_>
          <internalNodes>
            0 -1 610 -2.8456347063183784e-03</internalNodes>
          <leafValues>
            -4.4023624062538147e-01 6.1590936034917831e-02</leafValues></_>
        <_>
          <internalNodes>
            0 -1 250 3.8378208409994841e-03</internalNodes>
          <leafValues>
            -1.4548444747924805e-01 1.8366719782352448e-01</leafValues></_>
        <_>
          <internalNodes>
            0 -1 16 -7.6918751001358032e-02</internalNodes>
          <leafValues>
            4.9642539024353027e-01 -6.2458820641040802e-02</leafValues></_>
        <_>
          <internalNodes>
            0 -1 698 3.5421769134700298e-03</internalNodes>
          <leafValues>
            -8.7069064378738403e-02 2.8416526317596436e-01</leafValues></_>
        <_>
          <internalNodes>
            0 -1 523 8.0724004656076431e-03</internalNodes>
          <leafValues>
            1.0119950026273727e-01 -2.7239054441452026e-01</leafValues></_>
        <_>
          <internalNodes>
            0 -1 302 -2.3639764636754990e-02</internalNodes>
          <leafValues>
            -6.7324042320251465e-01 3.6654446274042130e-02</leafValues></_>
        <_>
          <internalNodes>
            0 -1 47 9.8391920328140259e-02</internalNodes>
          <leafValues>
            -8.0570206046104431e-02 3.3850079774856567e-01</leafValues></_>
        <_>
          <internalNodes>
            0 -1 807 2.7212954591959715e-03</internalNodes>
          <leafValues>
            -9.2063732445240021e-02 2.5823807716369629e-01</leafValues></_>
        <_>
          <internalNodes>
            0 -1 829 -3.8778502494096756e-04</internalNodes>
          <leafValues>
            2.6866996288299561e-01 -1.0657102614641190e-01</leafValues></_>
        <_>
          <internalNodes>
            0 -1 544 -1.4017130015417933e-03</internalNodes>
          <leafValues>
            -2.9481291770935059e-01 8.9183665812015533e-02</leafValues></_>
        <_>
          <internalNodes>
            0 -1 470 6.3559669069945812e-04</internalNodes>
          <leafValues>
            -9.7533814609050751e-02 2.5717902183532715e-01</leafValues></_>
        <_>
          <internalNodes>
            0 -1 589 -1.9139430951327085e-03</internalNodes>
          <leafValues>
            -6.2666714191436768e-01 4.8336319625377655e-02</leafValues></_>
        <_>
          <internalNodes>
            0 -1 753 -9.5538599416613579e-03</internalNodes>
          <leafValues>
            -5.5360412597656250e-01 3.7540614604949951e-02</leafValues></_>
        <_>
          <internalNodes>
            0 -1 798 -6.9157779216766357e-04</internalNodes>
          <leafValues>
            2.2502402961254120e-01 -1.0675510764122009e-01</leafValues></_>
        <_>
          <internalNodes>
            0 -1 592 2.7521955780684948e-03</internalNodes>
          <leafValues>
            5.1018256694078445e-02 -5.2614015340805054e-01</leafValues></_>
        <_>
          <internalNodes>
            0 -1 387 -5.6887748651206493e-03</internalNodes>
          <leafValues>
            1.9119721651077271e-01 -1.2934878468513489e-01</leafValues></_>
        <_>
          <internalNodes>
            0 -1 731 1.5630051493644714e-03</internalNodes>
          <leafValues>
            -1.0108964145183563e-01 2.9201549291610718e-01</leafValues></_>
        <_>
          <internalNodes>
            0 -1 286 5.3390590474009514e-03</internalNodes>
          <leafValues>
            3.4590661525726318e-02 -7.7610743045806885e-01</leafValues></_>
        <_>
          <internalNodes>
            0 -1 56 2.0056609064340591e-03</internalNodes>
          <leafValues>
            5.4549463093280792e-02 -3.8030588626861572e-01</leafValues></_>
        <_>
          <internalNodes>
            0 -1 758 1.0389403905719519e-03</internalNodes>
          <leafValues>
            -1.4937867224216461e-01 1.4643049240112305e-01</leafValues></_>
        <_>
          <internalNodes>
            0 -1 417 -5.9020858258008957e-02</internalNodes>
          <leafValues>
            3.6460599303245544e-01 -7.0107653737068176e-02</leafValues></_>
        <_>
          <internalNodes>
            0 -1 685 -8.2785729318857193e-04</internalNodes>
          <leafValues>
            1.8050494790077209e-01 -1.6215775907039642e-01</leafValues></_>
        <_>
          <internalNodes>
            0 -1 76 -5.3381766192615032e-03</internalNodes>
          <leafValues>
            -6.2656658887863159e-01 3.6743171513080597e-02</leafValues></_>
        <_>
          <internalNodes>
            0 -1 474 -2.4628859013319016e-02</internalNodes>
          <leafValues>
            -6.7090386152267456e-01 2.9990220442414284e-02</leafValues></_>
        <_>
          <internalNodes>
            0 -1 123 1.5982760116457939e-02</internalNodes>
          <leafValues>
            5.5460471659898758e-02 -3.9192023873329163e-01</leafValues></_>
        <_>
          <internalNodes>
            0 -1 690 -8.5429437458515167e-03</internalNodes>
          <leafValues>
            4.7299593687057495e-01 -5.0650041550397873e-02</leafValues></_>
        <_>
          <internalNodes>
            0 -1 463 2.1650962531566620e-02</internalNodes>
          <leafValues>
            3.9208557456731796e-02 -6.3975495100021362e-01</leafValues></_>
        <_>
          <internalNodes>
            0 -1 391 -3.3665066584944725e-03</internalNodes>
          <leafValues>
            -3.5106146335601807e-01 6.3091076910495758e-02</leafValues></_>
        <_>
          <internalNodes>
            0 -1 542 -3.1743235886096954e-03</internalNodes>
          <leafValues>
            2.1485614776611328e-01 -1.1570903658866882e-01</leafValues></_>
        <_>
          <internalNodes>
            0 -1 27 4.5394174754619598e-02</internalNodes>
          <leafValues>
            4.5042175799608231e-02 -5.1936167478561401e-01</leafValues></_>
        <_>
          <internalNodes>
            0 -1 864 -4.4787678052671254e-04</internalNodes>
          <leafValues>
            2.3976777493953705e-01 -9.5769450068473816e-02</leafValues></_>
        <_>
          <internalNodes>
            0 -1 75 -7.1882382035255432e-02</internalNodes>
          <leafValues>
            3.4809350967407227e-01 -6.2291134148836136e-02</leafValues></_>
        <_>
          <internalNodes>
            0 -1 694 7.5216274708509445e-03</internalNodes>
          <leafValues>
            -1.1535236239433289e-01 2.3049026727676392e-01</leafValues></_>
        <_>
          <internalNodes>
            0 -1 347 -2.7776196599006653e-02</internalNodes>
          <leafValues>
            -5.3617674112319946e-01 4.6908274292945862e-02</leafValues></_>
        <_>
          <internalNodes>
            0 -1 270 -5.4617188870906830e-03</internalNodes>
          <leafValues>
            -3.8483989238739014e-01 5.2879411727190018e-02</leafValues></_>
        <_>
          <internalNodes>
            0 -1 604 -1.1141724884510040e-02</internalNodes>
          <leafValues>
            2.6963013410568237e-01 -8.0976866185665131e-02</leafValues></_>
        <_>
          <internalNodes>
            0 -1 410 2.4365451186895370e-02</internalNodes>
          <leafValues>
            -8.8978357613086700e-02 2.5934943556785583e-01</leafValues></_>
        <_>
          <internalNodes>
            0 -1 530 -1.8760275270324200e-04</internalNodes>
          <leafValues>
            1.6443128883838654e-01 -1.5284523367881775e-01</leafValues></_>
        <_>
          <internalNodes>
            0 -1 872 -2.9700486920773983e-03</internalNodes>
          <leafValues>
            -6.8318247795104980e-01 3.1617943197488785e-02</leafValues></_>
        <_>
          <internalNodes>
            0 -1 163 -1.5759179368615150e-03</internalNodes>
          <leafValues>
            2.3890446126461029e-01 -9.7652040421962738e-02</leafValues></_>
        <_>
          <internalNodes>
            0 -1 345 2.1551304962486029e-04</internalNodes>
          <leafValues>
            -1.3463549315929413e-01 1.7839795351028442e-01</leafValues></_>
        <_>
          <internalNodes>
            0 -1 146 -3.8623935543000698e-03</internalNodes>
          <leafValues>
            -2.5926890969276428e-01 7.9480908811092377e-02</leafValues></_>
        <_>
          <internalNodes>
            0 -1 393 7.3627070523798466e-03</internalNodes>
          <leafValues>
            -1.1928640305995941e-01 1.8780225515365601e-01</leafValues></_>
        <_>
          <internalNodes>
            0 -1 62 2.3153569549322128e-02</internalNodes>
          <leafValues>
            3.4786276519298553e-02 -6.5020018815994263e-01</leafValues></_></weakClassifiers></_>
    <!-- stage 9 -->
    <_>
      <maxWeakCount>59</maxWeakCount>
      <stageThreshold>-1.3720039129257202e+00</stageThreshold>
      <weakClassifiers>
        <_>
          <internalNodes>
            0 -1 442 -1.4134778175503016e-03</internalNodes>
          <leafValues>
            1.6145832836627960e-01 -5.5123674869537354e-01</leafValues></_>
        <_>
          <internalNodes>
            0 -1 379 5.5601533502340317e-02</internalNodes>
          <leafValues>
            -2.4748918414115906e-01 3.0302494764328003e-01</leafValues></_>
        <_>
          <internalNodes>
            0 -1 498 -3.3826701343059540e-02</internalNodes>
          <leafValues>
            3.9034783840179443e-01 -1.5510100126266479e-01</leafValues></_>
        <_>
          <internalNodes>
            0 -1 728 -3.8113689515739679e-03</internalNodes>
          <leafValues>
            3.5876059532165527e-01 -1.4982695877552032e-01</leafValues></_>
        <_>
          <internalNodes>
            0 -1 301 7.4822041206061840e-03</internalNodes>
          <leafValues>
            7.6431721448898315e-02 -4.2518612742424011e-01</leafValues></_>
        <_>
          <internalNodes>
            0 -1 381 -1.6503869555890560e-03</internalNodes>
          <leafValues>
            3.6908414959907532e-01 -7.1656323969364166e-02</leafValues></_>
        <_>
          <internalNodes>
            0 -1 214 5.3637148812413216e-03</internalNodes>
          <leafValues>
            4.4372186064720154e-02 -5.4874902963638306e-01</leafValues></_>
        <_>
          <internalNodes>
            0 -1 455 -6.7833520006388426e-04</internalNodes>
          <leafValues>
            1.9520425796508789e-01 -1.4351671934127808e-01</leafValues></_>
        <_>
          <internalNodes>
            0 -1 309 -1.7179554328322411e-02</internalNodes>
          <leafValues>
            -7.5218880176544189e-01 3.8153368979692459e-02</leafValues></_>
        <_>
          <internalNodes>
            0 -1 95 2.3379263281822205e-01</internalNodes>
          <leafValues>
            -7.5392328202724457e-02 3.2445979118347168e-01</leafValues></_>
        <_>
          <internalNodes>
            0 -1 717 2.1959466394037008e-03</internalNodes>
          <leafValues>
            -1.5416395664215088e-01 1.6785293817520142e-01</leafValues></_>
        <_>
          <internalNodes>
            0 -1 538 -6.9486886262893677e-02</internalNodes>
          <leafValues>
            -8.2871150970458984e-01 4.6417754143476486e-02</leafValues></_>
        <_>
          <internalNodes>
            0 -1 573 1.1288711801171303e-02</internalNodes>
          <leafValues>
            -8.8259100914001465e-02 3.2452049851417542e-01</leafValues></_>
        <_>
          <internalNodes>
            0 -1 712 -1.2999258004128933e-02</internalNodes>
          <leafValues>
            -5.8492648601531982e-01 3.7156291306018829e-02</leafValues></_>
        <_>
          <internalNodes>
            0 -1 635 -9.2802811414003372e-03</internalNodes>
          <leafValues>
            3.5034397244453430e-01 -6.6227510571479797e-02</leafValues></_>
        <_>
          <internalNodes>
            0 -1 545 -3.1513280700892210e-03</internalNodes>
          <leafValues>
            -4.0787047147750854e-01 6.0642525553703308e-02</leafValues></_>
        <_>
          <internalNodes>
            0 -1 7 1.5784549713134766e-01</internalNodes>
          <leafValues>
            -8.6476057767868042e-02 3.1671312451362610e-01</leafValues></_>
        <_>
          <internalNodes>
            0 -1 759 7.0384675636887550e-03</internalNodes>
          <leafValues>
            -3.2184951007366180e-02 6.0543149709701538e-01</leafValues></_>
        <_>
          <internalNodes>
            0 -1 222 6.7079178988933563e-02</internalNodes>
          <leafValues>
            4.2670533061027527e-02 -6.3324844837188721e-01</leafValues></_>
        <_>
          <internalNodes>
            0 -1 667 -1.2690455187112093e-03</internalNodes>
          <leafValues>
            1.2379528582096100e-01 -1.7433516681194305e-01</leafValues></_>
        <_>
          <internalNodes>
            0 -1 349 9.9613359197974205e-03</internalNodes>
          <leafValues>
            5.1695927977561951e-02 -3.7810656428337097e-01</leafValues></_>
        <_>
          <internalNodes>
            0 -1 357 3.0725377146154642e-03</internalNodes>
          <leafValues>
            6.3080877065658569e-02 -3.9957040548324585e-01</leafValues></_>
        <_>
          <internalNodes>
            0 -1 127 1.9858688116073608e-01</internalNodes>
          <leafValues>
            -7.0449002087116241e-02 3.8817614316940308e-01</leafValues></_>
        <_>
          <internalNodes>
            0 -1 40 6.0019716620445251e-02</internalNodes>
          <leafValues>
            3.6102093756198883e-02 -6.5618437528610229e-01</leafValues></_>
        <_>
          <internalNodes>
            0 -1 158 -3.3789947628974915e-02</internalNodes>
          <leafValues>
            3.8856378197669983e-01 -6.0741569846868515e-02</leafValues></_>
        <_>
          <internalNodes>
            0 -1 128 3.5246470943093300e-03</internalNodes>
          <leafValues>
            8.6211688816547394e-02 -2.7027994394302368e-01</leafValues></_>
        <_>
          <internalNodes>
            0 -1 512 -9.2086315155029297e-02</internalNodes>
          <leafValues>
            -3.7595862150192261e-01 5.8024112135171890e-02</leafValues></_>
        <_>
          <internalNodes>
            0 -1 795 1.8819149583578110e-02</internalNodes>
          <leafValues>
            -8.4363117814064026e-02 3.0550205707550049e-01</leafValues></_>
        <_>
          <internalNodes>
            0 -1 190 6.2340917065739632e-03</internalNodes>
          <leafValues>
            5.7321850210428238e-02 -4.1768690943717957e-01</leafValues></_>
        <_>
          <internalNodes>
            0 -1 334 1.6770016402006149e-02</internalNodes>
          <leafValues>
            -5.5869851261377335e-02 4.2738315463066101e-01</leafValues></_>
        <_>
          <internalNodes>
            0 -1 749 7.3252208530902863e-03</internalNodes>
          <leafValues>
            -1.0926236212253571e-01 1.9721591472625732e-01</leafValues></_>
        <_>
          <internalNodes>
            0 -1 714 -4.3785539455711842e-03</internalNodes>
          <leafValues>
            3.5097932815551758e-01 -6.7919164896011353e-02</leafValues></_>
        <_>
          <internalNodes>
            0 -1 815 -9.1466179583221674e-04</internalNodes>
          <leafValues>
            2.7464723587036133e-01 -7.8669093549251556e-02</leafValues></_>
        <_>
          <internalNodes>
            0 -1 148 -7.0581315085291862e-03</internalNodes>
          <leafValues>
            -6.3288599252700806e-01 3.2274711877107620e-02</leafValues></_>
        <_>
          <internalNodes>
            0 -1 652 5.6421617045998573e-03</internalNodes>
          <leafValues>
            3.4093257039785385e-02 -5.2964860200881958e-01</leafValues></_>
        <_>
          <internalNodes>
            0 -1 265 2.5041020126082003e-04</internalNodes>
          <leafValues>
            -1.1666598916053772e-01 1.8489168584346771e-01</leafValues></_>
        <_>
          <internalNodes>
            0 -1 321 2.0592994987964630e-03</internalNodes>
          <leafValues>
            -1.3611048460006714e-01 1.5008071064949036e-01</leafValues></_>
        <_>
          <internalNodes>
            0 -1 380 3.0366983264684677e-03</internalNodes>
          <leafValues>
            -7.1282461285591125e-02 3.3953973650932312e-01</leafValues></_>
        <_>
          <internalNodes>
            0 -1 605 2.7308277785778046e-03</internalNodes>
          <leafValues>
            5.7063978165388107e-02 -3.9269933104515076e-01</leafValues></_>
        <_>
          <internalNodes>
            0 -1 612 -2.9080582316964865e-04</internalNodes>
          <leafValues>
            -2.0283731818199158e-01 9.6139237284660339e-02</leafValues></_>
        <_>
          <internalNodes>
            0 -1 704 6.7373635247349739e-03</internalNodes>
          <leafValues>
            -5.2522443234920502e-02 4.0497764945030212e-01</leafValues></_>
        <_>
          <internalNodes>
            0 -1 877 -6.5358690917491913e-03</internalNodes>
          <leafValues>
            -5.8147794008255005e-01 3.5381220281124115e-02</leafValues></_>
        <_>
          <internalNodes>
            0 -1 653 -4.5590137597173452e-04</internalNodes>
          <leafValues>
            1.7693820595741272e-01 -1.1850605159997940e-01</leafValues></_>
        <_>
          <internalNodes>
            0 -1 228 3.2448589801788330e-02</internalNodes>
          <leafValues>
            5.2598461508750916e-02 -4.0860584378242493e-01</leafValues></_>
        <_>
          <internalNodes>
            0 -1 781 5.9808501973748207e-03</internalNodes>
          <leafValues>
            4.2989190667867661e-02 -4.4494658708572388e-01</leafValues></_>
        <_>
          <internalNodes>
            0 -1 343 1.1445362865924835e-01</internalNodes>
          <leafValues>
            2.3976244032382965e-02 -6.9972133636474609e-01</leafValues></_>
        <_>
          <internalNodes>
            0 -1 536 -4.3339766561985016e-02</internalNodes>
          <leafValues>
            4.4806963205337524e-01 -4.9017798155546188e-02</leafValues></_>
        <_>
          <internalNodes>
            0 -1 490 -3.4019239246845245e-03</internalNodes>
          <leafValues>
            -3.6192053556442261e-01 5.7391654700040817e-02</leafValues></_>
        <_>
          <internalNodes>
            0 -1 317 -1.0973464231938124e-03</internalNodes>
          <leafValues>
            3.7942841649055481e-01 -5.4595813155174255e-02</leafValues></_>
        <_>
          <internalNodes>
            0 -1 766 -2.3723477497696877e-03</internalNodes>
          <leafValues>
            2.6122552156448364e-01 -7.4238307774066925e-02</leafValues></_>
        <_>
          <internalNodes>
            0 -1 160 -7.6880678534507751e-02</internalNodes>
          <leafValues>
            -8.1964403390884399e-01 2.4328984320163727e-02</leafValues></_>
        <_>
          <internalNodes>
            0 -1 747 4.7191055491566658e-03</internalNodes>
          <leafValues>
            4.4255919754505157e-02 -4.0198814868927002e-01</leafValues></_>
        <_>
          <internalNodes>
            0 -1 41 -8.5224192589521408e-03</internalNodes>
          <leafValues>
            -3.9190194010734558e-01 4.3659061193466187e-02</leafValues></_>
        <_>
          <internalNodes>
            0 -1 82 -6.9725362118333578e-04</internalNodes>
          <leafValues>
            -2.2555766999721527e-01 9.4762332737445831e-02</leafValues></_>
        <_>
          <internalNodes>
            0 -1 220 -4.6248398721218109e-02</internalNodes>
          <leafValues>
            3.0553340911865234e-01 -6.3963979482650757e-02</leafValues></_>
        <_>
          <internalNodes>
            0 -1 772 -5.4817469790577888e-03</internalNodes>
          <leafValues>
            3.6287429928779602e-01 -5.3882759064435959e-02</leafValues></_>
        <_>
          <internalNodes>
            0 -1 775 -1.1200895532965660e-03</internalNodes>
          <leafValues>
            1.8282318115234375e-01 -1.0263577848672867e-01</leafValues></_>
        <_>
          <internalNodes>
            0 -1 241 1.7993073910474777e-02</internalNodes>
          <leafValues>
            -3.9035253226757050e-02 4.9286895990371704e-01</leafValues></_>
        <_>
          <internalNodes>
            0 -1 432 1.2507690116763115e-02</internalNodes>
          <leafValues>
            -1.4513513445854187e-01 1.3750889897346497e-01</leafValues></_></weakClassifiers></_>
    <!-- stage 10 -->
    <_>
      <maxWeakCount>71</maxWeakCount>
      <stageThreshold>-1.3930302858352661e+00</stageThreshold>
      <weakClassifiers>
        <_>
          <internalNodes>
            0 -1 449 3.3831777982413769e-03</internalNodes>
          <leafValues>
            -4.9490836262702942e-01 1.5985129773616791e-01</leafValues></_>
        <_>
          <internalNodes>
            0 -1 756 -1.0042537003755569e-02</internalNodes>
          <leafValues>
            3.6767846345901489e-01 -1.9211946427822113e-01</leafValues></_>
        <_>
          <internalNodes>
            0 -1 503 -1.8623346462845802e-02</internalNodes>
          <leafValues>
            2.6661390066146851e-01 -2.0010657608509064e-01</leafValues></_>
        <_>
          <internalNodes>
            0 -1 212 8.1159546971321106e-03</internalNodes>
          <leafValues>
            -2.6930925250053406e-01 1.1117757111787796e-01</leafValues></_>
        <_>
          <internalNodes>
            0 -1 450 3.1348224729299545e-03</internalNodes>
          <leafValues>
            1.0018549114465714e-01 -4.4261917471885681e-01</leafValues></_>
        <_>
          <internalNodes>
            0 -1 231 -9.1854766011238098e-02</internalNodes>
          <leafValues>
            -4.9940827488899231e-01 6.2613800168037415e-02</leafValues></_>
        <_>
          <internalNodes>
            0 -1 462 5.3073801100254059e-03</internalNodes>
          <leafValues>
            5.7368155568838120e-02 -3.9516994357109070e-01</leafValues></_>
        <_>
          <internalNodes>
            0 -1 619 -3.0575931072235107e-02</internalNodes>
          <leafValues>
            4.2755267024040222e-01 -9.5708400011062622e-02</leafValues></_>
        <_>
          <internalNodes>
            0 -1 734 -2.9560583643615246e-03</internalNodes>
          <leafValues>
            3.5397329926490784e-01 -5.8478046208620071e-02</leafValues></_>
        <_>
          <internalNodes>
            0 -1 583 2.4402677081525326e-03</internalNodes>
          <leafValues>
            2.4138050153851509e-02 -6.0434216260910034e-01</leafValues></_>
        <_>
          <internalNodes>
            0 -1 368 -4.7423946671187878e-03</internalNodes>
          <leafValues>
            4.2196074128150940e-01 -5.5810343474149704e-02</leafValues></_>
        <_>
          <internalNodes>
            0 -1 253 -9.2405416071414948e-03</internalNodes>
          <leafValues>
            -3.7008565664291382e-01 5.9994325041770935e-02</leafValues></_>
        <_>
          <internalNodes>
            0 -1 320 7.2432775050401688e-03</internalNodes>
          <leafValues>
            5.3066425025463104e-02 -3.9427259564399719e-01</leafValues></_>
        <_>
          <internalNodes>
            0 -1 5 2.3163056373596191e-01</internalNodes>
          <leafValues>
            -9.5224224030971527e-02 2.3575793206691742e-01</leafValues></_>
        <_>
          <internalNodes>
            0 -1 791 -4.5421190559864044e-02</internalNodes>
          <leafValues>
            3.0975779891014099e-01 -9.2249706387519836e-02</leafValues></_>
        <_>
          <internalNodes>
            0 -1 18 -1.2229147367179394e-02</internalNodes>
          <leafValues>
            -5.8180207014083862e-01 4.5831557363271713e-02</leafValues></_>
        <_>
          <internalNodes>
            0 -1 787 -1.5638384502381086e-03</internalNodes>
          <leafValues>
            4.5981550216674805e-01 -5.1342569291591644e-02</leafValues></_>
        <_>
          <internalNodes>
            0 -1 789 -1.3456300366669893e-03</internalNodes>
          <leafValues>
            3.9168849587440491e-01 -4.9393817782402039e-02</leafValues></_>
        <_>
          <internalNodes>
            0 -1 715 -2.2695938125252724e-02</internalNodes>
          <leafValues>
            -6.0946929454803467e-01 4.1430108249187469e-02</leafValues></_>
        <_>
          <internalNodes>
            0 -1 261 4.4544143602252007e-03</internalNodes>
          <leafValues>
            4.5219413936138153e-02 -3.7617969512939453e-01</leafValues></_>
        <_>
          <internalNodes>
            0 -1 607 -6.1855218373239040e-03</internalNodes>
          <leafValues>
            -5.0822067260742188e-01 3.8193341344594955e-02</leafValues></_>
        <_>
          <internalNodes>
            0 -1 725 -6.8490457488223910e-04</internalNodes>
          <leafValues>
            2.2325438261032104e-01 -1.1593762040138245e-01</leafValues></_>
        <_>
          <internalNodes>
            0 -1 646 -1.8181227147579193e-02</internalNodes>
          <leafValues>
            5.6147462129592896e-01 -3.5084266215562820e-02</leafValues></_>
        <_>
          <internalNodes>
            0 -1 108 -2.5069057941436768e-02</internalNodes>
          <leafValues>
            1.7667800188064575e-01 -1.1392967402935028e-01</leafValues></_>
        <_>
          <internalNodes>
            0 -1 327 2.6601523160934448e-02</internalNodes>
          <leafValues>
            -9.0868622064590454e-02 3.0213490128517151e-01</leafValues></_>
        <_>
          <internalNodes>
            0 -1 636 1.5670269727706909e-02</internalNodes>
          <leafValues>
            -5.5621571838855743e-02 3.8787934184074402e-01</leafValues></_>
        <_>
          <internalNodes>
            0 -1 22 -4.9857988953590393e-02</internalNodes>
          <leafValues>
            2.5251069664955139e-01 -8.3866454660892487e-02</leafValues></_>
        <_>
          <internalNodes>
            0 -1 310 -7.4841747991740704e-03</internalNodes>
          <leafValues>
            1.5664915740489960e-01 -1.3640017807483673e-01</leafValues></_>
        <_>
          <internalNodes>
            0 -1 743 -3.1441599130630493e-03</internalNodes>
          <leafValues>
            -3.5353252291679382e-01 6.0842137783765793e-02</leafValues></_>
        <_>
          <internalNodes>
            0 -1 664 -1.2939486652612686e-02</internalNodes>
          <leafValues>
            -2.3833988606929779e-01 9.2878498136997223e-02</leafValues></_>
        <_>
          <internalNodes>
            0 -1 608 1.8622057978063822e-03</internalNodes>
          <leafValues>
            3.9000555872917175e-02 -5.4006278514862061e-01</leafValues></_>
        <_>
          <internalNodes>
            0 -1 374 6.3659520819783211e-03</internalNodes>
          <leafValues>
            3.0238240957260132e-02 -5.6292504072189331e-01</leafValues></_>
        <_>
          <internalNodes>
            0 -1 580 1.6383111476898193e-02</internalNodes>
          <leafValues>
            -4.8623289912939072e-02 4.3100067973136902e-01</leafValues></_>
        <_>
          <internalNodes>
            0 -1 445 3.7800506688654423e-03</internalNodes>
          <leafValues>
            -5.9414714574813843e-02 3.1727600097656250e-01</leafValues></_>
        <_>
          <internalNodes>
            0 -1 760 1.3847270980477333e-02</internalNodes>
          <leafValues>
            2.5176644325256348e-02 -6.8986248970031738e-01</leafValues></_>
        <_>
          <internalNodes>
            0 -1 571 6.9471178576350212e-03</internalNodes>
          <leafValues>
            -6.8758644163608551e-02 3.1169441342353821e-01</leafValues></_>
        <_>
          <internalNodes>
            0 -1 293 1.3438450172543526e-02</internalNodes>
          <leafValues>
            5.3922548890113831e-02 -4.1720458865165710e-01</leafValues></_>
        <_>
          <internalNodes>
            0 -1 854 -4.9611292779445648e-03</internalNodes>
          <leafValues>
            3.0517375469207764e-01 -6.3643060624599457e-02</leafValues></_>
        <_>
          <internalNodes>
            0 -1 776 -2.4197565391659737e-02</internalNodes>
          <leafValues>
            -4.4417482614517212e-01 4.0309973061084747e-02</leafValues></_>
        <_>
          <internalNodes>
            0 -1 737 2.0887642167508602e-03</internalNodes>
          <leafValues>
            3.6032620817422867e-02 -4.2961624264717102e-01</leafValues></_>
        <_>
          <internalNodes>
            0 -1 591 -9.6283182501792908e-03</internalNodes>
          <leafValues>
            3.1321048736572266e-01 -6.6049993038177490e-02</leafValues></_>
        <_>
          <internalNodes>
            0 -1 684 -1.2672420125454664e-03</internalNodes>
          <leafValues>
            1.9286666810512543e-01 -9.5193319022655487e-02</leafValues></_>
        <_>
          <internalNodes>
            0 -1 206 -1.7694357782602310e-02</internalNodes>
          <leafValues>
            -4.0966549515724182e-01 4.6371486037969589e-02</leafValues></_>
        <_>
          <internalNodes>
            0 -1 514 7.4411770328879356e-03</internalNodes>
          <leafValues>
            -6.4483776688575745e-02 2.8492593765258789e-01</leafValues></_>
        <_>
          <internalNodes>
            0 -1 113 -2.6718772947788239e-02</internalNodes>
          <leafValues>
            2.6539844274520874e-01 -7.2676144540309906e-02</leafValues></_>
        <_>
          <internalNodes>
            0 -1 101 -9.9822707474231720e-02</internalNodes>
          <leafValues>
            -6.0609114170074463e-01 3.6071237176656723e-02</leafValues></_>
        <_>
          <internalNodes>
            0 -1 827 -1.5532461926341057e-02</internalNodes>
          <leafValues>
            5.4392445087432861e-01 -3.7913724780082703e-02</leafValues></_>
        <_>
          <internalNodes>
            0 -1 14 5.1149483770132065e-03</internalNodes>
          <leafValues>
            7.5514256954193115e-02 -2.6372024416923523e-01</leafValues></_>
        <_>
          <internalNodes>
            0 -1 633 -1.5083525329828262e-02</internalNodes>
          <leafValues>
            2.7325576543807983e-01 -7.6593242585659027e-02</leafValues></_>
        <_>
          <internalNodes>
            0 -1 625 2.5008514523506165e-02</internalNodes>
          <leafValues>
            -5.7861749082803726e-02 3.1190145015716553e-01</leafValues></_>
        <_>
          <internalNodes>
            0 -1 859 -8.0836797133088112e-03</internalNodes>
          <leafValues>
            -4.0355259180068970e-01 4.7552555799484253e-02</leafValues></_>
        <_>
          <internalNodes>
            0 -1 245 2.9372042044997215e-03</internalNodes>
          <leafValues>
            -1.2020901590585709e-01 1.5125609934329987e-01</leafValues></_>
        <_>
          <internalNodes>
            0 -1 137 -1.3767762109637260e-02</internalNodes>
          <leafValues>
            5.2859508991241455e-01 -4.1928790509700775e-02</leafValues></_>
        <_>
          <internalNodes>
            0 -1 790 -3.0380873940885067e-03</internalNodes>
          <leafValues>
            3.4157642722129822e-01 -4.8252526670694351e-02</leafValues></_>
        <_>
          <internalNodes>
            0 -1 20 3.6638498306274414e-01</internalNodes>
          <leafValues>
            -4.0979389101266861e-02 4.5134145021438599e-01</leafValues></_>
        <_>
          <internalNodes>
            0 -1 537 5.0663471221923828e-02</internalNodes>
          <leafValues>
            2.7429075911641121e-02 -7.3310369253158569e-01</leafValues></_>
        <_>
          <internalNodes>
            0 -1 157 -1.6300310380756855e-03</internalNodes>
          <leafValues>
            4.3698325753211975e-01 -4.7113966196775436e-02</leafValues></_>
        <_>
          <internalNodes>
            0 -1 9 3.9622187614440918e-01</internalNodes>
          <leafValues>
            -2.9897777363657951e-02 5.9499907493591309e-01</leafValues></_>
        <_>
          <internalNodes>
            0 -1 346 -1.0260662063956261e-02</internalNodes>
          <leafValues>
            -5.8958971500396729e-01 3.4953895956277847e-02</leafValues></_>
        <_>
          <internalNodes>
            0 -1 522 -9.7248759120702744e-03</internalNodes>
          <leafValues>
            1.6824296116828918e-01 -1.1303462833166122e-01</leafValues></_>
        <_>
          <internalNodes>
            0 -1 752 9.0921705123037100e-04</internalNodes>
          <leafValues>
            -1.3073621690273285e-01 1.4921262860298157e-01</leafValues></_>
        <_>
          <internalNodes>
            0 -1 103 8.6012249812483788e-03</internalNodes>
          <leafValues>
            -3.8588978350162506e-02 4.9473440647125244e-01</leafValues></_>
        <_>
          <internalNodes>
            0 -1 140 6.4034974202513695e-03</internalNodes>
          <leafValues>
            5.7298090308904648e-02 -3.7534311413764954e-01</leafValues></_>
        <_>
          <internalNodes>
            0 -1 744 6.4160106703639030e-03</internalNodes>
          <leafValues>
            4.1563965380191803e-02 -4.3977287411689758e-01</leafValues></_>
        <_>
          <internalNodes>
            0 -1 57 -1.5948408981785178e-03</internalNodes>
          <leafValues>
            -1.7930535972118378e-01 1.0146626830101013e-01</leafValues></_>
        <_>
          <internalNodes>
            0 -1 824 5.9048617258667946e-03</internalNodes>
          <leafValues>
            -5.7149376720190048e-02 3.3265513181686401e-01</leafValues></_>
        <_>
          <internalNodes>
            0 -1 691 -1.1014295741915703e-03</internalNodes>
          <leafValues>
            -2.5035607814788818e-01 7.0996299386024475e-02</leafValues></_>
        <_>
          <internalNodes>
            0 -1 867 -6.1346200527623296e-04</internalNodes>
          <leafValues>
            1.5692935883998871e-01 -1.1767300218343735e-01</leafValues></_>
        <_>
          <internalNodes>
            0 -1 6 2.6590608060359955e-02</internalNodes>
          <leafValues>
            7.6216354966163635e-02 -2.2909359633922577e-01</leafValues></_>
        <_>
          <internalNodes>
            0 -1 856 -1.9308321643620729e-03</internalNodes>
          <leafValues>
            -1.8613575398921967e-01 1.2323977053165436e-01</leafValues></_>
        <_>
          <internalNodes>
            0 -1 92 -1.2668855488300323e-03</internalNodes>
          <leafValues>
            1.8718118965625763e-01 -1.0736939311027527e-01</leafValues></_></weakClassifiers></_>
    <!-- stage 11 -->
    <_>
      <maxWeakCount>70</maxWeakCount>
      <stageThreshold>-1.3358744382858276e+00</stageThreshold>
      <weakClassifiers>
        <_>
          <internalNodes>
            0 -1 378 -1.5642810612916946e-02</internalNodes>
          <leafValues>
            2.6182964444160461e-01 -4.3839943408966064e-01</leafValues></_>
        <_>
          <internalNodes>
            0 -1 389 1.5499999281018972e-03</internalNodes>
          <leafValues>
            -1.8979264795780182e-01 3.8360422849655151e-01</leafValues></_>
        <_>
          <internalNodes>
            0 -1 482 -3.3890288323163986e-02</internalNodes>
          <leafValues>
            2.1128863096237183e-01 -2.1006043255329132e-01</leafValues></_>
        <_>
          <internalNodes>
            0 -1 599 -3.7468017544597387e-03</internalNodes>
          <leafValues>
            1.9424447417259216e-01 -2.2569662332534790e-01</leafValues></_>
        <_>
          <internalNodes>
            0 -1 681 1.3637844240292907e-03</internalNodes>
          <leafValues>
            1.0225015878677368e-01 -3.2945221662521362e-01</leafValues></_>
        <_>
          <internalNodes>
            0 -1 660 5.0422957428963855e-05</internalNodes>
          <leafValues>
            1.6169287264347076e-01 -2.0650678873062134e-01</leafValues></_>
        <_>
          <internalNodes>
            0 -1 8 2.5449758768081665e-01</internalNodes>
          <leafValues>
            -1.0480403155088425e-01 2.7150169014930725e-01</leafValues></_>
        <_>
          <internalNodes>
            0 -1 292 1.0584262013435364e-01</internalNodes>
          <leafValues>
            -1.0958073288202286e-01 2.6186168193817139e-01</leafValues></_>
        <_>
          <internalNodes>
            0 -1 656 -2.3998878896236420e-02</internalNodes>
          <leafValues>
            -5.6013047695159912e-01 5.5390093475580215e-02</leafValues></_>
        <_>
          <internalNodes>
            0 -1 200 -3.1483683269470930e-03</internalNodes>
          <leafValues>
            4.8113107681274414e-01 -5.8630280196666718e-02</leafValues></_>
        <_>
          <internalNodes>
            0 -1 539 4.5680664479732513e-03</internalNodes>
          <leafValues>
            7.8721769154071808e-02 -3.0639892816543579e-01</leafValues></_>
        <_>
          <internalNodes>
            0 -1 89 -2.8139505535364151e-02</internalNodes>
          <leafValues>
            4.1957938671112061e-01 -4.8252288252115250e-02</leafValues></_>
        <_>
          <internalNodes>
            0 -1 816 1.1268456000834703e-03</internalNodes>
          <leafValues>
            -5.8878839015960693e-02 3.5650032758712769e-01</leafValues></_>
        <_>
          <internalNodes>
            0 -1 594 2.2001140750944614e-03</internalNodes>
          <leafValues>
            3.4286174923181534e-02 -7.2719866037368774e-01</leafValues></_>
        <_>
          <internalNodes>
            0 -1 572 -6.1778891831636429e-03</internalNodes>
          <leafValues>
            -5.3584337234497070e-01 3.5276085138320923e-02</leafValues></_>
        <_>
          <internalNodes>
            0 -1 689 -1.7914805561304092e-02</internalNodes>
          <leafValues>
            5.0247794389724731e-01 -4.0320981293916702e-02</leafValues></_>
        <_>
          <internalNodes>
            0 -1 630 3.1410325318574905e-03</internalNodes>
          <leafValues>
            -1.0748512297868729e-01 2.2124895453453064e-01</leafValues></_>
        <_>
          <internalNodes>
            0 -1 622 -1.1677581816911697e-02</internalNodes>
          <leafValues>
            3.1818428635597229e-01 -7.6604925096035004e-02</leafValues></_>
        <_>
          <internalNodes>
            0 -1 740 -4.5511713251471519e-03</internalNodes>
          <leafValues>
            -4.1668269038200378e-01 5.3502183407545090e-02</leafValues></_>
        <_>
          <internalNodes>
            0 -1 147 5.9183444827795029e-03</internalNodes>
          <leafValues>
            4.0571533143520355e-02 -4.3390077352523804e-01</leafValues></_>
        <_>
          <internalNodes>
            0 -1 251 8.9038303121924400e-03</internalNodes>
          <leafValues>
            -9.8736912012100220e-02 1.8828390538692474e-01</leafValues></_>
        <_>
          <internalNodes>
            0 -1 167 2.6318900287151337e-02</internalNodes>
          <leafValues>
            5.5599957704544067e-02 -3.6704838275909424e-01</leafValues></_>
        <_>
          <internalNodes>
            0 -1 702 -9.9848024547100067e-03</internalNodes>
          <leafValues>
            4.8705592751502991e-01 -3.9983406662940979e-02</leafValues></_>
        <_>
          <internalNodes>
            0 -1 205 -1.0421718470752239e-02</internalNodes>
          <leafValues>
            2.0622183382511139e-01 -9.3679592013359070e-02</leafValues></_>
        <_>
          <internalNodes>
            0 -1 521 4.9463696777820587e-03</internalNodes>
          <leafValues>
            -1.1312733590602875e-01 1.9608239829540253e-01</leafValues></_>
        <_>
          <internalNodes>
            0 -1 182 1.3350790739059448e-01</internalNodes>
          <leafValues>
            3.2317128032445908e-02 -6.1913263797760010e-01</leafValues></_>
        <_>
          <internalNodes>
            0 -1 238 -2.3587804287672043e-02</internalNodes>
          <leafValues>
            4.6062529087066650e-01 -4.7093693166971207e-02</leafValues></_>
        <_>
          <internalNodes>
            0 -1 474 -2.1089792251586914e-02</internalNodes>
          <leafValues>
            -5.2807664871215820e-01 3.9370693266391754e-02</leafValues></_>
        <_>
          <internalNodes>
            0 -1 255 -1.9591677933931351e-02</internalNodes>
          <leafValues>
            -4.7250789403915405e-01 3.5907950252294540e-02</leafValues></_>
        <_>
          <internalNodes>
            0 -1 811 -4.7051376895979047e-05</internalNodes>
          <leafValues>
            -1.5520972013473511e-01 1.1831235885620117e-01</leafValues></_>
        <_>
          <internalNodes>
            0 -1 429 -3.4009036608040333e-04</internalNodes>
          <leafValues>
            1.2339530140161514e-01 -1.4772835373878479e-01</leafValues></_>
        <_>
          <internalNodes>
            0 -1 549 1.5128671657294035e-03</internalNodes>
          <leafValues>
            5.7013701647520065e-02 -2.9967135190963745e-01</leafValues></_>
        <_>
          <internalNodes>
            0 -1 436 8.8628046214580536e-03</internalNodes>
          <leafValues>
            -5.4750040173530579e-02 3.4266525506973267e-01</leafValues></_>
        <_>
          <internalNodes>
            0 -1 387 -6.0408627614378929e-03</internalNodes>
          <leafValues>
            1.7624403536319733e-01 -1.0279686003923416e-01</leafValues></_>
        <_>
          <internalNodes>
            0 -1 610 -1.1063886340707541e-03</internalNodes>
          <leafValues>
            -2.5563383102416992e-01 7.4340485036373138e-02</leafValues></_>
        <_>
          <internalNodes>
            0 -1 581 1.2151093687862158e-03</internalNodes>
          <leafValues>
            3.6794956773519516e-02 -5.0217628479003906e-01</leafValues></_>
        <_>
          <internalNodes>
            0 -1 837 -1.4509576559066772e-01</internalNodes>
          <leafValues>
            -7.7047985792160034e-01 2.2751467302441597e-02</leafValues></_>
        <_>
          <internalNodes>
            0 -1 359 -1.0847030207514763e-02</internalNodes>
          <leafValues>
            -2.5331225991249084e-01 7.3918841779232025e-02</leafValues></_>
        <_>
          <internalNodes>
            0 -1 284 9.4907423481345177e-03</internalNodes>
          <leafValues>
            4.4407069683074951e-02 -4.1412651538848877e-01</leafValues></_>
        <_>
          <internalNodes>
            0 -1 193 -5.1698654890060425e-02</internalNodes>
          <leafValues>
            -4.1314733028411865e-01 4.0430314838886261e-02</leafValues></_>
        <_>
          <internalNodes>
            0 -1 686 3.8713723188266158e-04</internalNodes>
          <leafValues>
            -1.6328334808349609e-01 1.0917317867279053e-01</leafValues></_>
        <_>
          <internalNodes>
            0 -1 835 -8.9376245159655809e-04</internalNodes>
          <leafValues>
            2.7202010154724121e-01 -7.6526857912540436e-02</leafValues></_>
        <_>
          <internalNodes>
            0 -1 273 -1.7066340893507004e-02</internalNodes>
          <leafValues>
            1.6214023530483246e-01 -1.1958006024360657e-01</leafValues></_>
        <_>
          <internalNodes>
            0 -1 517 -5.1110824570059776e-03</internalNodes>
          <leafValues>
            -2.3699915409088135e-01 7.3284722864627838e-02</leafValues></_>
        <_>
          <internalNodes>
            0 -1 709 -3.1565891113132238e-03</internalNodes>
          <leafValues>
            3.9461722970008850e-01 -4.6948064118623734e-02</leafValues></_>
        <_>
          <internalNodes>
            0 -1 74 -3.8089947775006294e-03</internalNodes>
          <leafValues>
            -7.6491087675094604e-01 2.5537321344017982e-02</leafValues></_>
        <_>
          <internalNodes>
            0 -1 413 -9.6542979008518159e-05</internalNodes>
          <leafValues>
            1.3608263432979584e-01 -1.2723831832408905e-01</leafValues></_>
        <_>
          <internalNodes>
            0 -1 648 1.9970649736933410e-04</internalNodes>
          <leafValues>
            1.2298780679702759e-01 -1.4470317959785461e-01</leafValues></_>
        <_>
          <internalNodes>
            0 -1 495 -7.2928210720419884e-03</internalNodes>
          <leafValues>
            3.6080759763717651e-01 -4.8734992742538452e-02</leafValues></_>
        <_>
          <internalNodes>
            0 -1 352 3.9580482989549637e-03</internalNodes>
          <leafValues>
            5.3339976817369461e-02 -3.3601495623588562e-01</leafValues></_>
        <_>
          <internalNodes>
            0 -1 150 1.0790883097797632e-03</internalNodes>
          <leafValues>
            6.1819672584533691e-02 -2.6831611990928650e-01</leafValues></_>
        <_>
          <internalNodes>
            0 -1 46 1.8014886975288391e-01</internalNodes>
          <leafValues>
            2.9848264530301094e-02 -5.5744618177413940e-01</leafValues></_>
        <_>
          <internalNodes>
            0 -1 863 1.6565866768360138e-02</internalNodes>
          <leafValues>
            6.2752991914749146e-02 -2.7199646830558777e-01</leafValues></_>
        <_>
          <internalNodes>
            0 -1 288 9.9316388368606567e-03</internalNodes>
          <leafValues>
            -4.4342078268527985e-02 4.0344259142875671e-01</leafValues></_>
        <_>
          <internalNodes>
            0 -1 801 -1.4950663316994905e-03</internalNodes>
          <leafValues>
            1.4984773099422455e-01 -1.2374163419008255e-01</leafValues></_>
        <_>
          <internalNodes>
            0 -1 671 3.8468852639198303e-02</internalNodes>
          <leafValues>
            -7.6997421681880951e-02 2.4604937434196472e-01</leafValues></_>
        <_>
          <internalNodes>
            0 -1 741 -1.1679669842123985e-04</internalNodes>
          <leafValues>
            1.7225247621536255e-01 -1.2118821591138840e-01</leafValues></_>
        <_>
          <internalNodes>
            0 -1 419 -1.6895851492881775e-01</internalNodes>
          <leafValues>
            -6.9920784235000610e-01 2.5210639461874962e-02</leafValues></_>
        <_>
          <internalNodes>
            0 -1 848 -4.6388520859181881e-03</internalNodes>
          <leafValues>
            1.9509461522102356e-01 -1.0909909009933472e-01</leafValues></_>
        <_>
          <internalNodes>
            0 -1 792 8.0803204327821732e-03</internalNodes>
          <leafValues>
            2.6671875268220901e-02 -7.1713751554489136e-01</leafValues></_>
        <_>
          <internalNodes>
            0 -1 603 -9.0455003082752228e-03</internalNodes>
          <leafValues>
            2.5933909416198730e-01 -7.8689552843570709e-02</leafValues></_>
        <_>
          <internalNodes>
            0 -1 580 -1.3238457962870598e-02</internalNodes>
          <leafValues>
            2.5367838144302368e-01 -8.6871206760406494e-02</leafValues></_>
        <_>
          <internalNodes>
            0 -1 208 -1.8191266572102904e-03</internalNodes>
          <leafValues>
            1.4822661876678467e-01 -1.3877448439598083e-01</leafValues></_>
        <_>
          <internalNodes>
            0 -1 529 1.8790435045957565e-02</internalNodes>
          <leafValues>
            1.7962196841835976e-02 -7.9845553636550903e-01</leafValues></_>
        <_>
          <internalNodes>
            0 -1 770 7.3155853897333145e-04</internalNodes>
          <leafValues>
            -1.1384119838476181e-01 1.5830287337303162e-01</leafValues></_>
        <_>
          <internalNodes>
            0 -1 853 -1.5325885033234954e-03</internalNodes>
          <leafValues>
            -3.0904722213745117e-01 5.6819267570972443e-02</leafValues></_>
        <_>
          <internalNodes>
            0 -1 361 3.5097278654575348e-02</internalNodes>
          <leafValues>
            -9.0369515120983124e-02 1.9962424039840698e-01</leafValues></_>
        <_>
          <internalNodes>
            0 -1 556 -2.4413666687905788e-03</internalNodes>
          <leafValues>
            -4.9873945116996765e-01 3.9373636245727539e-02</leafValues></_>
        <_>
          <internalNodes>
            0 -1 437 1.0790272615849972e-02</internalNodes>
          <leafValues>
            -2.5841027498245239e-02 8.3413678407669067e-01</leafValues></_>
        <_>
          <internalNodes>
            0 -1 355 1.5359941869974136e-02</internalNodes>
          <leafValues>
            2.8405068442225456e-02 -7.8057581186294556e-01</leafValues></_></weakClassifiers></_>
    <!-- stage 12 -->
    <_>
      <maxWeakCount>72</maxWeakCount>
      <stageThreshold>-1.2812201976776123e+00</stageThreshold>
      <weakClassifiers>
        <_>
          <internalNodes>
            0 -1 761 -2.5563584640622139e-03</internalNodes>
          <leafValues>
            2.5336089730262756e-01 -4.3946346640586853e-01</leafValues></_>
        <_>
          <internalNodes>
            0 -1 471 2.2739223204553127e-03</internalNodes>
          <leafValues>
